<?xml version="1.0"?>
<opencv_storage>
<cascade>
  <stageType>BOOST</stageType>
  <featureType>HAAR</featureType>
  <height>24</height>
  <width>12</width>
  <stageParams>
    <boostType>GAB</boostType>
    <minHitRate>9.9900001287460327e-01</minHitRate>
    <maxFalseAlarm>6.4999997615814209e-01</maxFalseAlarm>
    <weightTrimRate>9.4999999999999996e-01</weightTrimRate>
    <maxDepth>1</maxDepth>
    <maxWeakCount>100</maxWeakCount></stageParams>
  <featureParams>
    <maxCatCount>0</maxCatCount>
    <featSize>1</featSize>
    <mode>BASIC</mode></featureParams>
  <stageNum>9</stageNum>
  <stages>
    <!-- stage 0 -->
    <_>
      <maxWeakCount>4</maxWeakCount>
      <stageThreshold>-2.2413167953491211e+00</stageThreshold>
      <weakClassifiers>
        <_>
          <internalNodes>
            0 -1 6 -4.6366408467292786e-02</internalNodes>
          <leafValues>
            6.7917203903198242e-01 -9.7023636102676392e-01</leafValues></_>
        <_>
          <internalNodes>
            0 -1 24 2.2391006350517273e-02</internalNodes>
          <leafValues>
            -9.5214051008224487e-01 7.1299439668655396e-01</leafValues></_>
        <_>
          <internalNodes>
            0 -1 33 2.1238565444946289e-02</internalNodes>
          <leafValues>
            -8.5626941919326782e-01 6.9072264432907104e-01</leafValues></_>
        <_>
          <internalNodes>
            0 -1 10 -1.6422409564256668e-02</internalNodes>
          <leafValues>
            5.3732943534851074e-01 -9.5361316204071045e-01</leafValues></_></weakClassifiers></_>
    <!-- stage 1 -->
    <_>
      <maxWeakCount>4</maxWeakCount>
      <stageThreshold>-2.1721718311309814e+00</stageThreshold>
      <weakClassifiers>
        <_>
          <internalNodes>
            0 -1 4 -7.0106402039527893e-02</internalNodes>
          <leafValues>
            5.0374066829681396e-01 -9.4290757179260254e-01</leafValues></_>
        <_>
          <internalNodes>
            0 -1 27 -3.9427977800369263e-01</internalNodes>
          <leafValues>
            6.4544713497161865e-01 -7.8423357009887695e-01</leafValues></_>
        <_>
          <internalNodes>
            0 -1 17 1.6751393675804138e-02</internalNodes>
          <leafValues>
            -8.4693086147308350e-01 5.2736395597457886e-01</leafValues></_>
        <_>
          <internalNodes>
            0 -1 15 -2.3435737937688828e-02</internalNodes>
          <leafValues>
            4.0190023183822632e-01 -9.6899145841598511e-01</leafValues></_></weakClassifiers></_>
    <!-- stage 2 -->
    <_>
      <maxWeakCount>3</maxWeakCount>
      <stageThreshold>-1.3399515151977539e+00</stageThreshold>
      <weakClassifiers>
        <_>
          <internalNodes>
            0 -1 5 -6.5196618437767029e-02</internalNodes>
          <leafValues>
            4.4764396548271179e-01 -9.1443538665771484e-01</leafValues></_>
        <_>
          <internalNodes>
            0 -1 32 3.2275665551424026e-02</internalNodes>
          <leafValues>
            -9.1769361495971680e-01 5.1609134674072266e-01</leafValues></_>
        <_>
          <internalNodes>
            0 -1 25 -9.9443299695849419e-03</internalNodes>
          <leafValues>
            4.9217742681503296e-01 -8.0739814043045044e-01</leafValues></_></weakClassifiers></_>
    <!-- stage 3 -->
    <_>
      <maxWeakCount>4</maxWeakCount>
      <stageThreshold>-1.9640527963638306e+00</stageThreshold>
      <weakClassifiers>
        <_>
          <internalNodes>
            0 -1 19 -3.1524938344955444e-01</internalNodes>
          <leafValues>
            4.1963016986846924e-01 -8.8504433631896973e-01</leafValues></_>
        <_>
          <internalNodes>
            0 -1 28 -4.7572523355484009e-02</internalNodes>
          <leafValues>
            4.4404745101928711e-01 -7.7622306346893311e-01</leafValues></_>
        <_>
          <internalNodes>
            0 -1 3 -7.5990542769432068e-02</internalNodes>
          <leafValues>
            5.3116983175277710e-01 -7.7426481246948242e-01</leafValues></_>
        <_>
          <internalNodes>
            0 -1 26 2.2756505757570267e-02</internalNodes>
          <leafValues>
            -7.4879115819931030e-01 6.2101316452026367e-01</leafValues></_></weakClassifiers></_>
    <!-- stage 4 -->
    <_>
      <maxWeakCount>4</maxWeakCount>
      <stageThreshold>-2.1504209041595459e+00</stageThreshold>
      <weakClassifiers>
        <_>
          <internalNodes>
            0 -1 21 -3.6552363634109497e-01</internalNodes>
          <leafValues>
            1.3147410750389099e-01 -9.1739672422409058e-01</leafValues></_>
        <_>
          <internalNodes>
            0 -1 12 -5.8046009391546249e-02</internalNodes>
          <leafValues>
            3.1947892904281616e-01 -8.1304788589477539e-01</leafValues></_>
        <_>
          <internalNodes>
            0 -1 23 -7.0971570909023285e-02</internalNodes>
          <leafValues>
            4.2685854434967041e-01 -7.4592888355255127e-01</leafValues></_>
        <_>
          <internalNodes>
            0 -1 0 -2.8158316854387522e-04</internalNodes>
          <leafValues>
            3.2595270872116089e-01 -9.3556696176528931e-01</leafValues></_></weakClassifiers></_>
    <!-- stage 5 -->
    <_>
      <maxWeakCount>5</maxWeakCount>
      <stageThreshold>-1.8580170869827271e+00</stageThreshold>
      <weakClassifiers>
        <_>
          <internalNodes>
            0 -1 8 -7.1108967065811157e-02</internalNodes>
          <leafValues>
            -1.7163505777716637e-02 -8.9912706613540649e-01</leafValues></_>
        <_>
          <internalNodes>
            0 -1 34 1.6687590628862381e-02</internalNodes>
          <leafValues>
            -8.7518209218978882e-01 3.2048845291137695e-01</leafValues></_>
        <_>
          <internalNodes>
            0 -1 14 -1.2203618884086609e-02</internalNodes>
          <leafValues>
            2.8541308641433716e-01 -9.0350192785263062e-01</leafValues></_>
        <_>
          <internalNodes>
            0 -1 22 -2.2591355443000793e-01</internalNodes>
          <leafValues>
            3.9160898327827454e-01 -8.6943024396896362e-01</leafValues></_>
        <_>
          <internalNodes>
            0 -1 20 -2.4800455197691917e-02</internalNodes>
          <leafValues>
            5.0030910968780518e-01 -6.6777259111404419e-01</leafValues></_></weakClassifiers></_>
    <!-- stage 6 -->
    <_>
      <maxWeakCount>4</maxWeakCount>
      <stageThreshold>-2.3680915832519531e+00</stageThreshold>
      <weakClassifiers>
        <_>
          <internalNodes>
            0 -1 9 -1.7159929871559143e-01</internalNodes>
          <leafValues>
            5.3805774450302124e-01 -9.3368238210678101e-01</leafValues></_>
        <_>
          <internalNodes>
            0 -1 2 -3.8386572152376175e-02</internalNodes>
          <leafValues>
            2.5744056701660156e-01 -8.7280416488647461e-01</leafValues></_>
        <_>
          <internalNodes>
            0 -1 29 4.2716212192317471e-05</internalNodes>
          <leafValues>
            -8.8706088066101074e-01 3.3024975657463074e-01</leafValues></_>
        <_>
          <internalNodes>
            0 -1 30 -8.6414045654237270e-05</internalNodes>
          <leafValues>
            3.2545572519302368e-01 -8.7894380092620850e-01</leafValues></_></weakClassifiers></_>
    <!-- stage 7 -->
    <_>
      <maxWeakCount>5</maxWeakCount>
      <stageThreshold>-2.1348788738250732e+00</stageThreshold>
      <weakClassifiers>
        <_>
          <internalNodes>
            0 -1 7 -1.7086091637611389e-01</internalNodes>
          <leafValues>
            3.9428570866584778e-01 -9.4586467742919922e-01</leafValues></_>
        <_>
          <internalNodes>
            0 -1 3 -8.7916836142539978e-02</internalNodes>
          <leafValues>
            2.5781998038291931e-01 -8.4799611568450928e-01</leafValues></_>
        <_>
          <internalNodes>
            0 -1 35 5.7907880545826629e-05</internalNodes>
          <leafValues>
            -9.3935364484786987e-01 2.3789472877979279e-01</leafValues></_>
        <_>
          <internalNodes>
            0 -1 24 1.8211591988801956e-02</internalNodes>
          <leafValues>
            -7.9474979639053345e-01 3.8365706801414490e-01</leafValues></_>
        <_>
          <internalNodes>
            0 -1 11 -1.9192643463611603e-02</internalNodes>
          <leafValues>
            2.8726923465728760e-01 -8.7535113096237183e-01</leafValues></_></weakClassifiers></_>
    <!-- stage 8 -->
    <_>
      <maxWeakCount>6</maxWeakCount>
      <stageThreshold>-2.3454875946044922e+00</stageThreshold>
      <weakClassifiers>
        <_>
          <internalNodes>
            0 -1 13 -1.1871021986007690e-01</internalNodes>
          <leafValues>
            -6.4516128040850163e-03 -8.9662921428680420e-01</leafValues></_>
        <_>
          <internalNodes>
            0 -1 27 -4.0532988309860229e-01</internalNodes>
          <leafValues>
            4.9048146605491638e-01 -7.0978081226348877e-01</leafValues></_>
        <_>
          <internalNodes>
            0 -1 16 1.0478220065124333e-04</internalNodes>
          <leafValues>
            -9.3361777067184448e-01 3.1262117624282837e-01</leafValues></_>
        <_>
          <internalNodes>
            0 -1 31 3.7575099617242813e-02</internalNodes>
          <leafValues>
            -6.2809759378433228e-01 5.0149643421173096e-01</leafValues></_>
        <_>
          <internalNodes>
            0 -1 1 -3.3468611538410187e-02</internalNodes>
          <leafValues>
            5.1100766658782959e-01 -6.1472845077514648e-01</leafValues></_>
        <_>
          <internalNodes>
            0 -1 18 -1.6290974617004395e-01</internalNodes>
          <leafValues>
            3.0777215957641602e-01 -7.8934419155120850e-01</leafValues></_></weakClassifiers></_></stages>
  <features>
    <_>
      <rects>
        <_>
          0 0 1 2 -1.</_>
        <_>
          0 1 1 1 2.</_></rects>
      <tilted>0</tilted></_>
    <_>
      <rects>
        <_>
          0 1 2 12 -1.</_>
        <_>
          1 1 1 12 2.</_></rects>
      <tilted>0</tilted></_>
    <_>
      <rects>
        <_>
          0 1 2 13 -1.</_>
        <_>
          1 1 1 13 2.</_></rects>
      <tilted>0</tilted></_>
    <_>
      <rects>
        <_>
          0 2 2 21 -1.</_>
        <_>
          1 2 1 21 2.</_></rects>
      <tilted>0</tilted></_>
    <_>
      <rects>
        <_>
          0 5 2 15 -1.</_>
        <_>
          1 5 1 15 2.</_></rects>
      <tilted>0</tilted></_>
    <_>
      <rects>
        <_>
          0 8 2 11 -1.</_>
        <_>
          1 8 1 11 2.</_></rects>
      <tilted>0</tilted></_>
    <_>
      <rects>
        <_>
          0 8 2 12 -1.</_>
        <_>
          1 8 1 12 2.</_></rects>
      <tilted>0</tilted></_>
    <_>
      <rects>
        <_>
          0 8 4 16 -1.</_>
        <_>
          2 8 2 16 2.</_></rects>
      <tilted>0</tilted></_>
    <_>
      <rects>
        <_>
          0 9 6 5 -1.</_>
        <_>
          2 9 2 5 3.</_></rects>
      <tilted>0</tilted></_>
    <_>
      <rects>
        <_>
          0 9 4 14 -1.</_>
        <_>
          2 9 2 14 2.</_></rects>
      <tilted>0</tilted></_>
    <_>
      <rects>
        <_>
          0 10 2 8 -1.</_>
        <_>
          1 10 1 8 2.</_></rects>
      <tilted>0</tilted></_>
    <_>
      <rects>
        <_>
          0 10 2 9 -1.</_>
        <_>
          1 10 1 9 2.</_></rects>
      <tilted>0</tilted></_>
    <_>
      <rects>
        <_>
          0 10 4 5 -1.</_>
        <_>
          2 10 2 5 2.</_></rects>
      <tilted>0</tilted></_>
    <_>
      <rects>
        <_>
          0 10 4 8 -1.</_>
        <_>
          2 10 2 8 2.</_></rects>
      <tilted>0</tilted></_>
    <_>
      <rects>
        <_>
          0 13 2 4 -1.</_>
        <_>
          1 13 1 4 2.</_></rects>
      <tilted>0</tilted></_>
    <_>
      <rects>
        <_>
          0 16 4 6 -1.</_>
        <_>
          2 16 2 6 2.</_></rects>
      <tilted>0</tilted></_>
    <_>
      <rects>
        <_>
          0 22 2 2 -1.</_>
        <_>
          0 22 1 1 2.</_>
        <_>
          1 23 1 1 2.</_></rects>
      <tilted>0</tilted></_>
    <_>
      <rects>
        <_>
          1 22 7 2 -1.</_>
        <_>
          1 23 7 1 2.</_></rects>
      <tilted>0</tilted></_>
    <_>
      <rects>
        <_>
          2 0 5 22 -1.</_>
        <_>
          2 11 5 11 2.</_></rects>
      <tilted>0</tilted></_>
    <_>
      <rects>
        <_>
          2 0 6 18 -1.</_>
        <_>
          2 9 6 9 2.</_></rects>
      <tilted>0</tilted></_>
    <_>
      <rects>
        <_>
          2 0 8 6 -1.</_>
        <_>
          2 2 8 2 3.</_></rects>
      <tilted>0</tilted></_>
    <_>
      <rects>
        <_>
          2 0 8 18 -1.</_>
        <_>
          2 9 8 9 2.</_></rects>
      <tilted>0</tilted></_>
    <_>
      <rects>
        <_>
          2 0 8 20 -1.</_>
        <_>
          2 10 8 10 2.</_></rects>
      <tilted>0</tilted></_>
    <_>
      <rects>
        <_>
          2 12 10 12 -1.</_>
        <_>
          2 16 10 4 3.</_></rects>
      <tilted>0</tilted></_>
    <_>
      <rects>
        <_>
          2 22 9 2 -1.</_>
        <_>
          2 23 9 1 2.</_></rects>
      <tilted>0</tilted></_>
    <_>
      <rects>
        <_>
          3 0 8 2 -1.</_>
        <_>
          3 1 8 1 2.</_></rects>
      <tilted>0</tilted></_>
    <_>
      <rects>
        <_>
          3 22 9 2 -1.</_>
        <_>
          3 23 9 1 2.</_></rects>
      <tilted>0</tilted></_>
    <_>
      <rects>
        <_>
          4 0 7 20 -1.</_>
        <_>
          4 10 7 10 2.</_></rects>
      <tilted>0</tilted></_>
    <_>
      <rects>
        <_>
          9 2 3 20 -1.</_>
        <_>
          10 2 1 20 3.</_></rects>
      <tilted>0</tilted></_>
    <_>
      <rects>
        <_>
          10 0 2 1 -1.</_>
        <_>
          11 0 1 1 2.</_></rects>
      <tilted>0</tilted></_>
    <_>
      <rects>
        <_>
          10 0 1 2 -1.</_>
        <_>
          10 1 1 1 2.</_></rects>
      <tilted>0</tilted></_>
    <_>
      <rects>
        <_>
          10 9 2 13 -1.</_>
        <_>
          11 9 1 13 2.</_></rects>
      <tilted>0</tilted></_>
    <_>
      <rects>
        <_>
          10 9 2 15 -1.</_>
        <_>
          11 9 1 15 2.</_></rects>
      <tilted>0</tilted></_>
    <_>
      <rects>
        <_>
          10 11 2 10 -1.</_>
        <_>
          11 11 1 10 2.</_></rects>
      <tilted>0</tilted></_>
    <_>
      <rects>
        <_>
          10 12 2 8 -1.</_>
        <_>
          11 12 1 8 2.</_></rects>
      <tilted>0</tilted></_>
    <_>
      <rects>
        <_>
          10 23 2 1 -1.</_>
        <_>
          11 23 1 1 2.</_></rects>
      <tilted>0</tilted></_></features></cascade>
</opencv_storage>
