<?xml version="1.0"?>
<opencv_storage>
<cascade>
  <stageType>BOOST</stageType>
  <featureType>HAAR</featureType>
  <height>24</height>
  <width>12</width>
  <stageParams>
    <boostType>GAB</boostType>
    <minHitRate>9.9900001287460327e-01</minHitRate>
    <maxFalseAlarm>5.0000000000000000e-01</maxFalseAlarm>
    <weightTrimRate>9.4999999999999996e-01</weightTrimRate>
    <maxDepth>1</maxDepth>
    <maxWeakCount>100</maxWeakCount></stageParams>
  <featureParams>
    <maxCatCount>0</maxCatCount>
    <featSize>1</featSize>
    <mode>BASIC</mode></featureParams>
  <stageNum>11</stageNum>
  <stages>
    <!-- stage 0 -->
    <_>
      <maxWeakCount>2</maxWeakCount>
      <stageThreshold>-7.1385905146598816e-02</stageThreshold>
      <weakClassifiers>
        <_>
          <internalNodes>
            0 -1 11 -1.5025720000267029e-01</internalNodes>
          <leafValues>
            9.6891194581985474e-01 -9.8013901710510254e-01</leafValues></_>
        <_>
          <internalNodes>
            0 -1 41 5.0579890608787537e-02</internalNodes>
          <leafValues>
            -9.7616291046142578e-01 9.0875309705734253e-01</leafValues></_></weakClassifiers></_>
    <!-- stage 1 -->
    <_>
      <maxWeakCount>3</maxWeakCount>
      <stageThreshold>-1.3225052356719971e+00</stageThreshold>
      <weakClassifiers>
        <_>
          <internalNodes>
            0 -1 10 -2.4078774452209473e-01</internalNodes>
          <leafValues>
            3.1400966644287109e-01 -8.7109768390655518e-01</leafValues></_>
        <_>
          <internalNodes>
            0 -1 32 9.8311156034469604e-03</internalNodes>
          <leafValues>
            -9.6729415655136108e-01 3.7967807054519653e-01</leafValues></_>
        <_>
          <internalNodes>
            0 -1 26 -2.7709716558456421e-01</internalNodes>
          <leafValues>
            5.1588660478591919e-01 -9.0101772546768188e-01</leafValues></_></weakClassifiers></_>
    <!-- stage 2 -->
    <_>
      <maxWeakCount>3</maxWeakCount>
      <stageThreshold>-1.4588792324066162e+00</stageThreshold>
      <weakClassifiers>
        <_>
          <internalNodes>
            0 -1 29 -3.4872531890869141e-02</internalNodes>
          <leafValues>
            3.6986300349235535e-01 -8.9806318283081055e-01</leafValues></_>
        <_>
          <internalNodes>
            0 -1 35 1.2692349031567574e-02</internalNodes>
          <leafValues>
            -9.4161653518676758e-01 3.3730021119117737e-01</leafValues></_>
        <_>
          <internalNodes>
            0 -1 42 1.7835538834333420e-02</internalNodes>
          <leafValues>
            -8.9811623096466064e-01 4.8406654596328735e-01</leafValues></_></weakClassifiers></_>
    <!-- stage 3 -->
    <_>
      <maxWeakCount>3</maxWeakCount>
      <stageThreshold>-1.4405537843704224e+00</stageThreshold>
      <weakClassifiers>
        <_>
          <internalNodes>
            0 -1 27 -4.1699279099702835e-02</internalNodes>
          <leafValues>
            4.2857143282890320e-01 -8.9898991584777832e-01</leafValues></_>
        <_>
          <internalNodes>
            0 -1 20 1.1810271535068750e-03</internalNodes>
          <leafValues>
            -9.3189036846160889e-01 2.7699103951454163e-01</leafValues></_>
        <_>
          <internalNodes>
            0 -1 12 -5.9827420860528946e-02</internalNodes>
          <leafValues>
            4.3392544984817505e-01 -8.1855499744415283e-01</leafValues></_></weakClassifiers></_>
    <!-- stage 4 -->
    <_>
      <maxWeakCount>4</maxWeakCount>
      <stageThreshold>-1.2425532341003418e+00</stageThreshold>
      <weakClassifiers>
        <_>
          <internalNodes>
            0 -1 31 -5.4884262382984161e-02</internalNodes>
          <leafValues>
            1.5540540218353271e-01 -9.3584072589874268e-01</leafValues></_>
        <_>
          <internalNodes>
            0 -1 39 4.0569789707660675e-02</internalNodes>
          <leafValues>
            -9.2484360933303833e-01 2.7506032586097717e-01</leafValues></_>
        <_>
          <internalNodes>
            0 -1 15 -5.3867347538471222e-02</internalNodes>
          <leafValues>
            3.0957710742950439e-01 -9.0945518016815186e-01</leafValues></_>
        <_>
          <internalNodes>
            0 -1 0 -5.2215065807104111e-04</internalNodes>
          <leafValues>
            3.2768228650093079e-01 -1.</leafValues></_></weakClassifiers></_>
    <!-- stage 5 -->
    <_>
      <maxWeakCount>4</maxWeakCount>
      <stageThreshold>-1.3500460386276245e+00</stageThreshold>
      <weakClassifiers>
        <_>
          <internalNodes>
            0 -1 34 -4.5394696295261383e-02</internalNodes>
          <leafValues>
            3.7440758943557739e-01 -8.8877654075622559e-01</leafValues></_>
        <_>
          <internalNodes>
            0 -1 24 -3.6570807424141094e-05</internalNodes>
          <leafValues>
            2.0383277535438538e-01 -9.0430039167404175e-01</leafValues></_>
        <_>
          <internalNodes>
            0 -1 23 -3.7306348531274125e-05</internalNodes>
          <leafValues>
            2.4724143743515015e-01 -9.5192205905914307e-01</leafValues></_>
        <_>
          <internalNodes>
            0 -1 38 -1.4061104506254196e-02</internalNodes>
          <leafValues>
            3.0655139684677124e-01 -9.1234374046325684e-01</leafValues></_></weakClassifiers></_>
    <!-- stage 6 -->
    <_>
      <maxWeakCount>5</maxWeakCount>
      <stageThreshold>-2.0238032341003418e+00</stageThreshold>
      <weakClassifiers>
        <_>
          <internalNodes>
            0 -1 6 3.3293275919277221e-05</internalNodes>
          <leafValues>
            -9.2951542139053345e-01 -3.2177263498306274e-01</leafValues></_>
        <_>
          <internalNodes>
            0 -1 45 8.2246301462873816e-04</internalNodes>
          <leafValues>
            -9.1812372207641602e-01 1.2315063923597336e-01</leafValues></_>
        <_>
          <internalNodes>
            0 -1 13 -2.3434523493051529e-02</internalNodes>
          <leafValues>
            2.6073837280273438e-01 -8.1323796510696411e-01</leafValues></_>
        <_>
          <internalNodes>
            0 -1 40 4.4152244925498962e-02</internalNodes>
          <leafValues>
            -9.0984922647476196e-01 3.5239151120185852e-01</leafValues></_>
        <_>
          <internalNodes>
            0 -1 21 1.1107390746474266e-02</internalNodes>
          <leafValues>
            -9.5081508159637451e-01 2.8468236327171326e-01</leafValues></_></weakClassifiers></_>
    <!-- stage 7 -->
    <_>
      <maxWeakCount>8</maxWeakCount>
      <stageThreshold>-2.4614965915679932e+00</stageThreshold>
      <weakClassifiers>
        <_>
          <internalNodes>
            0 -1 28 -4.2824961245059967e-02</internalNodes>
          <leafValues>
            -1.0622710734605789e-01 -8.3171522617340088e-01</leafValues></_>
        <_>
          <internalNodes>
            0 -1 1 -7.3605842771939933e-05</internalNodes>
          <leafValues>
            8.5755653679370880e-02 -9.2051815986633301e-01</leafValues></_>
        <_>
          <internalNodes>
            0 -1 25 -3.7822171580046415e-03</internalNodes>
          <leafValues>
            -9.0435743331909180e-01 2.0762179791927338e-01</leafValues></_>
        <_>
          <internalNodes>
            0 -1 4 -7.6850526966154575e-04</internalNodes>
          <leafValues>
            2.6351657509803772e-01 -9.1610032320022583e-01</leafValues></_>
        <_>
          <internalNodes>
            0 -1 22 -1.0954418685287237e-03</internalNodes>
          <leafValues>
            -8.1909346580505371e-01 3.1283250451087952e-01</leafValues></_>
        <_>
          <internalNodes>
            0 -1 22 -4.4808050006395206e-05</internalNodes>
          <leafValues>
            2.8685551881790161e-01 -7.7336609363555908e-01</leafValues></_>
        <_>
          <internalNodes>
            0 -1 18 -5.9232395142316818e-04</internalNodes>
          <leafValues>
            -9.0519309043884277e-01 2.4853910505771637e-01</leafValues></_>
        <_>
          <internalNodes>
            0 -1 33 3.4295986406505108e-03</internalNodes>
          <leafValues>
            2.1120987832546234e-01 -8.3864974975585938e-01</leafValues></_></weakClassifiers></_>
    <!-- stage 8 -->
    <_>
      <maxWeakCount>7</maxWeakCount>
      <stageThreshold>-1.7360196113586426e+00</stageThreshold>
      <weakClassifiers>
        <_>
          <internalNodes>
            0 -1 37 -1.6338016837835312e-02</internalNodes>
          <leafValues>
            1.5584415197372437e-01 -7.8776288032531738e-01</leafValues></_>
        <_>
          <internalNodes>
            0 -1 9 5.5656405165791512e-03</internalNodes>
          <leafValues>
            7.9896971583366394e-02 -9.5589292049407959e-01</leafValues></_>
        <_>
          <internalNodes>
            0 -1 14 -6.3377637416124344e-03</internalNodes>
          <leafValues>
            -9.0986186265945435e-01 2.1369229257106781e-01</leafValues></_>
        <_>
          <internalNodes>
            0 -1 30 -8.7052059825509787e-04</internalNodes>
          <leafValues>
            2.5422388315200806e-01 -8.5189920663833618e-01</leafValues></_>
        <_>
          <internalNodes>
            0 -1 16 2.4295439943671227e-03</internalNodes>
          <leafValues>
            2.6729163527488708e-01 -8.8605260848999023e-01</leafValues></_>
        <_>
          <internalNodes>
            0 -1 8 -6.5500200726091862e-03</internalNodes>
          <leafValues>
            -8.5001397132873535e-01 2.0708867907524109e-01</leafValues></_>
        <_>
          <internalNodes>
            0 -1 7 5.7124001905322075e-03</internalNodes>
          <leafValues>
            3.2241997122764587e-01 -8.1710594892501831e-01</leafValues></_></weakClassifiers></_>
    <!-- stage 9 -->
    <_>
      <maxWeakCount>6</maxWeakCount>
      <stageThreshold>-1.7729251384735107e+00</stageThreshold>
      <weakClassifiers>
        <_>
          <internalNodes>
            0 -1 36 -1.7936429008841515e-02</internalNodes>
          <leafValues>
            1.9607843831181526e-02 -8.0722892284393311e-01</leafValues></_>
        <_>
          <internalNodes>
            0 -1 23 -1.1773668229579926e-03</internalNodes>
          <leafValues>
            -8.0181449651718140e-01 1.4219717681407928e-01</leafValues></_>
        <_>
          <internalNodes>
            0 -1 17 -3.4940959885716438e-03</internalNodes>
          <leafValues>
            2.5437092781066895e-01 -8.4340518712997437e-01</leafValues></_>
        <_>
          <internalNodes>
            0 -1 23 -3.7306348531274125e-05</internalNodes>
          <leafValues>
            2.8336638212203979e-01 -9.3341284990310669e-01</leafValues></_>
        <_>
          <internalNodes>
            0 -1 43 4.8870192840695381e-03</internalNodes>
          <leafValues>
            -8.0709999799728394e-01 1.7916363477706909e-01</leafValues></_>
        <_>
          <internalNodes>
            0 -1 44 2.0050135208293796e-04</internalNodes>
          <leafValues>
            -8.8078260421752930e-01 2.7795127034187317e-01</leafValues></_></weakClassifiers></_>
    <!-- stage 10 -->
    <_>
      <maxWeakCount>5</maxWeakCount>
      <stageThreshold>-1.5474284887313843e+00</stageThreshold>
      <weakClassifiers>
        <_>
          <internalNodes>
            0 -1 23 -1.1774519225582480e-03</internalNodes>
          <leafValues>
            -9.4887220859527588e-01 -3.1588783860206604e-01</leafValues></_>
        <_>
          <internalNodes>
            0 -1 19 -4.7759935259819031e-03</internalNodes>
          <leafValues>
            4.8999127000570297e-02 -8.3714139461517334e-01</leafValues></_>
        <_>
          <internalNodes>
            0 -1 2 -2.3147974163293839e-02</internalNodes>
          <leafValues>
            -8.8570356369018555e-01 1.9839137792587280e-01</leafValues></_>
        <_>
          <internalNodes>
            0 -1 3 1.3359322911128402e-03</internalNodes>
          <leafValues>
            2.6746970415115356e-01 -8.6461460590362549e-01</leafValues></_>
        <_>
          <internalNodes>
            0 -1 5 -4.3886071071028709e-03</internalNodes>
          <leafValues>
            2.0809304714202881e-01 -8.6026030778884888e-01</leafValues></_></weakClassifiers></_></stages>
  <features>
    <_>
      <rects>
        <_>
          0 0 1 2 -1.</_>
        <_>
          0 1 1 1 2.</_></rects>
      <tilted>0</tilted></_>
    <_>
      <rects>
        <_>
          0 0 2 4 -1.</_>
        <_>
          0 0 1 2 2.</_>
        <_>
          1 2 1 2 2.</_></rects>
      <tilted>0</tilted></_>
    <_>
      <rects>
        <_>
          0 0 1 20 -1.</_>
        <_>
          0 10 1 10 2.</_></rects>
      <tilted>0</tilted></_>
    <_>
      <rects>
        <_>
          0 0 1 24 -1.</_>
        <_>
          0 12 1 12 2.</_></rects>
      <tilted>0</tilted></_>
    <_>
      <rects>
        <_>
          0 0 4 2 -1.</_>
        <_>
          2 0 2 2 2.</_></rects>
      <tilted>0</tilted></_>
    <_>
      <rects>
        <_>
          0 0 3 4 -1.</_>
        <_>
          0 2 3 2 2.</_></rects>
      <tilted>0</tilted></_>
    <_>
      <rects>
        <_>
          0 1 1 2 -1.</_>
        <_>
          0 2 1 1 2.</_></rects>
      <tilted>0</tilted></_>
    <_>
      <rects>
        <_>
          0 1 1 14 -1.</_>
        <_>
          0 8 1 7 2.</_></rects>
      <tilted>0</tilted></_>
    <_>
      <rects>
        <_>
          0 2 1 12 -1.</_>
        <_>
          0 8 1 6 2.</_></rects>
      <tilted>0</tilted></_>
    <_>
      <rects>
        <_>
          0 3 1 20 -1.</_>
        <_>
          0 13 1 10 2.</_></rects>
      <tilted>0</tilted></_>
    <_>
      <rects>
        <_>
          0 3 4 20 -1.</_>
        <_>
          2 3 2 20 2.</_></rects>
      <tilted>0</tilted></_>
    <_>
      <rects>
        <_>
          0 5 4 19 -1.</_>
        <_>
          2 5 2 19 2.</_></rects>
      <tilted>0</tilted></_>
    <_>
      <rects>
        <_>
          0 11 4 5 -1.</_>
        <_>
          2 11 2 5 2.</_></rects>
      <tilted>0</tilted></_>
    <_>
      <rects>
        <_>
          0 13 4 2 -1.</_>
        <_>
          2 13 2 2 2.</_></rects>
      <tilted>0</tilted></_>
    <_>
      <rects>
        <_>
          0 14 1 9 -1.</_>
        <_>
          0 17 1 3 3.</_></rects>
      <tilted>0</tilted></_>
    <_>
      <rects>
        <_>
          0 15 6 5 -1.</_>
        <_>
          3 15 3 5 2.</_></rects>
      <tilted>0</tilted></_>
    <_>
      <rects>
        <_>
          0 16 1 6 -1.</_>
        <_>
          0 18 1 2 3.</_></rects>
      <tilted>0</tilted></_>
    <_>
      <rects>
        <_>
          0 20 2 2 -1.</_>
        <_>
          1 20 1 2 2.</_></rects>
      <tilted>0</tilted></_>
    <_>
      <rects>
        <_>
          0 21 1 3 -1.</_>
        <_>
          0 22 1 1 3.</_></rects>
      <tilted>0</tilted></_>
    <_>
      <rects>
        <_>
          0 21 8 3 -1.</_>
        <_>
          0 22 8 1 3.</_></rects>
      <tilted>0</tilted></_>
    <_>
      <rects>
        <_>
          0 22 2 2 -1.</_>
        <_>
          0 22 1 1 2.</_>
        <_>
          1 23 1 1 2.</_></rects>
      <tilted>0</tilted></_>
    <_>
      <rects>
        <_>
          0 22 9 2 -1.</_>
        <_>
          0 23 9 1 2.</_></rects>
      <tilted>0</tilted></_>
    <_>
      <rects>
        <_>
          1 0 2 1 -1.</_>
        <_>
          2 0 1 1 2.</_></rects>
      <tilted>0</tilted></_>
    <_>
      <rects>
        <_>
          1 0 3 1 -1.</_>
        <_>
          2 0 1 1 3.</_></rects>
      <tilted>0</tilted></_>
    <_>
      <rects>
        <_>
          1 0 2 2 -1.</_>
        <_>
          1 0 1 1 2.</_>
        <_>
          2 1 1 1 2.</_></rects>
      <tilted>0</tilted></_>
    <_>
      <rects>
        <_>
          1 0 9 1 -1.</_>
        <_>
          4 0 3 1 3.</_></rects>
      <tilted>0</tilted></_>
    <_>
      <rects>
        <_>
          1 0 10 18 -1.</_>
        <_>
          1 9 10 9 2.</_></rects>
      <tilted>0</tilted></_>
    <_>
      <rects>
        <_>
          1 1 3 17 -1.</_>
        <_>
          2 1 1 17 3.</_></rects>
      <tilted>0</tilted></_>
    <_>
      <rects>
        <_>
          1 5 3 11 -1.</_>
        <_>
          2 5 1 11 3.</_></rects>
      <tilted>0</tilted></_>
    <_>
      <rects>
        <_>
          1 5 3 12 -1.</_>
        <_>
          2 5 1 12 3.</_></rects>
      <tilted>0</tilted></_>
    <_>
      <rects>
        <_>
          1 23 2 1 -1.</_>
        <_>
          2 23 1 1 2.</_></rects>
      <tilted>0</tilted></_>
    <_>
      <rects>
        <_>
          2 0 10 4 -1.</_>
        <_>
          2 2 10 2 2.</_></rects>
      <tilted>0</tilted></_>
    <_>
      <rects>
        <_>
          2 22 7 2 -1.</_>
        <_>
          2 23 7 1 2.</_></rects>
      <tilted>0</tilted></_>
    <_>
      <rects>
        <_>
          3 0 6 1 -1.</_>
        <_>
          5 0 2 1 3.</_></rects>
      <tilted>0</tilted></_>
    <_>
      <rects>
        <_>
          3 0 5 4 -1.</_>
        <_>
          3 2 5 2 2.</_></rects>
      <tilted>0</tilted></_>
    <_>
      <rects>
        <_>
          3 22 9 2 -1.</_>
        <_>
          3 23 9 1 2.</_></rects>
      <tilted>0</tilted></_>
    <_>
      <rects>
        <_>
          4 1 4 2 -1.</_>
        <_>
          4 2 4 1 2.</_></rects>
      <tilted>0</tilted></_>
    <_>
      <rects>
        <_>
          5 1 3 2 -1.</_>
        <_>
          5 2 3 1 2.</_></rects>
      <tilted>0</tilted></_>
    <_>
      <rects>
        <_>
          6 0 6 4 -1.</_>
        <_>
          6 2 6 2 2.</_></rects>
      <tilted>0</tilted></_>
    <_>
      <rects>
        <_>
          6 13 6 6 -1.</_>
        <_>
          9 13 3 6 2.</_></rects>
      <tilted>0</tilted></_>
    <_>
      <rects>
        <_>
          10 0 2 22 -1.</_>
        <_>
          11 0 1 22 2.</_></rects>
      <tilted>0</tilted></_>
    <_>
      <rects>
        <_>
          10 4 2 20 -1.</_>
        <_>
          11 4 1 20 2.</_></rects>
      <tilted>0</tilted></_>
    <_>
      <rects>
        <_>
          10 8 2 6 -1.</_>
        <_>
          11 8 1 6 2.</_></rects>
      <tilted>0</tilted></_>
    <_>
      <rects>
        <_>
          10 11 2 2 -1.</_>
        <_>
          11 11 1 2 2.</_></rects>
      <tilted>0</tilted></_>
    <_>
      <rects>
        <_>
          10 22 1 2 -1.</_>
        <_>
          10 23 1 1 2.</_></rects>
      <tilted>0</tilted></_>
    <_>
      <rects>
        <_>
          10 23 2 1 -1.</_>
        <_>
          11 23 1 1 2.</_></rects>
      <tilted>0</tilted></_></features></cascade>
</opencv_storage>
