<?xml version="1.0"?>
<opencv_storage>
<cascade>
  <stageType>BOOST</stageType>
  <featureType>HAAR</featureType>
  <height>24</height>
  <width>12</width>
  <stageParams>
    <boostType>GAB</boostType>
    <minHitRate>9.9900001287460327e-01</minHitRate>
    <maxFalseAlarm>5.0000000000000000e-01</maxFalseAlarm>
    <weightTrimRate>9.4999999999999996e-01</weightTrimRate>
    <maxDepth>1</maxDepth>
    <maxWeakCount>100</maxWeakCount></stageParams>
  <featureParams>
    <maxCatCount>0</maxCatCount>
    <featSize>1</featSize>
    <mode>BASIC</mode></featureParams>
  <stageNum>11</stageNum>
  <stages>
    <!-- stage 0 -->
    <_>
      <maxWeakCount>3</maxWeakCount>
      <stageThreshold>-1.3457593917846680e+00</stageThreshold>
      <weakClassifiers>
        <_>
          <internalNodes>
            0 -1 11 -4.4699013233184814e-01</internalNodes>
          <leafValues>
            7.6190477609634399e-01 -9.9453550577163696e-01</leafValues></_>
        <_>
          <internalNodes>
            0 -1 15 -1.0599929094314575e-01</internalNodes>
          <leafValues>
            4.8971331119537354e-01 -9.6971088647842407e-01</leafValues></_>
        <_>
          <internalNodes>
            0 -1 51 4.1314296424388885e-02</internalNodes>
          <leafValues>
            -9.5153599977493286e-01 6.1848700046539307e-01</leafValues></_></weakClassifiers></_>
    <!-- stage 1 -->
    <_>
      <maxWeakCount>3</maxWeakCount>
      <stageThreshold>-1.3845181465148926e+00</stageThreshold>
      <weakClassifiers>
        <_>
          <internalNodes>
            0 -1 37 -1.3277718424797058e-01</internalNodes>
          <leafValues>
            5.9859156608581543e-01 -9.6217107772827148e-01</leafValues></_>
        <_>
          <internalNodes>
            0 -1 7 -1.5115481615066528e-01</internalNodes>
          <leafValues>
            5.0511103868484497e-01 -9.7305977344512939e-01</leafValues></_>
        <_>
          <internalNodes>
            0 -1 27 1.6516983509063721e-02</internalNodes>
          <leafValues>
            -9.2745810747146606e-01 5.8455413579940796e-01</leafValues></_></weakClassifiers></_>
    <!-- stage 2 -->
    <_>
      <maxWeakCount>5</maxWeakCount>
      <stageThreshold>-1.9796639680862427e+00</stageThreshold>
      <weakClassifiers>
        <_>
          <internalNodes>
            0 -1 28 -2.8748747706413269e-01</internalNodes>
          <leafValues>
            3.3837428689002991e-01 -9.7559559345245361e-01</leafValues></_>
        <_>
          <internalNodes>
            0 -1 46 1.3266149163246155e-01</internalNodes>
          <leafValues>
            -9.1794425249099731e-01 3.0249652266502380e-01</leafValues></_>
        <_>
          <internalNodes>
            0 -1 9 -3.1025907397270203e-01</internalNodes>
          <leafValues>
            4.1266864538192749e-01 -9.4930219650268555e-01</leafValues></_>
        <_>
          <internalNodes>
            0 -1 29 -7.0695012807846069e-02</internalNodes>
          <leafValues>
            5.2759891748428345e-01 -8.8254666328430176e-01</leafValues></_>
        <_>
          <internalNodes>
            0 -1 41 9.0643242001533508e-03</internalNodes>
          <leafValues>
            -9.1707730293273926e-01 5.2528393268585205e-01</leafValues></_></weakClassifiers></_>
    <!-- stage 3 -->
    <_>
      <maxWeakCount>5</maxWeakCount>
      <stageThreshold>-2.0638120174407959e+00</stageThreshold>
      <weakClassifiers>
        <_>
          <internalNodes>
            0 -1 13 -1.4640334248542786e-01</internalNodes>
          <leafValues>
            5.3988438844680786e-01 -9.5378267765045166e-01</leafValues></_>
        <_>
          <internalNodes>
            0 -1 10 -5.6525635719299316e-01</internalNodes>
          <leafValues>
            3.1914448738098145e-01 -9.0791946649551392e-01</leafValues></_>
        <_>
          <internalNodes>
            0 -1 48 1.0655087977647781e-01</internalNodes>
          <leafValues>
            -9.0660738945007324e-01 4.7146680951118469e-01</leafValues></_>
        <_>
          <internalNodes>
            0 -1 39 -1.7063692212104797e-01</internalNodes>
          <leafValues>
            3.9066323637962341e-01 -9.4567459821701050e-01</leafValues></_>
        <_>
          <internalNodes>
            0 -1 7 -1.0191507637500763e-01</internalNodes>
          <leafValues>
            3.1383419036865234e-01 -1.</leafValues></_></weakClassifiers></_>
    <!-- stage 4 -->
    <_>
      <maxWeakCount>4</maxWeakCount>
      <stageThreshold>-2.2909429073333740e+00</stageThreshold>
      <weakClassifiers>
        <_>
          <internalNodes>
            0 -1 8 -7.6312172412872314e-01</internalNodes>
          <leafValues>
            6.3184499740600586e-02 -9.2816179990768433e-01</leafValues></_>
        <_>
          <internalNodes>
            0 -1 50 5.5045612156391144e-02</internalNodes>
          <leafValues>
            -7.5005120038986206e-01 4.0406414866447449e-01</leafValues></_>
        <_>
          <internalNodes>
            0 -1 1 -2.7570309612201527e-05</internalNodes>
          <leafValues>
            3.1777822971343994e-01 -9.7644096612930298e-01</leafValues></_>
        <_>
          <internalNodes>
            0 -1 17 3.6039541009813547e-04</internalNodes>
          <leafValues>
            -9.3050813674926758e-01 3.0811595916748047e-01</leafValues></_></weakClassifiers></_>
    <!-- stage 5 -->
    <_>
      <maxWeakCount>5</maxWeakCount>
      <stageThreshold>-1.9550346136093140e+00</stageThreshold>
      <weakClassifiers>
        <_>
          <internalNodes>
            0 -1 22 -6.7248448729515076e-02</internalNodes>
          <leafValues>
            7.1283094584941864e-02 -8.7265491485595703e-01</leafValues></_>
        <_>
          <internalNodes>
            0 -1 26 -1.3775261119008064e-02</internalNodes>
          <leafValues>
            2.8732043504714966e-01 -8.3526360988616943e-01</leafValues></_>
        <_>
          <internalNodes>
            0 -1 3 -2.8018707036972046e-01</internalNodes>
          <leafValues>
            3.2839933037757874e-01 -9.2157584428787231e-01</leafValues></_>
        <_>
          <internalNodes>
            0 -1 5 -1.6995263099670410e-01</internalNodes>
          <leafValues>
            3.7109416723251343e-01 -9.1443568468093872e-01</leafValues></_>
        <_>
          <internalNodes>
            0 -1 20 -3.9413012564182281e-02</internalNodes>
          <leafValues>
            3.8670229911804199e-01 -8.1921851634979248e-01</leafValues></_></weakClassifiers></_>
    <!-- stage 6 -->
    <_>
      <maxWeakCount>6</maxWeakCount>
      <stageThreshold>-1.8276902437210083e+00</stageThreshold>
      <weakClassifiers>
        <_>
          <internalNodes>
            0 -1 36 -8.0607324838638306e-02</internalNodes>
          <leafValues>
            1.4382022619247437e-01 -8.6648201942443848e-01</leafValues></_>
        <_>
          <internalNodes>
            0 -1 30 -1.7450007796287537e-01</internalNodes>
          <leafValues>
            1.5889139473438263e-01 -9.6443629264831543e-01</leafValues></_>
        <_>
          <internalNodes>
            0 -1 18 1.1487949639558792e-02</internalNodes>
          <leafValues>
            -9.2624342441558838e-01 2.9536497592926025e-01</leafValues></_>
        <_>
          <internalNodes>
            0 -1 43 -7.0386886596679688e-02</internalNodes>
          <leafValues>
            4.2949292063713074e-01 -6.7390704154968262e-01</leafValues></_>
        <_>
          <internalNodes>
            0 -1 23 -1.6676157712936401e-01</internalNodes>
          <leafValues>
            3.3347439765930176e-01 -9.4911646842956543e-01</leafValues></_>
        <_>
          <internalNodes>
            0 -1 49 8.9578486979007721e-02</internalNodes>
          <leafValues>
            -8.9584106206893921e-01 2.9519194364547729e-01</leafValues></_></weakClassifiers></_>
    <!-- stage 7 -->
    <_>
      <maxWeakCount>6</maxWeakCount>
      <stageThreshold>-2.6146323680877686e+00</stageThreshold>
      <weakClassifiers>
        <_>
          <internalNodes>
            0 -1 34 -3.2861098647117615e-02</internalNodes>
          <leafValues>
            2.9949238896369934e-01 -8.1273984909057617e-01</leafValues></_>
        <_>
          <internalNodes>
            0 -1 35 -2.4749722331762314e-02</internalNodes>
          <leafValues>
            2.2778479754924774e-01 -8.7214148044586182e-01</leafValues></_>
        <_>
          <internalNodes>
            0 -1 12 -2.0095261931419373e-01</internalNodes>
          <leafValues>
            2.2076426446437836e-01 -9.2608463764190674e-01</leafValues></_>
        <_>
          <internalNodes>
            0 -1 21 -1.1650459468364716e-01</internalNodes>
          <leafValues>
            2.7893742918968201e-01 -8.9044320583343506e-01</leafValues></_>
        <_>
          <internalNodes>
            0 -1 25 -6.9354358129203320e-03</internalNodes>
          <leafValues>
            3.0719590187072754e-01 -7.9203653335571289e-01</leafValues></_>
        <_>
          <internalNodes>
            0 -1 42 -3.7995081394910812e-02</internalNodes>
          <leafValues>
            4.8559471964836121e-01 -5.8979982137680054e-01</leafValues></_></weakClassifiers></_>
    <!-- stage 8 -->
    <_>
      <maxWeakCount>6</maxWeakCount>
      <stageThreshold>-1.7546305656433105e+00</stageThreshold>
      <weakClassifiers>
        <_>
          <internalNodes>
            0 -1 31 3.5804919898509979e-02</internalNodes>
          <leafValues>
            -8.1760507822036743e-01 1.2970711290836334e-01</leafValues></_>
        <_>
          <internalNodes>
            0 -1 45 -1.6343492316082120e-03</internalNodes>
          <leafValues>
            -7.8083127737045288e-01 1.9983796775341034e-01</leafValues></_>
        <_>
          <internalNodes>
            0 -1 16 -2.0011331886053085e-02</internalNodes>
          <leafValues>
            2.7900457382202148e-01 -8.3786708116531372e-01</leafValues></_>
        <_>
          <internalNodes>
            0 -1 47 9.3546465039253235e-02</internalNodes>
          <leafValues>
            -8.4069347381591797e-01 2.8252276778221130e-01</leafValues></_>
        <_>
          <internalNodes>
            0 -1 52 1.0632350313244388e-04</internalNodes>
          <leafValues>
            -9.0591353178024292e-01 2.5305047631263733e-01</leafValues></_>
        <_>
          <internalNodes>
            0 -1 38 -1.5126498043537140e-01</internalNodes>
          <leafValues>
            2.9299777746200562e-01 -8.2822501659393311e-01</leafValues></_></weakClassifiers></_>
    <!-- stage 9 -->
    <_>
      <maxWeakCount>6</maxWeakCount>
      <stageThreshold>-1.8293892145156860e+00</stageThreshold>
      <weakClassifiers>
        <_>
          <internalNodes>
            0 -1 31 4.2237501591444016e-02</internalNodes>
          <leafValues>
            -7.9984605312347412e-01 1.9402985274791718e-01</leafValues></_>
        <_>
          <internalNodes>
            0 -1 24 -3.9234653115272522e-02</internalNodes>
          <leafValues>
            2.5279992818832397e-01 -7.1623533964157104e-01</leafValues></_>
        <_>
          <internalNodes>
            0 -1 4 -2.9353980789892375e-04</internalNodes>
          <leafValues>
            2.5525844097137451e-01 -8.2070922851562500e-01</leafValues></_>
        <_>
          <internalNodes>
            0 -1 40 -4.7966005513444543e-04</internalNodes>
          <leafValues>
            -9.4914972782135010e-01 2.1452476084232330e-01</leafValues></_>
        <_>
          <internalNodes>
            0 -1 17 6.7556666908785701e-04</internalNodes>
          <leafValues>
            -8.4031921625137329e-01 2.6559951901435852e-01</leafValues></_>
        <_>
          <internalNodes>
            0 -1 0 -2.7484601014293730e-04</internalNodes>
          <leafValues>
            2.4035041034221649e-01 -9.4175809621810913e-01</leafValues></_></weakClassifiers></_>
    <!-- stage 10 -->
    <_>
      <maxWeakCount>8</maxWeakCount>
      <stageThreshold>-1.8766785860061646e+00</stageThreshold>
      <weakClassifiers>
        <_>
          <internalNodes>
            0 -1 32 -7.3679655790328979e-02</internalNodes>
          <leafValues>
            3.6866360902786255e-01 -7.7717655897140503e-01</leafValues></_>
        <_>
          <internalNodes>
            0 -1 33 -1.3083875179290771e-01</internalNodes>
          <leafValues>
            6.7031496763229370e-01 -4.7184729576110840e-01</leafValues></_>
        <_>
          <internalNodes>
            0 -1 44 -2.7922051231143996e-05</internalNodes>
          <leafValues>
            3.2677745819091797e-01 -8.0723166465759277e-01</leafValues></_>
        <_>
          <internalNodes>
            0 -1 2 -2.8978836780879647e-05</internalNodes>
          <leafValues>
            2.3576727509498596e-01 -9.3327474594116211e-01</leafValues></_>
        <_>
          <internalNodes>
            0 -1 19 -2.6549920439720154e-03</internalNodes>
          <leafValues>
            -8.7798839807510376e-01 3.0011948943138123e-01</leafValues></_>
        <_>
          <internalNodes>
            0 -1 6 -1.7192005179822445e-03</internalNodes>
          <leafValues>
            -9.2007046937942505e-01 2.0416551828384399e-01</leafValues></_>
        <_>
          <internalNodes>
            0 -1 6 2.7848989702761173e-03</internalNodes>
          <leafValues>
            2.3925273120403290e-01 -8.6807191371917725e-01</leafValues></_>
        <_>
          <internalNodes>
            0 -1 14 -4.8909187316894531e-02</internalNodes>
          <leafValues>
            4.1341271996498108e-01 -5.8784919977188110e-01</leafValues></_></weakClassifiers></_></stages>
  <features>
    <_>
      <rects>
        <_>
          0 0 1 2 -1.</_>
        <_>
          0 1 1 1 2.</_></rects>
      <tilted>0</tilted></_>
    <_>
      <rects>
        <_>
          0 0 1 3 -1.</_>
        <_>
          0 1 1 1 3.</_></rects>
      <tilted>0</tilted></_>
    <_>
      <rects>
        <_>
          0 0 4 2 -1.</_>
        <_>
          2 0 2 2 2.</_></rects>
      <tilted>0</tilted></_>
    <_>
      <rects>
        <_>
          0 0 10 18 -1.</_>
        <_>
          0 9 10 9 2.</_></rects>
      <tilted>0</tilted></_>
    <_>
      <rects>
        <_>
          0 1 2 2 -1.</_>
        <_>
          0 1 1 1 2.</_>
        <_>
          1 2 1 1 2.</_></rects>
      <tilted>0</tilted></_>
    <_>
      <rects>
        <_>
          0 1 4 23 -1.</_>
        <_>
          2 1 2 23 2.</_></rects>
      <tilted>0</tilted></_>
    <_>
      <rects>
        <_>
          0 3 1 6 -1.</_>
        <_>
          0 6 1 3 2.</_></rects>
      <tilted>0</tilted></_>
    <_>
      <rects>
        <_>
          0 4 4 20 -1.</_>
        <_>
          2 4 2 20 2.</_></rects>
      <tilted>0</tilted></_>
    <_>
      <rects>
        <_>
          0 4 12 20 -1.</_>
        <_>
          4 4 4 20 3.</_></rects>
      <tilted>0</tilted></_>
    <_>
      <rects>
        <_>
          0 5 8 15 -1.</_>
        <_>
          4 5 4 15 2.</_></rects>
      <tilted>0</tilted></_>
    <_>
      <rects>
        <_>
          0 5 12 15 -1.</_>
        <_>
          4 5 4 15 3.</_></rects>
      <tilted>0</tilted></_>
    <_>
      <rects>
        <_>
          0 6 12 13 -1.</_>
        <_>
          4 6 4 13 3.</_></rects>
      <tilted>0</tilted></_>
    <_>
      <rects>
        <_>
          0 7 10 12 -1.</_>
        <_>
          5 7 5 12 2.</_></rects>
      <tilted>0</tilted></_>
    <_>
      <rects>
        <_>
          0 10 4 12 -1.</_>
        <_>
          2 10 2 12 2.</_></rects>
      <tilted>0</tilted></_>
    <_>
      <rects>
        <_>
          0 11 6 4 -1.</_>
        <_>
          2 11 2 4 3.</_></rects>
      <tilted>0</tilted></_>
    <_>
      <rects>
        <_>
          0 11 4 10 -1.</_>
        <_>
          2 11 2 10 2.</_></rects>
      <tilted>0</tilted></_>
    <_>
      <rects>
        <_>
          0 14 6 1 -1.</_>
        <_>
          3 14 3 1 2.</_></rects>
      <tilted>0</tilted></_>
    <_>
      <rects>
        <_>
          0 22 2 2 -1.</_>
        <_>
          0 22 1 1 2.</_>
        <_>
          1 23 1 1 2.</_></rects>
      <tilted>0</tilted></_>
    <_>
      <rects>
        <_>
          0 22 11 2 -1.</_>
        <_>
          0 23 11 1 2.</_></rects>
      <tilted>0</tilted></_>
    <_>
      <rects>
        <_>
          1 0 4 1 -1.</_>
        <_>
          3 0 2 1 2.</_></rects>
      <tilted>0</tilted></_>
    <_>
      <rects>
        <_>
          1 0 11 4 -1.</_>
        <_>
          1 2 11 2 2.</_></rects>
      <tilted>0</tilted></_>
    <_>
      <rects>
        <_>
          1 3 10 12 -1.</_>
        <_>
          1 9 10 6 2.</_></rects>
      <tilted>0</tilted></_>
    <_>
      <rects>
        <_>
          1 7 2 16 -1.</_>
        <_>
          2 7 1 16 2.</_></rects>
      <tilted>0</tilted></_>
    <_>
      <rects>
        <_>
          1 7 9 17 -1.</_>
        <_>
          4 7 3 17 3.</_></rects>
      <tilted>0</tilted></_>
    <_>
      <rects>
        <_>
          1 11 2 11 -1.</_>
        <_>
          2 11 1 11 2.</_></rects>
      <tilted>0</tilted></_>
    <_>
      <rects>
        <_>
          1 21 7 3 -1.</_>
        <_>
          1 22 7 1 3.</_></rects>
      <tilted>0</tilted></_>
    <_>
      <rects>
        <_>
          1 21 10 3 -1.</_>
        <_>
          1 22 10 1 3.</_></rects>
      <tilted>0</tilted></_>
    <_>
      <rects>
        <_>
          1 22 11 2 -1.</_>
        <_>
          1 23 11 1 2.</_></rects>
      <tilted>0</tilted></_>
    <_>
      <rects>
        <_>
          2 0 8 16 -1.</_>
        <_>
          2 8 8 8 2.</_></rects>
      <tilted>0</tilted></_>
    <_>
      <rects>
        <_>
          2 0 9 6 -1.</_>
        <_>
          2 3 9 3 2.</_></rects>
      <tilted>0</tilted></_>
    <_>
      <rects>
        <_>
          2 2 8 21 -1.</_>
        <_>
          2 9 8 7 3.</_></rects>
      <tilted>0</tilted></_>
    <_>
      <rects>
        <_>
          2 3 4 12 -1.</_>
        <_>
          2 3 2 6 2.</_>
        <_>
          4 9 2 6 2.</_></rects>
      <tilted>0</tilted></_>
    <_>
      <rects>
        <_>
          2 3 9 2 -1.</_>
        <_>
          5 3 3 2 3.</_></rects>
      <tilted>0</tilted></_>
    <_>
      <rects>
        <_>
          2 3 8 6 -1.</_>
        <_>
          6 3 4 6 2.</_></rects>
      <tilted>0</tilted></_>
    <_>
      <rects>
        <_>
          2 4 9 1 -1.</_>
        <_>
          5 4 3 1 3.</_></rects>
      <tilted>0</tilted></_>
    <_>
      <rects>
        <_>
          2 9 8 9 -1.</_>
        <_>
          2 12 8 3 3.</_></rects>
      <tilted>0</tilted></_>
    <_>
      <rects>
        <_>
          3 4 9 3 -1.</_>
        <_>
          6 4 3 3 3.</_></rects>
      <tilted>0</tilted></_>
    <_>
      <rects>
        <_>
          4 0 5 10 -1.</_>
        <_>
          4 5 5 5 2.</_></rects>
      <tilted>0</tilted></_>
    <_>
      <rects>
        <_>
          4 0 5 12 -1.</_>
        <_>
          4 6 5 6 2.</_></rects>
      <tilted>0</tilted></_>
    <_>
      <rects>
        <_>
          4 0 6 12 -1.</_>
        <_>
          4 6 6 6 2.</_></rects>
      <tilted>0</tilted></_>
    <_>
      <rects>
        <_>
          5 12 3 1 -1.</_>
        <_>
          6 12 1 1 3.</_></rects>
      <tilted>0</tilted></_>
    <_>
      <rects>
        <_>
          5 22 7 2 -1.</_>
        <_>
          5 23 7 1 2.</_></rects>
      <tilted>0</tilted></_>
    <_>
      <rects>
        <_>
          6 0 2 12 -1.</_>
        <_>
          6 4 2 4 3.</_></rects>
      <tilted>0</tilted></_>
    <_>
      <rects>
        <_>
          6 0 3 8 -1.</_>
        <_>
          6 4 3 4 2.</_></rects>
      <tilted>0</tilted></_>
    <_>
      <rects>
        <_>
          6 10 1 4 -1.</_>
        <_>
          6 12 1 2 2.</_></rects>
      <tilted>0</tilted></_>
    <_>
      <rects>
        <_>
          7 6 1 6 -1.</_>
        <_>
          7 9 1 3 2.</_></rects>
      <tilted>0</tilted></_>
    <_>
      <rects>
        <_>
          8 5 4 13 -1.</_>
        <_>
          10 5 2 13 2.</_></rects>
      <tilted>0</tilted></_>
    <_>
      <rects>
        <_>
          8 8 4 10 -1.</_>
        <_>
          10 8 2 10 2.</_></rects>
      <tilted>0</tilted></_>
    <_>
      <rects>
        <_>
          8 8 4 12 -1.</_>
        <_>
          10 8 2 12 2.</_></rects>
      <tilted>0</tilted></_>
    <_>
      <rects>
        <_>
          8 10 4 12 -1.</_>
        <_>
          10 10 2 12 2.</_></rects>
      <tilted>0</tilted></_>
    <_>
      <rects>
        <_>
          10 1 2 16 -1.</_>
        <_>
          11 1 1 16 2.</_></rects>
      <tilted>0</tilted></_>
    <_>
      <rects>
        <_>
          10 4 2 19 -1.</_>
        <_>
          11 4 1 19 2.</_></rects>
      <tilted>0</tilted></_>
    <_>
      <rects>
        <_>
          11 22 1 2 -1.</_>
        <_>
          11 23 1 1 2.</_></rects>
      <tilted>0</tilted></_></features></cascade>
</opencv_storage>
