<?xml version="1.0"?>
<opencv_storage>
<cascade>
  <stageType>BOOST</stageType>
  <featureType>HAAR</featureType>
  <height>24</height>
  <width>12</width>
  <stageParams>
    <boostType>GAB</boostType>
    <minHitRate>9.9900001287460327e-01</minHitRate>
    <maxFalseAlarm>5.0000000000000000e-01</maxFalseAlarm>
    <weightTrimRate>9.4999999999999996e-01</weightTrimRate>
    <maxDepth>1</maxDepth>
    <maxWeakCount>100</maxWeakCount></stageParams>
  <featureParams>
    <maxCatCount>0</maxCatCount>
    <featSize>1</featSize>
    <mode>BASIC</mode></featureParams>
  <stageNum>11</stageNum>
  <stages>
    <!-- stage 0 -->
    <_>
      <maxWeakCount>2</maxWeakCount>
      <stageThreshold>-1.1810939759016037e-01</stageThreshold>
      <weakClassifiers>
        <_>
          <internalNodes>
            0 -1 11 -1.5025720000267029e-01</internalNodes>
          <leafValues>
            9.5391702651977539e-01 -9.8922663927078247e-01</leafValues></_>
        <_>
          <internalNodes>
            0 -1 48 5.0787776708602905e-02</internalNodes>
          <leafValues>
            -9.8519188165664673e-01 8.7111723423004150e-01</leafValues></_></weakClassifiers></_>
    <!-- stage 1 -->
    <_>
      <maxWeakCount>3</maxWeakCount>
      <stageThreshold>-1.4161709547042847e+00</stageThreshold>
      <weakClassifiers>
        <_>
          <internalNodes>
            0 -1 6 -2.3656028509140015e-01</internalNodes>
          <leafValues>
            4.1732284426689148e-01 -9.1157555580139160e-01</leafValues></_>
        <_>
          <internalNodes>
            0 -1 44 1.1260576546192169e-02</internalNodes>
          <leafValues>
            -9.6755856275558472e-01 3.7190222740173340e-01</leafValues></_>
        <_>
          <internalNodes>
            0 -1 39 -5.0513230264186859e-02</internalNodes>
          <leafValues>
            5.0536018610000610e-01 -8.7649762630462646e-01</leafValues></_></weakClassifiers></_>
    <!-- stage 2 -->
    <_>
      <maxWeakCount>5</maxWeakCount>
      <stageThreshold>-1.8969078063964844e+00</stageThreshold>
      <weakClassifiers>
        <_>
          <internalNodes>
            0 -1 10 -1.0908663272857666e-01</internalNodes>
          <leafValues>
            5.7784432172775269e-01 -9.0472501516342163e-01</leafValues></_>
        <_>
          <internalNodes>
            0 -1 16 -7.3406361043453217e-02</internalNodes>
          <leafValues>
            3.7379601597785950e-01 -8.1538617610931396e-01</leafValues></_>
        <_>
          <internalNodes>
            0 -1 52 2.4063277989625931e-02</internalNodes>
          <leafValues>
            -8.8808876276016235e-01 4.8433423042297363e-01</leafValues></_>
        <_>
          <internalNodes>
            0 -1 1 -5.5442505981773138e-04</internalNodes>
          <leafValues>
            3.5130664706230164e-01 -9.4742095470428467e-01</leafValues></_>
        <_>
          <internalNodes>
            0 -1 34 -1.1488653719425201e-02</internalNodes>
          <leafValues>
            3.5998547077178955e-01 -9.0461927652359009e-01</leafValues></_></weakClassifiers></_>
    <!-- stage 3 -->
    <_>
      <maxWeakCount>5</maxWeakCount>
      <stageThreshold>-2.0516741275787354e+00</stageThreshold>
      <weakClassifiers>
        <_>
          <internalNodes>
            0 -1 9 -1.9064110517501831e-01</internalNodes>
          <leafValues>
            3.4311512112617493e-01 -9.5346868038177490e-01</leafValues></_>
        <_>
          <internalNodes>
            0 -1 38 -1.8507236242294312e-01</internalNodes>
          <leafValues>
            4.2447549104690552e-01 -9.2360043525695801e-01</leafValues></_>
        <_>
          <internalNodes>
            0 -1 25 -4.8009298741817474e-02</internalNodes>
          <leafValues>
            4.1546097397804260e-01 -7.9043167829513550e-01</leafValues></_>
        <_>
          <internalNodes>
            0 -1 21 3.5960332752438262e-05</internalNodes>
          <leafValues>
            -9.5138549804687500e-01 3.4157836437225342e-01</leafValues></_>
        <_>
          <internalNodes>
            0 -1 54 2.3153642541728914e-04</internalNodes>
          <leafValues>
            -9.7488057613372803e-01 2.7424839138984680e-01</leafValues></_></weakClassifiers></_>
    <!-- stage 4 -->
    <_>
      <maxWeakCount>4</maxWeakCount>
      <stageThreshold>-2.2998158931732178e+00</stageThreshold>
      <weakClassifiers>
        <_>
          <internalNodes>
            0 -1 17 -1.2183632701635361e-01</internalNodes>
          <leafValues>
            1.4311759173870087e-01 -9.7863447666168213e-01</leafValues></_>
        <_>
          <internalNodes>
            0 -1 26 -6.0042805969715118e-02</internalNodes>
          <leafValues>
            4.6499684453010559e-01 -8.4104424715042114e-01</leafValues></_>
        <_>
          <internalNodes>
            0 -1 27 -1.9262118637561798e-01</internalNodes>
          <leafValues>
            4.6686092019081116e-01 -7.3265284299850464e-01</leafValues></_>
        <_>
          <internalNodes>
            0 -1 15 -3.4915283322334290e-02</internalNodes>
          <leafValues>
            3.4545549750328064e-01 -9.4699800014495850e-01</leafValues></_></weakClassifiers></_>
    <!-- stage 5 -->
    <_>
      <maxWeakCount>6</maxWeakCount>
      <stageThreshold>-2.7079272270202637e+00</stageThreshold>
      <weakClassifiers>
        <_>
          <internalNodes>
            0 -1 49 8.0290019512176514e-02</internalNodes>
          <leafValues>
            -8.4887838363647461e-01 2.9196050763130188e-01</leafValues></_>
        <_>
          <internalNodes>
            0 -1 13 -2.6994290947914124e-01</internalNodes>
          <leafValues>
            4.4342589378356934e-01 -8.0507397651672363e-01</leafValues></_>
        <_>
          <internalNodes>
            0 -1 29 -3.3868655009428039e-05</internalNodes>
          <leafValues>
            2.8992408514022827e-01 -9.0364110469818115e-01</leafValues></_>
        <_>
          <internalNodes>
            0 -1 53 1.7254980280995369e-02</internalNodes>
          <leafValues>
            -8.7884950637817383e-01 2.8962740302085876e-01</leafValues></_>
        <_>
          <internalNodes>
            0 -1 55 2.9338363674469292e-04</internalNodes>
          <leafValues>
            -9.3814647197723389e-01 3.0724698305130005e-01</leafValues></_>
        <_>
          <internalNodes>
            0 -1 40 -2.3966299369931221e-02</internalNodes>
          <leafValues>
            3.6244595050811768e-01 -7.4720823764801025e-01</leafValues></_></weakClassifiers></_>
    <!-- stage 6 -->
    <_>
      <maxWeakCount>7</maxWeakCount>
      <stageThreshold>-2.4664988517761230e+00</stageThreshold>
      <weakClassifiers>
        <_>
          <internalNodes>
            0 -1 20 -1.2288421392440796e-01</internalNodes>
          <leafValues>
            -1.4926418662071228e-01 -9.5282500982284546e-01</leafValues></_>
        <_>
          <internalNodes>
            0 -1 50 7.4456885457038879e-02</internalNodes>
          <leafValues>
            -7.2081899642944336e-01 3.6352327466011047e-01</leafValues></_>
        <_>
          <internalNodes>
            0 -1 8 -9.6984401345252991e-02</internalNodes>
          <leafValues>
            2.5422155857086182e-01 -9.2392587661743164e-01</leafValues></_>
        <_>
          <internalNodes>
            0 -1 37 -1.4564613997936249e-01</internalNodes>
          <leafValues>
            3.8037288188934326e-01 -8.5353630781173706e-01</leafValues></_>
        <_>
          <internalNodes>
            0 -1 35 1.1559214442968369e-02</internalNodes>
          <leafValues>
            -8.8952523469924927e-01 2.8154772520065308e-01</leafValues></_>
        <_>
          <internalNodes>
            0 -1 42 -4.6654924750328064e-02</internalNodes>
          <leafValues>
            3.6903113126754761e-01 -7.4803531169891357e-01</leafValues></_>
        <_>
          <internalNodes>
            0 -1 46 5.7365145767107606e-04</internalNodes>
          <leafValues>
            -8.7391579151153564e-01 2.7294760942459106e-01</leafValues></_></weakClassifiers></_>
    <!-- stage 7 -->
    <_>
      <maxWeakCount>6</maxWeakCount>
      <stageThreshold>-1.9216221570968628e+00</stageThreshold>
      <weakClassifiers>
        <_>
          <internalNodes>
            0 -1 30 -1.9669706001877785e-02</internalNodes>
          <leafValues>
            -1.9814240932464600e-01 -8.6516851186752319e-01</leafValues></_>
        <_>
          <internalNodes>
            0 -1 18 -1.4490836858749390e-01</internalNodes>
          <leafValues>
            1.7691420018672943e-01 -8.9657527208328247e-01</leafValues></_>
        <_>
          <internalNodes>
            0 -1 51 4.3083406984806061e-02</internalNodes>
          <leafValues>
            -9.1195344924926758e-01 2.6808428764343262e-01</leafValues></_>
        <_>
          <internalNodes>
            0 -1 33 9.0448949486017227e-03</internalNodes>
          <leafValues>
            -8.7682354450225830e-01 2.6543548703193665e-01</leafValues></_>
        <_>
          <internalNodes>
            0 -1 45 1.9980436190962791e-03</internalNodes>
          <leafValues>
            3.1248259544372559e-01 -8.0736112594604492e-01</leafValues></_>
        <_>
          <internalNodes>
            0 -1 0 -2.0253754337318242e-04</internalNodes>
          <leafValues>
            2.2051121294498444e-01 -9.3097394704818726e-01</leafValues></_></weakClassifiers></_>
    <!-- stage 8 -->
    <_>
      <maxWeakCount>6</maxWeakCount>
      <stageThreshold>-1.8824590444564819e+00</stageThreshold>
      <weakClassifiers>
        <_>
          <internalNodes>
            0 -1 31 -3.6388121545314789e-02</internalNodes>
          <leafValues>
            7.6923079788684845e-02 -8.5805356502532959e-01</leafValues></_>
        <_>
          <internalNodes>
            0 -1 4 -9.3939632643014193e-04</internalNodes>
          <leafValues>
            1.4019331336021423e-01 -8.1164997816085815e-01</leafValues></_>
        <_>
          <internalNodes>
            0 -1 5 -1.6032359004020691e-01</internalNodes>
          <leafValues>
            2.2743426263332367e-01 -8.2155627012252808e-01</leafValues></_>
        <_>
          <internalNodes>
            0 -1 47 5.3864732384681702e-02</internalNodes>
          <leafValues>
            -8.8857185840606689e-01 3.3191248774528503e-01</leafValues></_>
        <_>
          <internalNodes>
            0 -1 43 -9.5675894990563393e-03</internalNodes>
          <leafValues>
            2.1628065407276154e-01 -8.6002862453460693e-01</leafValues></_>
        <_>
          <internalNodes>
            0 -1 24 -3.1769685447216034e-03</internalNodes>
          <leafValues>
            -9.0394896268844604e-01 2.3210147023200989e-01</leafValues></_></weakClassifiers></_>
    <!-- stage 9 -->
    <_>
      <maxWeakCount>8</maxWeakCount>
      <stageThreshold>-2.1526732444763184e+00</stageThreshold>
      <weakClassifiers>
        <_>
          <internalNodes>
            0 -1 32 -2.3654943332076073e-02</internalNodes>
          <leafValues>
            -1.2733748555183411e-01 -8.4955334663391113e-01</leafValues></_>
        <_>
          <internalNodes>
            0 -1 3 1.5536725986748934e-03</internalNodes>
          <leafValues>
            1.6425086557865143e-01 -9.0197217464447021e-01</leafValues></_>
        <_>
          <internalNodes>
            0 -1 41 -6.8881087005138397e-02</internalNodes>
          <leafValues>
            4.1529953479766846e-01 -6.1681187152862549e-01</leafValues></_>
        <_>
          <internalNodes>
            0 -1 21 7.7451637480407953e-04</internalNodes>
          <leafValues>
            -7.9194211959838867e-01 3.0945035815238953e-01</leafValues></_>
        <_>
          <internalNodes>
            0 -1 28 -2.2458815574645996e-01</internalNodes>
          <leafValues>
            3.2265722751617432e-01 -6.7964357137680054e-01</leafValues></_>
        <_>
          <internalNodes>
            0 -1 12 -6.1372835189104080e-03</internalNodes>
          <leafValues>
            -8.6430102586746216e-01 2.2343569993972778e-01</leafValues></_>
        <_>
          <internalNodes>
            0 -1 19 -4.9974936991930008e-03</internalNodes>
          <leafValues>
            -8.9382708072662354e-01 2.2876694798469543e-01</leafValues></_>
        <_>
          <internalNodes>
            0 -1 2 -1.2272849678993225e-02</internalNodes>
          <leafValues>
            -7.9936504364013672e-01 2.5286161899566650e-01</leafValues></_></weakClassifiers></_>
    <!-- stage 10 -->
    <_>
      <maxWeakCount>6</maxWeakCount>
      <stageThreshold>-1.7552106380462646e+00</stageThreshold>
      <weakClassifiers>
        <_>
          <internalNodes>
            0 -1 7 -1.9886398315429688e-01</internalNodes>
          <leafValues>
            2.2779043763875961e-02 -8.3052277565002441e-01</leafValues></_>
        <_>
          <internalNodes>
            0 -1 36 1.7820214852690697e-03</internalNodes>
          <leafValues>
            1.2825939059257507e-01 -9.0074431896209717e-01</leafValues></_>
        <_>
          <internalNodes>
            0 -1 22 -3.5937591746915132e-05</internalNodes>
          <leafValues>
            2.1457529067993164e-01 -8.2935225963592529e-01</leafValues></_>
        <_>
          <internalNodes>
            0 -1 23 -3.2921372621785849e-05</internalNodes>
          <leafValues>
            3.4383079409599304e-01 -7.4544852972030640e-01</leafValues></_>
        <_>
          <internalNodes>
            0 -1 14 -2.0071608014404774e-03</internalNodes>
          <leafValues>
            -9.3082803487777710e-01 2.0668341219425201e-01</leafValues></_>
        <_>
          <internalNodes>
            0 -1 14 2.3767026141285896e-03</internalNodes>
          <leafValues>
            3.0024623870849609e-01 -8.9617651700973511e-01</leafValues></_></weakClassifiers></_></stages>
  <features>
    <_>
      <rects>
        <_>
          0 0 1 2 -1.</_>
        <_>
          0 1 1 1 2.</_></rects>
      <tilted>0</tilted></_>
    <_>
      <rects>
        <_>
          0 0 1 3 -1.</_>
        <_>
          0 1 1 1 3.</_></rects>
      <tilted>0</tilted></_>
    <_>
      <rects>
        <_>
          0 0 1 18 -1.</_>
        <_>
          0 6 1 6 3.</_></rects>
      <tilted>0</tilted></_>
    <_>
      <rects>
        <_>
          0 0 8 1 -1.</_>
        <_>
          4 0 4 1 2.</_></rects>
      <tilted>0</tilted></_>
    <_>
      <rects>
        <_>
          0 1 2 2 -1.</_>
        <_>
          0 1 1 1 2.</_>
        <_>
          1 2 1 1 2.</_></rects>
      <tilted>0</tilted></_>
    <_>
      <rects>
        <_>
          0 2 4 17 -1.</_>
        <_>
          2 2 2 17 2.</_></rects>
      <tilted>0</tilted></_>
    <_>
      <rects>
        <_>
          0 2 4 20 -1.</_>
        <_>
          2 2 2 20 2.</_></rects>
      <tilted>0</tilted></_>
    <_>
      <rects>
        <_>
          0 3 4 13 -1.</_>
        <_>
          2 3 2 13 2.</_></rects>
      <tilted>0</tilted></_>
    <_>
      <rects>
        <_>
          0 3 4 14 -1.</_>
        <_>
          2 3 2 14 2.</_></rects>
      <tilted>0</tilted></_>
    <_>
      <rects>
        <_>
          0 3 4 18 -1.</_>
        <_>
          2 3 2 18 2.</_></rects>
      <tilted>0</tilted></_>
    <_>
      <rects>
        <_>
          0 4 6 9 -1.</_>
        <_>
          2 4 2 9 3.</_></rects>
      <tilted>0</tilted></_>
    <_>
      <rects>
        <_>
          0 5 4 19 -1.</_>
        <_>
          2 5 2 19 2.</_></rects>
      <tilted>0</tilted></_>
    <_>
      <rects>
        <_>
          0 6 1 15 -1.</_>
        <_>
          0 11 1 5 3.</_></rects>
      <tilted>0</tilted></_>
    <_>
      <rects>
        <_>
          0 10 12 10 -1.</_>
        <_>
          4 10 4 10 3.</_></rects>
      <tilted>0</tilted></_>
    <_>
      <rects>
        <_>
          0 11 1 6 -1.</_>
        <_>
          0 13 1 2 3.</_></rects>
      <tilted>0</tilted></_>
    <_>
      <rects>
        <_>
          0 11 4 5 -1.</_>
        <_>
          2 11 2 5 2.</_></rects>
      <tilted>0</tilted></_>
    <_>
      <rects>
        <_>
          0 12 4 6 -1.</_>
        <_>
          2 12 2 6 2.</_></rects>
      <tilted>0</tilted></_>
    <_>
      <rects>
        <_>
          0 12 6 10 -1.</_>
        <_>
          3 12 3 10 2.</_></rects>
      <tilted>0</tilted></_>
    <_>
      <rects>
        <_>
          0 12 6 12 -1.</_>
        <_>
          3 12 3 12 2.</_></rects>
      <tilted>0</tilted></_>
    <_>
      <rects>
        <_>
          0 13 1 6 -1.</_>
        <_>
          0 16 1 3 2.</_></rects>
      <tilted>0</tilted></_>
    <_>
      <rects>
        <_>
          0 14 6 10 -1.</_>
        <_>
          3 14 3 10 2.</_></rects>
      <tilted>0</tilted></_>
    <_>
      <rects>
        <_>
          0 22 2 2 -1.</_>
        <_>
          0 22 1 1 2.</_>
        <_>
          1 23 1 1 2.</_></rects>
      <tilted>0</tilted></_>
    <_>
      <rects>
        <_>
          1 0 3 1 -1.</_>
        <_>
          2 0 1 1 3.</_></rects>
      <tilted>0</tilted></_>
    <_>
      <rects>
        <_>
          1 0 2 2 -1.</_>
        <_>
          1 0 1 1 2.</_>
        <_>
          2 1 1 1 2.</_></rects>
      <tilted>0</tilted></_>
    <_>
      <rects>
        <_>
          1 0 6 1 -1.</_>
        <_>
          4 0 3 1 2.</_></rects>
      <tilted>0</tilted></_>
    <_>
      <rects>
        <_>
          1 0 7 4 -1.</_>
        <_>
          1 2 7 2 2.</_></rects>
      <tilted>0</tilted></_>
    <_>
      <rects>
        <_>
          1 0 8 4 -1.</_>
        <_>
          1 2 8 2 2.</_></rects>
      <tilted>0</tilted></_>
    <_>
      <rects>
        <_>
          1 0 9 12 -1.</_>
        <_>
          1 6 9 6 2.</_></rects>
      <tilted>0</tilted></_>
    <_>
      <rects>
        <_>
          1 0 10 14 -1.</_>
        <_>
          1 7 10 7 2.</_></rects>
      <tilted>0</tilted></_>
    <_>
      <rects>
        <_>
          1 1 2 1 -1.</_>
        <_>
          2 1 1 1 2.</_></rects>
      <tilted>0</tilted></_>
    <_>
      <rects>
        <_>
          1 1 8 2 -1.</_>
        <_>
          1 2 8 1 2.</_></rects>
      <tilted>0</tilted></_>
    <_>
      <rects>
        <_>
          1 4 3 11 -1.</_>
        <_>
          2 4 1 11 3.</_></rects>
      <tilted>0</tilted></_>
    <_>
      <rects>
        <_>
          1 5 3 7 -1.</_>
        <_>
          2 5 1 7 3.</_></rects>
      <tilted>0</tilted></_>
    <_>
      <rects>
        <_>
          1 20 7 4 -1.</_>
        <_>
          1 22 7 2 2.</_></rects>
      <tilted>0</tilted></_>
    <_>
      <rects>
        <_>
          1 21 11 3 -1.</_>
        <_>
          1 22 11 1 3.</_></rects>
      <tilted>0</tilted></_>
    <_>
      <rects>
        <_>
          1 22 8 2 -1.</_>
        <_>
          1 23 8 1 2.</_></rects>
      <tilted>0</tilted></_>
    <_>
      <rects>
        <_>
          2 0 4 1 -1.</_>
        <_>
          4 0 2 1 2.</_></rects>
      <tilted>0</tilted></_>
    <_>
      <rects>
        <_>
          2 0 9 14 -1.</_>
        <_>
          2 7 9 7 2.</_></rects>
      <tilted>0</tilted></_>
    <_>
      <rects>
        <_>
          2 0 9 16 -1.</_>
        <_>
          2 8 9 8 2.</_></rects>
      <tilted>0</tilted></_>
    <_>
      <rects>
        <_>
          2 0 10 4 -1.</_>
        <_>
          2 2 10 2 2.</_></rects>
      <tilted>0</tilted></_>
    <_>
      <rects>
        <_>
          3 0 5 4 -1.</_>
        <_>
          3 2 5 2 2.</_></rects>
      <tilted>0</tilted></_>
    <_>
      <rects>
        <_>
          3 0 8 4 -1.</_>
        <_>
          3 2 8 2 2.</_></rects>
      <tilted>0</tilted></_>
    <_>
      <rects>
        <_>
          3 0 9 4 -1.</_>
        <_>
          3 2 9 2 2.</_></rects>
      <tilted>0</tilted></_>
    <_>
      <rects>
        <_>
          3 21 9 3 -1.</_>
        <_>
          3 22 9 1 3.</_></rects>
      <tilted>0</tilted></_>
    <_>
      <rects>
        <_>
          3 22 8 2 -1.</_>
        <_>
          3 23 8 1 2.</_></rects>
      <tilted>0</tilted></_>
    <_>
      <rects>
        <_>
          8 0 4 1 -1.</_>
        <_>
          10 0 2 1 2.</_></rects>
      <tilted>0</tilted></_>
    <_>
      <rects>
        <_>
          10 0 2 2 -1.</_>
        <_>
          11 0 1 2 2.</_></rects>
      <tilted>0</tilted></_>
    <_>
      <rects>
        <_>
          10 0 2 24 -1.</_>
        <_>
          11 0 1 24 2.</_></rects>
      <tilted>0</tilted></_>
    <_>
      <rects>
        <_>
          10 2 2 22 -1.</_>
        <_>
          11 2 1 22 2.</_></rects>
      <tilted>0</tilted></_>
    <_>
      <rects>
        <_>
          10 3 2 18 -1.</_>
        <_>
          11 3 1 18 2.</_></rects>
      <tilted>0</tilted></_>
    <_>
      <rects>
        <_>
          10 3 2 20 -1.</_>
        <_>
          11 3 1 20 2.</_></rects>
      <tilted>0</tilted></_>
    <_>
      <rects>
        <_>
          10 5 2 18 -1.</_>
        <_>
          11 5 1 18 2.</_></rects>
      <tilted>0</tilted></_>
    <_>
      <rects>
        <_>
          10 7 2 9 -1.</_>
        <_>
          11 7 1 9 2.</_></rects>
      <tilted>0</tilted></_>
    <_>
      <rects>
        <_>
          10 11 2 9 -1.</_>
        <_>
          11 11 1 9 2.</_></rects>
      <tilted>0</tilted></_>
    <_>
      <rects>
        <_>
          10 23 2 1 -1.</_>
        <_>
          11 23 1 1 2.</_></rects>
      <tilted>0</tilted></_>
    <_>
      <rects>
        <_>
          11 22 1 2 -1.</_>
        <_>
          11 23 1 1 2.</_></rects>
      <tilted>0</tilted></_></features></cascade>
</opencv_storage>
