<?xml version="1.0"?>
<opencv_storage>
<cascade>
  <stageType>BOOST</stageType>
  <featureType>HAAR</featureType>
  <height>24</height>
  <width>12</width>
  <stageParams>
    <boostType>GAB</boostType>
    <minHitRate>9.9900001287460327e-01</minHitRate>
    <maxFalseAlarm>5.0000000000000000e-01</maxFalseAlarm>
    <weightTrimRate>9.4999999999999996e-01</weightTrimRate>
    <maxDepth>1</maxDepth>
    <maxWeakCount>100</maxWeakCount></stageParams>
  <featureParams>
    <maxCatCount>0</maxCatCount>
    <featSize>1</featSize>
    <mode>BASIC</mode></featureParams>
  <stageNum>9</stageNum>
  <stages>
    <!-- stage 0 -->
    <_>
      <maxWeakCount>3</maxWeakCount>
      <stageThreshold>-1.0423030853271484e+00</stageThreshold>
      <weakClassifiers>
        <_>
          <internalNodes>
            0 -1 2 -1.6976815462112427e-01</internalNodes>
          <leafValues>
            9.4949495792388916e-01 -9.7674417495727539e-01</leafValues></_>
        <_>
          <internalNodes>
            0 -1 19 -4.3368257582187653e-02</internalNodes>
          <leafValues>
            8.9853948354721069e-01 -9.5622456073760986e-01</leafValues></_>
        <_>
          <internalNodes>
            0 -1 9 -5.2639197558164597e-02</internalNodes>
          <leafValues>
            8.9066565036773682e-01 -9.5329231023788452e-01</leafValues></_></weakClassifiers></_>
    <!-- stage 1 -->
    <_>
      <maxWeakCount>4</maxWeakCount>
      <stageThreshold>-1.7367587089538574e+00</stageThreshold>
      <weakClassifiers>
        <_>
          <internalNodes>
            0 -1 7 -2.6543170213699341e-01</internalNodes>
          <leafValues>
            6.5320664644241333e-01 -9.1178965568542480e-01</leafValues></_>
        <_>
          <internalNodes>
            0 -1 9 -1.1080040037631989e-01</internalNodes>
          <leafValues>
            7.3059761524200439e-01 -7.7309554815292358e-01</leafValues></_>
        <_>
          <internalNodes>
            0 -1 28 -2.9046546667814255e-02</internalNodes>
          <leafValues>
            7.1351426839828491e-01 -8.1459796428680420e-01</leafValues></_>
        <_>
          <internalNodes>
            0 -1 41 4.9021862447261810e-02</internalNodes>
          <leafValues>
            -7.4096876382827759e-01 7.9462707042694092e-01</leafValues></_></weakClassifiers></_>
    <!-- stage 2 -->
    <_>
      <maxWeakCount>4</maxWeakCount>
      <stageThreshold>-9.7396141290664673e-01</stageThreshold>
      <weakClassifiers>
        <_>
          <internalNodes>
            0 -1 43 5.4981172084808350e-02</internalNodes>
          <leafValues>
            -7.9686212539672852e-01 4.2416453361511230e-01</leafValues></_>
        <_>
          <internalNodes>
            0 -1 12 -7.4047446250915527e-02</internalNodes>
          <leafValues>
            4.6810641884803772e-01 -7.9066085815429688e-01</leafValues></_>
        <_>
          <internalNodes>
            0 -1 32 -5.0582238472998142e-03</internalNodes>
          <leafValues>
            5.0879895687103271e-01 -8.9271795749664307e-01</leafValues></_>
        <_>
          <internalNodes>
            0 -1 14 -3.2751299440860748e-02</internalNodes>
          <leafValues>
            4.1454410552978516e-01 -9.7351443767547607e-01</leafValues></_></weakClassifiers></_>
    <!-- stage 3 -->
    <_>
      <maxWeakCount>5</maxWeakCount>
      <stageThreshold>-1.6051925420761108e+00</stageThreshold>
      <weakClassifiers>
        <_>
          <internalNodes>
            0 -1 34 -5.4995920509099960e-03</internalNodes>
          <leafValues>
            2.8222995996475220e-01 -9.3762183189392090e-01</leafValues></_>
        <_>
          <internalNodes>
            0 -1 37 -3.1463846564292908e-02</internalNodes>
          <leafValues>
            2.3171868920326233e-01 -8.9491927623748779e-01</leafValues></_>
        <_>
          <internalNodes>
            0 -1 13 -5.5614663287997246e-03</internalNodes>
          <leafValues>
            5.1255583763122559e-01 -6.6783457994461060e-01</leafValues></_>
        <_>
          <internalNodes>
            0 -1 36 8.4104329347610474e-02</internalNodes>
          <leafValues>
            -5.8141487836837769e-01 6.5863913297653198e-01</leafValues></_>
        <_>
          <internalNodes>
            0 -1 18 -2.0012725144624710e-02</internalNodes>
          <leafValues>
            4.7619238495826721e-01 -8.6989176273345947e-01</leafValues></_></weakClassifiers></_>
    <!-- stage 4 -->
    <_>
      <maxWeakCount>6</maxWeakCount>
      <stageThreshold>-1.3484275341033936e+00</stageThreshold>
      <weakClassifiers>
        <_>
          <internalNodes>
            0 -1 23 2.3535456508398056e-02</internalNodes>
          <leafValues>
            -7.7261412143707275e-01 3.3164557814598083e-01</leafValues></_>
        <_>
          <internalNodes>
            0 -1 25 -2.0513314753770828e-02</internalNodes>
          <leafValues>
            2.3826898634433746e-01 -8.7359553575515747e-01</leafValues></_>
        <_>
          <internalNodes>
            0 -1 11 -2.0607715845108032e-01</internalNodes>
          <leafValues>
            4.2755284905433655e-01 -8.3667761087417603e-01</leafValues></_>
        <_>
          <internalNodes>
            0 -1 38 -1.7655381932854652e-02</internalNodes>
          <leafValues>
            5.4748481512069702e-01 -5.6130105257034302e-01</leafValues></_>
        <_>
          <internalNodes>
            0 -1 35 -1.2716010212898254e-02</internalNodes>
          <leafValues>
            3.1910243630409241e-01 -9.0027523040771484e-01</leafValues></_>
        <_>
          <internalNodes>
            0 -1 8 -4.2953345924615860e-02</internalNodes>
          <leafValues>
            3.3049026131629944e-01 -8.8124006986618042e-01</leafValues></_></weakClassifiers></_>
    <!-- stage 5 -->
    <_>
      <maxWeakCount>3</maxWeakCount>
      <stageThreshold>-1.3299846649169922e+00</stageThreshold>
      <weakClassifiers>
        <_>
          <internalNodes>
            0 -1 5 -4.4516779482364655e-02</internalNodes>
          <leafValues>
            -6.6225165501236916e-03 -9.4082838296890259e-01</leafValues></_>
        <_>
          <internalNodes>
            0 -1 39 7.8183472156524658e-02</internalNodes>
          <leafValues>
            -5.4977107048034668e-01 5.5675315856933594e-01</leafValues></_>
        <_>
          <internalNodes>
            0 -1 29 -4.6815846115350723e-02</internalNodes>
          <leafValues>
            3.2844719290733337e-01 -7.7359104156494141e-01</leafValues></_></weakClassifiers></_>
    <!-- stage 6 -->
    <_>
      <maxWeakCount>7</maxWeakCount>
      <stageThreshold>-1.8997851610183716e+00</stageThreshold>
      <weakClassifiers>
        <_>
          <internalNodes>
            0 -1 44 2.9703093692660332e-02</internalNodes>
          <leafValues>
            -8.1086516380310059e-01 9.9009899422526360e-03</leafValues></_>
        <_>
          <internalNodes>
            0 -1 16 1.0419772006571293e-03</internalNodes>
          <leafValues>
            -7.0290982723236084e-01 2.6957795023918152e-01</leafValues></_>
        <_>
          <internalNodes>
            0 -1 27 -9.8948515951633453e-03</internalNodes>
          <leafValues>
            2.6763147115707397e-01 -8.1937450170516968e-01</leafValues></_>
        <_>
          <internalNodes>
            0 -1 10 -3.2899681478738785e-02</internalNodes>
          <leafValues>
            3.5989362001419067e-01 -6.4249402284622192e-01</leafValues></_>
        <_>
          <internalNodes>
            0 -1 0 -4.3032405665144324e-04</internalNodes>
          <leafValues>
            2.2149680554866791e-01 -8.9305299520492554e-01</leafValues></_>
        <_>
          <internalNodes>
            0 -1 21 -2.9474377632141113e-02</internalNodes>
          <leafValues>
            5.3978598117828369e-01 -3.8901275396347046e-01</leafValues></_>
        <_>
          <internalNodes>
            0 -1 45 -9.5352146308869123e-04</internalNodes>
          <leafValues>
            3.7835356593132019e-01 -5.7977944612503052e-01</leafValues></_></weakClassifiers></_>
    <!-- stage 7 -->
    <_>
      <maxWeakCount>8</maxWeakCount>
      <stageThreshold>-1.7644475698471069e+00</stageThreshold>
      <weakClassifiers>
        <_>
          <internalNodes>
            0 -1 22 3.1301830895245075e-03</internalNodes>
          <leafValues>
            -8.2590234279632568e-01 -3.3434651792049408e-02</leafValues></_>
        <_>
          <internalNodes>
            0 -1 42 4.3189421296119690e-02</internalNodes>
          <leafValues>
            -5.9227412939071655e-01 2.4932368099689484e-01</leafValues></_>
        <_>
          <internalNodes>
            0 -1 6 -1.2036023690598086e-04</internalNodes>
          <leafValues>
            2.5070646405220032e-01 -7.3613500595092773e-01</leafValues></_>
        <_>
          <internalNodes>
            0 -1 15 -4.4432893395423889e-02</internalNodes>
          <leafValues>
            2.4480612576007843e-01 -7.7011322975158691e-01</leafValues></_>
        <_>
          <internalNodes>
            0 -1 33 -2.2898711264133453e-02</internalNodes>
          <leafValues>
            2.1842570602893829e-01 -7.0668137073516846e-01</leafValues></_>
        <_>
          <internalNodes>
            0 -1 3 1.2549953535199165e-02</internalNodes>
          <leafValues>
            1.8334117531776428e-01 -8.8150691986083984e-01</leafValues></_>
        <_>
          <internalNodes>
            0 -1 4 -2.6078332215547562e-02</internalNodes>
          <leafValues>
            -8.2320696115493774e-01 1.9355565309524536e-01</leafValues></_>
        <_>
          <internalNodes>
            0 -1 31 4.4597424566745758e-02</internalNodes>
          <leafValues>
            -4.2034360766410828e-01 4.0715610980987549e-01</leafValues></_></weakClassifiers></_>
    <!-- stage 8 -->
    <_>
      <maxWeakCount>8</maxWeakCount>
      <stageThreshold>-1.9861468076705933e+00</stageThreshold>
      <weakClassifiers>
        <_>
          <internalNodes>
            0 -1 20 -5.9625588357448578e-02</internalNodes>
          <leafValues>
            3.1055901199579239e-02 -7.2963297367095947e-01</leafValues></_>
        <_>
          <internalNodes>
            0 -1 40 -7.3584036726970226e-05</internalNodes>
          <leafValues>
            2.6212599873542786e-01 -5.4508125782012939e-01</leafValues></_>
        <_>
          <internalNodes>
            0 -1 37 -2.8536977246403694e-02</internalNodes>
          <leafValues>
            2.1271365880966187e-01 -7.6083636283874512e-01</leafValues></_>
        <_>
          <internalNodes>
            0 -1 30 -8.7544211419299245e-04</internalNodes>
          <leafValues>
            -6.7499041557312012e-01 2.5985169410705566e-01</leafValues></_>
        <_>
          <internalNodes>
            0 -1 17 -5.5596069432795048e-03</internalNodes>
          <leafValues>
            -7.2008025646209717e-01 2.2377896308898926e-01</leafValues></_>
        <_>
          <internalNodes>
            0 -1 1 -2.6575738564133644e-02</internalNodes>
          <leafValues>
            2.0358979701995850e-01 -7.7450066804885864e-01</leafValues></_>
        <_>
          <internalNodes>
            0 -1 26 -1.1665377020835876e-01</internalNodes>
          <leafValues>
            3.6313331127166748e-01 -4.4563102722167969e-01</leafValues></_>
        <_>
          <internalNodes>
            0 -1 24 1.9367106258869171e-02</internalNodes>
          <leafValues>
            -2.3089356720447540e-01 7.2641056776046753e-01</leafValues></_></weakClassifiers></_></stages>
  <features>
    <_>
      <rects>
        <_>
          0 0 1 2 -1.</_>
        <_>
          0 1 1 1 2.</_></rects>
      <tilted>0</tilted></_>
    <_>
      <rects>
        <_>
          0 0 4 5 -1.</_>
        <_>
          2 0 2 5 2.</_></rects>
      <tilted>0</tilted></_>
    <_>
      <rects>
        <_>
          0 0 4 24 -1.</_>
        <_>
          2 0 2 24 2.</_></rects>
      <tilted>0</tilted></_>
    <_>
      <rects>
        <_>
          0 0 10 1 -1.</_>
        <_>
          5 0 5 1 2.</_></rects>
      <tilted>0</tilted></_>
    <_>
      <rects>
        <_>
          0 0 12 1 -1.</_>
        <_>
          6 0 6 1 2.</_></rects>
      <tilted>0</tilted></_>
    <_>
      <rects>
        <_>
          0 0 10 2 -1.</_>
        <_>
          0 1 10 1 2.</_></rects>
      <tilted>0</tilted></_>
    <_>
      <rects>
        <_>
          0 1 2 2 -1.</_>
        <_>
          0 1 1 1 2.</_>
        <_>
          1 2 1 1 2.</_></rects>
      <tilted>0</tilted></_>
    <_>
      <rects>
        <_>
          0 1 4 23 -1.</_>
        <_>
          2 1 2 23 2.</_></rects>
      <tilted>0</tilted></_>
    <_>
      <rects>
        <_>
          0 2 2 15 -1.</_>
        <_>
          1 2 1 15 2.</_></rects>
      <tilted>0</tilted></_>
    <_>
      <rects>
        <_>
          0 2 2 21 -1.</_>
        <_>
          1 2 1 21 2.</_></rects>
      <tilted>0</tilted></_>
    <_>
      <rects>
        <_>
          0 2 4 3 -1.</_>
        <_>
          2 2 2 3 2.</_></rects>
      <tilted>0</tilted></_>
    <_>
      <rects>
        <_>
          0 2 4 21 -1.</_>
        <_>
          2 2 2 21 2.</_></rects>
      <tilted>0</tilted></_>
    <_>
      <rects>
        <_>
          0 3 2 17 -1.</_>
        <_>
          1 3 1 17 2.</_></rects>
      <tilted>0</tilted></_>
    <_>
      <rects>
        <_>
          0 4 2 1 -1.</_>
        <_>
          1 4 1 1 2.</_></rects>
      <tilted>0</tilted></_>
    <_>
      <rects>
        <_>
          0 16 4 6 -1.</_>
        <_>
          2 16 2 6 2.</_></rects>
      <tilted>0</tilted></_>
    <_>
      <rects>
        <_>
          0 18 4 6 -1.</_>
        <_>
          2 18 2 6 2.</_></rects>
      <tilted>0</tilted></_>
    <_>
      <rects>
        <_>
          0 22 2 2 -1.</_>
        <_>
          0 22 1 1 2.</_>
        <_>
          1 23 1 1 2.</_></rects>
      <tilted>0</tilted></_>
    <_>
      <rects>
        <_>
          1 0 6 1 -1.</_>
        <_>
          3 0 2 1 3.</_></rects>
      <tilted>0</tilted></_>
    <_>
      <rects>
        <_>
          1 0 4 4 -1.</_>
        <_>
          1 2 4 2 2.</_></rects>
      <tilted>0</tilted></_>
    <_>
      <rects>
        <_>
          1 0 10 2 -1.</_>
        <_>
          1 1 10 1 2.</_></rects>
      <tilted>0</tilted></_>
    <_>
      <rects>
        <_>
          1 2 3 14 -1.</_>
        <_>
          2 2 1 14 3.</_></rects>
      <tilted>0</tilted></_>
    <_>
      <rects>
        <_>
          1 6 3 6 -1.</_>
        <_>
          2 6 1 6 3.</_></rects>
      <tilted>0</tilted></_>
    <_>
      <rects>
        <_>
          1 22 2 2 -1.</_>
        <_>
          1 23 2 1 2.</_></rects>
      <tilted>0</tilted></_>
    <_>
      <rects>
        <_>
          1 22 11 2 -1.</_>
        <_>
          1 23 11 1 2.</_></rects>
      <tilted>0</tilted></_>
    <_>
      <rects>
        <_>
          2 4 9 2 -1.</_>
        <_>
          2 5 9 1 2.</_></rects>
      <tilted>0</tilted></_>
    <_>
      <rects>
        <_>
          3 0 4 2 -1.</_>
        <_>
          3 1 4 1 2.</_></rects>
      <tilted>0</tilted></_>
    <_>
      <rects>
        <_>
          3 10 9 14 -1.</_>
        <_>
          6 10 3 14 3.</_></rects>
      <tilted>0</tilted></_>
    <_>
      <rects>
        <_>
          4 0 2 2 -1.</_>
        <_>
          4 1 2 1 2.</_></rects>
      <tilted>0</tilted></_>
    <_>
      <rects>
        <_>
          4 0 5 2 -1.</_>
        <_>
          4 1 5 1 2.</_></rects>
      <tilted>0</tilted></_>
    <_>
      <rects>
        <_>
          5 0 6 4 -1.</_>
        <_>
          5 2 6 2 2.</_></rects>
      <tilted>0</tilted></_>
    <_>
      <rects>
        <_>
          5 2 1 2 -1.</_>
        <_>
          5 3 1 1 2.</_></rects>
      <tilted>0</tilted></_>
    <_>
      <rects>
        <_>
          5 4 6 20 -1.</_>
        <_>
          5 4 3 10 2.</_>
        <_>
          8 14 3 10 2.</_></rects>
      <tilted>0</tilted></_>
    <_>
      <rects>
        <_>
          6 0 1 2 -1.</_>
        <_>
          6 1 1 1 2.</_></rects>
      <tilted>0</tilted></_>
    <_>
      <rects>
        <_>
          6 0 4 2 -1.</_>
        <_>
          6 1 4 1 2.</_></rects>
      <tilted>0</tilted></_>
    <_>
      <rects>
        <_>
          7 0 1 2 -1.</_>
        <_>
          7 1 1 1 2.</_></rects>
      <tilted>0</tilted></_>
    <_>
      <rects>
        <_>
          7 0 5 2 -1.</_>
        <_>
          7 1 5 1 2.</_></rects>
      <tilted>0</tilted></_>
    <_>
      <rects>
        <_>
          8 12 4 12 -1.</_>
        <_>
          10 12 2 12 2.</_></rects>
      <tilted>0</tilted></_>
    <_>
      <rects>
        <_>
          9 0 3 9 -1.</_>
        <_>
          9 3 3 3 3.</_></rects>
      <tilted>0</tilted></_>
    <_>
      <rects>
        <_>
          9 3 3 8 -1.</_>
        <_>
          10 3 1 8 3.</_></rects>
      <tilted>0</tilted></_>
    <_>
      <rects>
        <_>
          9 3 3 14 -1.</_>
        <_>
          9 10 3 7 2.</_></rects>
      <tilted>0</tilted></_>
    <_>
      <rects>
        <_>
          9 4 2 1 -1.</_>
        <_>
          10 4 1 1 2.</_></rects>
      <tilted>0</tilted></_>
    <_>
      <rects>
        <_>
          10 1 2 21 -1.</_>
        <_>
          11 1 1 21 2.</_></rects>
      <tilted>0</tilted></_>
    <_>
      <rects>
        <_>
          10 1 2 23 -1.</_>
        <_>
          11 1 1 23 2.</_></rects>
      <tilted>0</tilted></_>
    <_>
      <rects>
        <_>
          10 2 2 17 -1.</_>
        <_>
          11 2 1 17 2.</_></rects>
      <tilted>0</tilted></_>
    <_>
      <rects>
        <_>
          10 9 2 15 -1.</_>
        <_>
          11 9 1 15 2.</_></rects>
      <tilted>0</tilted></_>
    <_>
      <rects>
        <_>
          10 21 2 3 -1.</_>
        <_>
          10 22 2 1 3.</_></rects>
      <tilted>0</tilted></_></features></cascade>
</opencv_storage>
