<?xml version="1.0"?>
<opencv_storage>
<cascade>
  <stageType>BOOST</stageType>
  <featureType>HAAR</featureType>
  <height>24</height>
  <width>12</width>
  <stageParams>
    <boostType>GAB</boostType>
    <minHitRate>9.9900001287460327e-01</minHitRate>
    <maxFalseAlarm>5.0000000000000000e-01</maxFalseAlarm>
    <weightTrimRate>9.4999999999999996e-01</weightTrimRate>
    <maxDepth>1</maxDepth>
    <maxWeakCount>100</maxWeakCount></stageParams>
  <featureParams>
    <maxCatCount>0</maxCatCount>
    <featSize>1</featSize>
    <mode>BASIC</mode></featureParams>
  <stageNum>10</stageNum>
  <stages>
    <!-- stage 0 -->
    <_>
      <maxWeakCount>1</maxWeakCount>
      <stageThreshold>9.9413490295410156e-01</stageThreshold>
      <weakClassifiers>
        <_>
          <internalNodes>
            0 -1 1 -5.5328243970870972e-01</internalNodes>
          <leafValues>
            9.9413490295410156e-01 -1.</leafValues></_></weakClassifiers></_>
    <!-- stage 1 -->
    <_>
      <maxWeakCount>3</maxWeakCount>
      <stageThreshold>-1.2524094581604004e+00</stageThreshold>
      <weakClassifiers>
        <_>
          <internalNodes>
            0 -1 5 -7.8727126121520996e-02</internalNodes>
          <leafValues>
            6.2077921628952026e-01 -9.5537847280502319e-01</leafValues></_>
        <_>
          <internalNodes>
            0 -1 16 -2.7732020616531372e-01</internalNodes>
          <leafValues>
            6.6045260429382324e-01 -9.4991147518157959e-01</leafValues></_>
        <_>
          <internalNodes>
            0 -1 29 -7.9648159444332123e-02</internalNodes>
          <leafValues>
            6.5288048982620239e-01 -9.1301733255386353e-01</leafValues></_></weakClassifiers></_>
    <!-- stage 2 -->
    <_>
      <maxWeakCount>3</maxWeakCount>
      <stageThreshold>-1.4702233076095581e+00</stageThreshold>
      <weakClassifiers>
        <_>
          <internalNodes>
            0 -1 14 2.2586394101381302e-02</internalNodes>
          <leafValues>
            -9.3413656949996948e-01 5.1392406225204468e-01</leafValues></_>
        <_>
          <internalNodes>
            0 -1 24 -8.6963236331939697e-02</internalNodes>
          <leafValues>
            4.8229676485061646e-01 -9.4764822721481323e-01</leafValues></_>
        <_>
          <internalNodes>
            0 -1 11 -5.7648472487926483e-02</internalNodes>
          <leafValues>
            4.1156151890754700e-01 -9.2191630601882935e-01</leafValues></_></weakClassifiers></_>
    <!-- stage 3 -->
    <_>
      <maxWeakCount>2</maxWeakCount>
      <stageThreshold>-5.0963753461837769e-01</stageThreshold>
      <weakClassifiers>
        <_>
          <internalNodes>
            0 -1 17 -3.7975662946701050e-01</internalNodes>
          <leafValues>
            6.9841271638870239e-01 -9.6988904476165771e-01</leafValues></_>
        <_>
          <internalNodes>
            0 -1 32 8.2803703844547272e-03</internalNodes>
          <leafValues>
            -9.8451048135757446e-01 4.6025153994560242e-01</leafValues></_></weakClassifiers></_>
    <!-- stage 4 -->
    <_>
      <maxWeakCount>3</maxWeakCount>
      <stageThreshold>-1.5077883005142212e+00</stageThreshold>
      <weakClassifiers>
        <_>
          <internalNodes>
            0 -1 28 -7.9549387097358704e-02</internalNodes>
          <leafValues>
            3.2515338063240051e-01 -9.7219806909561157e-01</leafValues></_>
        <_>
          <internalNodes>
            0 -1 20 -1.8525956571102142e-01</internalNodes>
          <leafValues>
            3.4859713912010193e-01 -9.1084355115890503e-01</leafValues></_>
        <_>
          <internalNodes>
            0 -1 35 3.8103081285953522e-02</internalNodes>
          <leafValues>
            -9.0142232179641724e-01 3.7525337934494019e-01</leafValues></_></weakClassifiers></_>
    <!-- stage 5 -->
    <_>
      <maxWeakCount>5</maxWeakCount>
      <stageThreshold>-1.9626438617706299e+00</stageThreshold>
      <weakClassifiers>
        <_>
          <internalNodes>
            0 -1 4 -1.4287731051445007e-01</internalNodes>
          <leafValues>
            1.4542190730571747e-01 -9.6121883392333984e-01</leafValues></_>
        <_>
          <internalNodes>
            0 -1 10 -1.3396006822586060e-01</internalNodes>
          <leafValues>
            2.1146912872791290e-01 -9.3654692173004150e-01</leafValues></_>
        <_>
          <internalNodes>
            0 -1 13 9.6758687868714333e-03</internalNodes>
          <leafValues>
            -8.2044982910156250e-01 3.8404718041419983e-01</leafValues></_>
        <_>
          <internalNodes>
            0 -1 8 -6.1154119670391083e-02</internalNodes>
          <leafValues>
            4.2047530412673950e-01 -8.4305638074874878e-01</leafValues></_>
        <_>
          <internalNodes>
            0 -1 30 -2.9001153961871751e-05</internalNodes>
          <leafValues>
            3.9413109421730042e-01 -9.1993296146392822e-01</leafValues></_></weakClassifiers></_>
    <!-- stage 6 -->
    <_>
      <maxWeakCount>5</maxWeakCount>
      <stageThreshold>-1.8885740041732788e+00</stageThreshold>
      <weakClassifiers>
        <_>
          <internalNodes>
            0 -1 22 -7.7834323048591614e-02</internalNodes>
          <leafValues>
            3.5754188895225525e-01 -8.4867393970489502e-01</leafValues></_>
        <_>
          <internalNodes>
            0 -1 12 -3.9026893675327301e-02</internalNodes>
          <leafValues>
            2.7403914928436279e-01 -8.6417877674102783e-01</leafValues></_>
        <_>
          <internalNodes>
            0 -1 15 -8.2536853849887848e-02</internalNodes>
          <leafValues>
            3.1791806221008301e-01 -9.3907880783081055e-01</leafValues></_>
        <_>
          <internalNodes>
            0 -1 31 9.7958254627883434e-04</internalNodes>
          <leafValues>
            4.0821689367294312e-01 -7.3141753673553467e-01</leafValues></_>
        <_>
          <internalNodes>
            0 -1 34 8.0471031367778778e-02</internalNodes>
          <leafValues>
            -9.3349272012710571e-01 3.5655716061592102e-01</leafValues></_></weakClassifiers></_>
    <!-- stage 7 -->
    <_>
      <maxWeakCount>4</maxWeakCount>
      <stageThreshold>-1.4726843833923340e+00</stageThreshold>
      <weakClassifiers>
        <_>
          <internalNodes>
            0 -1 19 -3.6898505687713623e-01</internalNodes>
          <leafValues>
            1.3502936065196991e-01 -9.1142606735229492e-01</leafValues></_>
        <_>
          <internalNodes>
            0 -1 3 -1.8064185976982117e-01</internalNodes>
          <leafValues>
            1.7415508627891541e-01 -9.6049803495407104e-01</leafValues></_>
        <_>
          <internalNodes>
            0 -1 0 -2.8819468570873141e-04</internalNodes>
          <leafValues>
            1.9868433475494385e-01 -9.5563864707946777e-01</leafValues></_>
        <_>
          <internalNodes>
            0 -1 25 -4.3636616319417953e-03</internalNodes>
          <leafValues>
            -8.4590005874633789e-01 3.0024626851081848e-01</leafValues></_></weakClassifiers></_>
    <!-- stage 8 -->
    <_>
      <maxWeakCount>6</maxWeakCount>
      <stageThreshold>-1.6919363737106323e+00</stageThreshold>
      <weakClassifiers>
        <_>
          <internalNodes>
            0 -1 18 -3.4438008069992065e-01</internalNodes>
          <leafValues>
            3.8251366466283798e-02 -8.9917504787445068e-01</leafValues></_>
        <_>
          <internalNodes>
            0 -1 23 -2.3712836205959320e-02</internalNodes>
          <leafValues>
            3.8265720009803772e-01 -6.6257077455520630e-01</leafValues></_>
        <_>
          <internalNodes>
            0 -1 26 1.1435538530349731e-02</internalNodes>
          <leafValues>
            -9.2893314361572266e-01 2.7522000670433044e-01</leafValues></_>
        <_>
          <internalNodes>
            0 -1 27 -5.5667348206043243e-02</internalNodes>
          <leafValues>
            3.2084783911705017e-01 -9.2261213064193726e-01</leafValues></_>
        <_>
          <internalNodes>
            0 -1 2 -6.4195096492767334e-01</internalNodes>
          <leafValues>
            3.0571717023849487e-01 -9.0364617109298706e-01</leafValues></_>
        <_>
          <internalNodes>
            0 -1 6 -8.0070155672729015e-04</internalNodes>
          <leafValues>
            -1. 2.1148437261581421e-01</leafValues></_></weakClassifiers></_>
    <!-- stage 9 -->
    <_>
      <maxWeakCount>6</maxWeakCount>
      <stageThreshold>-1.6617028713226318e+00</stageThreshold>
      <weakClassifiers>
        <_>
          <internalNodes>
            0 -1 21 -9.8107352852821350e-02</internalNodes>
          <leafValues>
            3.4586465358734131e-01 -7.6564776897430420e-01</leafValues></_>
        <_>
          <internalNodes>
            0 -1 19 -3.0387812852859497e-01</internalNodes>
          <leafValues>
            2.4983599781990051e-01 -8.7529599666595459e-01</leafValues></_>
        <_>
          <internalNodes>
            0 -1 33 1.8620888004079461e-03</internalNodes>
          <leafValues>
            2.4238251149654388e-01 -8.8578581809997559e-01</leafValues></_>
        <_>
          <internalNodes>
            0 -1 36 1.1021587124560028e-04</internalNodes>
          <leafValues>
            -9.6150177717208862e-01 2.3714973032474518e-01</leafValues></_>
        <_>
          <internalNodes>
            0 -1 9 -1.1100716888904572e-01</internalNodes>
          <leafValues>
            2.4081815779209137e-01 -9.0376281738281250e-01</leafValues></_>
        <_>
          <internalNodes>
            0 -1 7 -1.6613019630312920e-02</internalNodes>
          <leafValues>
            4.0347144007682800e-01 -6.5958255529403687e-01</leafValues></_></weakClassifiers></_></stages>
  <features>
    <_>
      <rects>
        <_>
          0 0 1 3 -1.</_>
        <_>
          0 1 1 1 3.</_></rects>
      <tilted>0</tilted></_>
    <_>
      <rects>
        <_>
          0 3 12 20 -1.</_>
        <_>
          4 3 4 20 3.</_></rects>
      <tilted>0</tilted></_>
    <_>
      <rects>
        <_>
          0 4 12 18 -1.</_>
        <_>
          4 4 4 18 3.</_></rects>
      <tilted>0</tilted></_>
    <_>
      <rects>
        <_>
          0 5 6 10 -1.</_>
        <_>
          3 5 3 10 2.</_></rects>
      <tilted>0</tilted></_>
    <_>
      <rects>
        <_>
          0 9 4 10 -1.</_>
        <_>
          2 9 2 10 2.</_></rects>
      <tilted>0</tilted></_>
    <_>
      <rects>
        <_>
          0 10 6 7 -1.</_>
        <_>
          2 10 2 7 3.</_></rects>
      <tilted>0</tilted></_>
    <_>
      <rects>
        <_>
          0 21 1 3 -1.</_>
        <_>
          0 22 1 1 3.</_></rects>
      <tilted>0</tilted></_>
    <_>
      <rects>
        <_>
          0 21 10 3 -1.</_>
        <_>
          0 22 10 1 3.</_></rects>
      <tilted>0</tilted></_>
    <_>
      <rects>
        <_>
          1 1 2 22 -1.</_>
        <_>
          2 1 1 22 2.</_></rects>
      <tilted>0</tilted></_>
    <_>
      <rects>
        <_>
          1 3 7 18 -1.</_>
        <_>
          1 9 7 6 3.</_></rects>
      <tilted>0</tilted></_>
    <_>
      <rects>
        <_>
          1 5 10 15 -1.</_>
        <_>
          1 10 10 5 3.</_></rects>
      <tilted>0</tilted></_>
    <_>
      <rects>
        <_>
          1 6 2 17 -1.</_>
        <_>
          2 6 1 17 2.</_></rects>
      <tilted>0</tilted></_>
    <_>
      <rects>
        <_>
          1 6 4 12 -1.</_>
        <_>
          1 10 4 4 3.</_></rects>
      <tilted>0</tilted></_>
    <_>
      <rects>
        <_>
          1 22 5 2 -1.</_>
        <_>
          1 23 5 1 2.</_></rects>
      <tilted>0</tilted></_>
    <_>
      <rects>
        <_>
          1 22 10 2 -1.</_>
        <_>
          1 23 10 1 2.</_></rects>
      <tilted>0</tilted></_>
    <_>
      <rects>
        <_>
          2 0 8 6 -1.</_>
        <_>
          2 3 8 3 2.</_></rects>
      <tilted>0</tilted></_>
    <_>
      <rects>
        <_>
          2 0 8 14 -1.</_>
        <_>
          2 7 8 7 2.</_></rects>
      <tilted>0</tilted></_>
    <_>
      <rects>
        <_>
          2 0 8 24 -1.</_>
        <_>
          2 8 8 8 3.</_></rects>
      <tilted>0</tilted></_>
    <_>
      <rects>
        <_>
          2 0 9 14 -1.</_>
        <_>
          2 7 9 7 2.</_></rects>
      <tilted>0</tilted></_>
    <_>
      <rects>
        <_>
          2 0 9 16 -1.</_>
        <_>
          2 8 9 8 2.</_></rects>
      <tilted>0</tilted></_>
    <_>
      <rects>
        <_>
          2 2 9 14 -1.</_>
        <_>
          2 9 9 7 2.</_></rects>
      <tilted>0</tilted></_>
    <_>
      <rects>
        <_>
          2 3 9 3 -1.</_>
        <_>
          5 3 3 3 3.</_></rects>
      <tilted>0</tilted></_>
    <_>
      <rects>
        <_>
          2 4 9 3 -1.</_>
        <_>
          5 4 3 3 3.</_></rects>
      <tilted>0</tilted></_>
    <_>
      <rects>
        <_>
          2 6 1 12 -1.</_>
        <_>
          2 10 1 4 3.</_></rects>
      <tilted>0</tilted></_>
    <_>
      <rects>
        <_>
          3 0 7 6 -1.</_>
        <_>
          3 3 7 3 2.</_></rects>
      <tilted>0</tilted></_>
    <_>
      <rects>
        <_>
          3 11 6 3 -1.</_>
        <_>
          5 11 2 3 3.</_></rects>
      <tilted>0</tilted></_>
    <_>
      <rects>
        <_>
          3 22 8 2 -1.</_>
        <_>
          3 23 8 1 2.</_></rects>
      <tilted>0</tilted></_>
    <_>
      <rects>
        <_>
          4 0 5 6 -1.</_>
        <_>
          4 3 5 3 2.</_></rects>
      <tilted>0</tilted></_>
    <_>
      <rects>
        <_>
          5 0 4 8 -1.</_>
        <_>
          5 4 4 4 2.</_></rects>
      <tilted>0</tilted></_>
    <_>
      <rects>
        <_>
          6 8 6 10 -1.</_>
        <_>
          8 8 2 10 3.</_></rects>
      <tilted>0</tilted></_>
    <_>
      <rects>
        <_>
          6 10 1 4 -1.</_>
        <_>
          6 12 1 2 2.</_></rects>
      <tilted>0</tilted></_>
    <_>
      <rects>
        <_>
          6 12 4 1 -1.</_>
        <_>
          8 12 2 1 2.</_></rects>
      <tilted>0</tilted></_>
    <_>
      <rects>
        <_>
          6 22 6 2 -1.</_>
        <_>
          6 23 6 1 2.</_></rects>
      <tilted>0</tilted></_>
    <_>
      <rects>
        <_>
          7 10 2 5 -1.</_>
        <_>
          8 10 1 5 2.</_></rects>
      <tilted>0</tilted></_>
    <_>
      <rects>
        <_>
          8 6 4 10 -1.</_>
        <_>
          10 6 2 10 2.</_></rects>
      <tilted>0</tilted></_>
    <_>
      <rects>
        <_>
          10 10 2 12 -1.</_>
        <_>
          11 10 1 12 2.</_></rects>
      <tilted>0</tilted></_>
    <_>
      <rects>
        <_>
          11 22 1 2 -1.</_>
        <_>
          11 23 1 1 2.</_></rects>
      <tilted>0</tilted></_></features></cascade>
</opencv_storage>
