<?xml version="1.0"?>
<opencv_storage>
<cascade>
  <stageType>BOOST</stageType>
  <featureType>HAAR</featureType>
  <height>24</height>
  <width>12</width>
  <stageParams>
    <boostType>GAB</boostType>
    <minHitRate>9.9900001287460327e-01</minHitRate>
    <maxFalseAlarm>5.0000000000000000e-01</maxFalseAlarm>
    <weightTrimRate>9.4999999999999996e-01</weightTrimRate>
    <maxDepth>1</maxDepth>
    <maxWeakCount>100</maxWeakCount></stageParams>
  <featureParams>
    <maxCatCount>0</maxCatCount>
    <featSize>1</featSize>
    <mode>BASIC</mode></featureParams>
  <stageNum>12</stageNum>
  <stages>
    <!-- stage 0 -->
    <_>
      <maxWeakCount>2</maxWeakCount>
      <stageThreshold>-4.7525558620691299e-02</stageThreshold>
      <weakClassifiers>
        <_>
          <internalNodes>
            0 -1 7 -6.2355212867259979e-02</internalNodes>
          <leafValues>
            9.5053005218505859e-01 -9.8203593492507935e-01</leafValues></_>
        <_>
          <internalNodes>
            0 -1 16 -1.0212559998035431e-01</internalNodes>
          <leafValues>
            9.3451035022735596e-01 -9.8212355375289917e-01</leafValues></_></weakClassifiers></_>
    <!-- stage 1 -->
    <_>
      <maxWeakCount>4</maxWeakCount>
      <stageThreshold>-1.9565771818161011e+00</stageThreshold>
      <weakClassifiers>
        <_>
          <internalNodes>
            0 -1 52 -3.6852449178695679e-02</internalNodes>
          <leafValues>
            6.7229729890823364e-01 -9.2416584491729736e-01</leafValues></_>
        <_>
          <internalNodes>
            0 -1 10 -7.8154675662517548e-02</internalNodes>
          <leafValues>
            5.7278317213058472e-01 -8.8690841197967529e-01</leafValues></_>
        <_>
          <internalNodes>
            0 -1 41 1.9218191504478455e-02</internalNodes>
          <leafValues>
            -7.6646602153778076e-01 6.9063317775726318e-01</leafValues></_>
        <_>
          <internalNodes>
            0 -1 23 -3.1271982192993164e-01</internalNodes>
          <leafValues>
            6.2096303701400757e-01 -7.9275339841842651e-01</leafValues></_></weakClassifiers></_>
    <!-- stage 2 -->
    <_>
      <maxWeakCount>3</maxWeakCount>
      <stageThreshold>-1.3036352396011353e+00</stageThreshold>
      <weakClassifiers>
        <_>
          <internalNodes>
            0 -1 56 2.7159944176673889e-02</internalNodes>
          <leafValues>
            -9.4444441795349121e-01 4.1416892409324646e-01</leafValues></_>
        <_>
          <internalNodes>
            0 -1 39 -9.7430087625980377e-03</internalNodes>
          <leafValues>
            3.1922641396522522e-01 -9.0370750427246094e-01</leafValues></_>
        <_>
          <internalNodes>
            0 -1 31 -5.3386116027832031e-01</internalNodes>
          <leafValues>
            6.1994594335556030e-01 -6.7841720581054688e-01</leafValues></_></weakClassifiers></_>
    <!-- stage 3 -->
    <_>
      <maxWeakCount>3</maxWeakCount>
      <stageThreshold>-1.4620211124420166e+00</stageThreshold>
      <weakClassifiers>
        <_>
          <internalNodes>
            0 -1 38 2.6344504207372665e-02</internalNodes>
          <leafValues>
            -9.4800883531570435e-01 3.7270340323448181e-01</leafValues></_>
        <_>
          <internalNodes>
            0 -1 12 -6.0532972216606140e-02</internalNodes>
          <leafValues>
            4.2529439926147461e-01 -8.1490051746368408e-01</leafValues></_>
        <_>
          <internalNodes>
            0 -1 0 -5.7412835303694010e-04</internalNodes>
          <leafValues>
            3.0088824033737183e-01 -9.8726701736450195e-01</leafValues></_></weakClassifiers></_>
    <!-- stage 4 -->
    <_>
      <maxWeakCount>5</maxWeakCount>
      <stageThreshold>-1.7364050149917603e+00</stageThreshold>
      <weakClassifiers>
        <_>
          <internalNodes>
            0 -1 30 -3.6553040146827698e-01</internalNodes>
          <leafValues>
            2.7894738316535950e-01 -9.0718233585357666e-01</leafValues></_>
        <_>
          <internalNodes>
            0 -1 58 2.6262577623128891e-02</internalNodes>
          <leafValues>
            -8.5998010635375977e-01 3.6197182536125183e-01</leafValues></_>
        <_>
          <internalNodes>
            0 -1 2 -8.1302255392074585e-02</internalNodes>
          <leafValues>
            3.5376664996147156e-01 -8.7520682811737061e-01</leafValues></_>
        <_>
          <internalNodes>
            0 -1 37 3.6591012030839920e-02</internalNodes>
          <leafValues>
            -6.5470927953720093e-01 5.2313458919525146e-01</leafValues></_>
        <_>
          <internalNodes>
            0 -1 34 -1.0393801331520081e-01</internalNodes>
          <leafValues>
            4.2417496442794800e-01 -8.3912223577499390e-01</leafValues></_></weakClassifiers></_>
    <!-- stage 5 -->
    <_>
      <maxWeakCount>6</maxWeakCount>
      <stageThreshold>-2.3196866512298584e+00</stageThreshold>
      <weakClassifiers>
        <_>
          <internalNodes>
            0 -1 43 1.2619847431778908e-02</internalNodes>
          <leafValues>
            -9.4563841819763184e-01 6.6801622509956360e-02</leafValues></_>
        <_>
          <internalNodes>
            0 -1 13 -1.4209112524986267e-01</internalNodes>
          <leafValues>
            3.6372441053390503e-01 -7.0778805017471313e-01</leafValues></_>
        <_>
          <internalNodes>
            0 -1 44 -2.0083099603652954e-01</internalNodes>
          <leafValues>
            4.6505331993103027e-01 -7.6851648092269897e-01</leafValues></_>
        <_>
          <internalNodes>
            0 -1 45 -6.4745196141302586e-03</internalNodes>
          <leafValues>
            3.5337305068969727e-01 -8.2442963123321533e-01</leafValues></_>
        <_>
          <internalNodes>
            0 -1 52 -1.3322214595973492e-02</internalNodes>
          <leafValues>
            4.1294959187507629e-01 -7.8219485282897949e-01</leafValues></_>
        <_>
          <internalNodes>
            0 -1 49 -8.0906882882118225e-02</internalNodes>
          <leafValues>
            4.7531086206436157e-01 -5.8000499010086060e-01</leafValues></_></weakClassifiers></_>
    <!-- stage 6 -->
    <_>
      <maxWeakCount>7</maxWeakCount>
      <stageThreshold>-2.5308656692504883e+00</stageThreshold>
      <weakClassifiers>
        <_>
          <internalNodes>
            0 -1 11 -2.1171405911445618e-01</internalNodes>
          <leafValues>
            2.6176470518112183e-01 -8.5079365968704224e-01</leafValues></_>
        <_>
          <internalNodes>
            0 -1 27 2.1430935710668564e-02</internalNodes>
          <leafValues>
            -8.3568793535232544e-01 2.7127552032470703e-01</leafValues></_>
        <_>
          <internalNodes>
            0 -1 60 5.7907880545826629e-05</internalNodes>
          <leafValues>
            -9.3377441167831421e-01 2.6128011941909790e-01</leafValues></_>
        <_>
          <internalNodes>
            0 -1 14 -4.8048492521047592e-02</internalNodes>
          <leafValues>
            3.3199501037597656e-01 -7.9114210605621338e-01</leafValues></_>
        <_>
          <internalNodes>
            0 -1 3 -3.6072281002998352e-01</internalNodes>
          <leafValues>
            3.3804896473884583e-01 -7.3517721891403198e-01</leafValues></_>
        <_>
          <internalNodes>
            0 -1 20 6.7387026501819491e-04</internalNodes>
          <leafValues>
            -8.1365251541137695e-01 2.7987149357795715e-01</leafValues></_>
        <_>
          <internalNodes>
            0 -1 1 -2.2935381275601685e-04</internalNodes>
          <leafValues>
            2.1270118653774261e-01 -9.5659178495407104e-01</leafValues></_></weakClassifiers></_>
    <!-- stage 7 -->
    <_>
      <maxWeakCount>7</maxWeakCount>
      <stageThreshold>-2.1497521400451660e+00</stageThreshold>
      <weakClassifiers>
        <_>
          <internalNodes>
            0 -1 25 -4.8098415136337280e-02</internalNodes>
          <leafValues>
            1.7877094447612762e-01 -8.4034520387649536e-01</leafValues></_>
        <_>
          <internalNodes>
            0 -1 53 -2.2786527872085571e-02</internalNodes>
          <leafValues>
            3.2522121071815491e-01 -7.1467328071594238e-01</leafValues></_>
        <_>
          <internalNodes>
            0 -1 54 7.7283548307605088e-05</internalNodes>
          <leafValues>
            -8.0932414531707764e-01 2.9264095425605774e-01</leafValues></_>
        <_>
          <internalNodes>
            0 -1 55 -5.8117148000746965e-04</internalNodes>
          <leafValues>
            2.6860257983207703e-01 -8.6048197746276855e-01</leafValues></_>
        <_>
          <internalNodes>
            0 -1 18 -4.2839231900870800e-03</internalNodes>
          <leafValues>
            -9.4667917490005493e-01 2.4291650950908661e-01</leafValues></_>
        <_>
          <internalNodes>
            0 -1 17 -9.7993919625878334e-03</internalNodes>
          <leafValues>
            3.1411135196685791e-01 -7.4895262718200684e-01</leafValues></_>
        <_>
          <internalNodes>
            0 -1 35 -2.3352375626564026e-01</internalNodes>
          <leafValues>
            4.7914355993270874e-01 -5.6912142038345337e-01</leafValues></_></weakClassifiers></_>
    <!-- stage 8 -->
    <_>
      <maxWeakCount>5</maxWeakCount>
      <stageThreshold>-1.8506227731704712e+00</stageThreshold>
      <weakClassifiers>
        <_>
          <internalNodes>
            0 -1 51 -4.5156024396419525e-02</internalNodes>
          <leafValues>
            4.0089085698127747e-02 -8.7679427862167358e-01</leafValues></_>
        <_>
          <internalNodes>
            0 -1 40 1.6732322052121162e-02</internalNodes>
          <leafValues>
            -7.8699171543121338e-01 2.4679687619209290e-01</leafValues></_>
        <_>
          <internalNodes>
            0 -1 8 2.5927770882844925e-02</internalNodes>
          <leafValues>
            2.5405028462409973e-01 -8.8458770513534546e-01</leafValues></_>
        <_>
          <internalNodes>
            0 -1 15 -4.2229529470205307e-02</internalNodes>
          <leafValues>
            3.0336913466453552e-01 -6.8344163894653320e-01</leafValues></_>
        <_>
          <internalNodes>
            0 -1 9 5.6730620563030243e-03</internalNodes>
          <leafValues>
            2.4255450069904327e-01 -8.5163259506225586e-01</leafValues></_></weakClassifiers></_>
    <!-- stage 9 -->
    <_>
      <maxWeakCount>6</maxWeakCount>
      <stageThreshold>-1.5149815082550049e+00</stageThreshold>
      <weakClassifiers>
        <_>
          <internalNodes>
            0 -1 24 -7.0280337333679199e-01</internalNodes>
          <leafValues>
            3.9784947037696838e-01 -7.6722091436386108e-01</leafValues></_>
        <_>
          <internalNodes>
            0 -1 28 2.5264315307140350e-02</internalNodes>
          <leafValues>
            -7.8635275363922119e-01 2.1594189107418060e-01</leafValues></_>
        <_>
          <internalNodes>
            0 -1 32 -3.8897484540939331e-01</internalNodes>
          <leafValues>
            3.4186404943466187e-01 -6.3326275348663330e-01</leafValues></_>
        <_>
          <internalNodes>
            0 -1 6 -3.7685956805944443e-02</internalNodes>
          <leafValues>
            3.1838399171829224e-01 -7.9019427299499512e-01</leafValues></_>
        <_>
          <internalNodes>
            0 -1 47 4.4053802266716957e-03</internalNodes>
          <leafValues>
            2.3790772259235382e-01 -9.4582366943359375e-01</leafValues></_>
        <_>
          <internalNodes>
            0 -1 46 -2.9188652988523245e-03</internalNodes>
          <leafValues>
            -8.5373270511627197e-01 2.4901458621025085e-01</leafValues></_></weakClassifiers></_>
    <!-- stage 10 -->
    <_>
      <maxWeakCount>6</maxWeakCount>
      <stageThreshold>-1.8017519712448120e+00</stageThreshold>
      <weakClassifiers>
        <_>
          <internalNodes>
            0 -1 4 -1.2403409928083420e-03</internalNodes>
          <leafValues>
            -1.7953020334243774e-01 -8.8243830204010010e-01</leafValues></_>
        <_>
          <internalNodes>
            0 -1 57 2.4693971499800682e-02</internalNodes>
          <leafValues>
            -7.7936756610870361e-01 1.9260632991790771e-01</leafValues></_>
        <_>
          <internalNodes>
            0 -1 36 -1.6685489565134048e-02</internalNodes>
          <leafValues>
            -8.1336939334869385e-01 2.4265529215335846e-01</leafValues></_>
        <_>
          <internalNodes>
            0 -1 50 -8.1915507325902581e-04</internalNodes>
          <leafValues>
            -7.4904203414916992e-01 2.9191470146179199e-01</leafValues></_>
        <_>
          <internalNodes>
            0 -1 29 -5.4223476909101009e-03</internalNodes>
          <leafValues>
            2.5266766548156738e-01 -8.0841726064682007e-01</leafValues></_>
        <_>
          <internalNodes>
            0 -1 48 6.7251184955239296e-03</internalNodes>
          <leafValues>
            1.9782377779483795e-01 -1.</leafValues></_></weakClassifiers></_>
    <!-- stage 11 -->
    <_>
      <maxWeakCount>8</maxWeakCount>
      <stageThreshold>-2.3068075180053711e+00</stageThreshold>
      <weakClassifiers>
        <_>
          <internalNodes>
            0 -1 19 -2.7200227603316307e-02</internalNodes>
          <leafValues>
            -2.2776910662651062e-01 -8.8354039192199707e-01</leafValues></_>
        <_>
          <internalNodes>
            0 -1 22 -7.4704556027427316e-05</internalNodes>
          <leafValues>
            1.9183963537216187e-01 -7.2832071781158447e-01</leafValues></_>
        <_>
          <internalNodes>
            0 -1 21 -1.0437218588776886e-04</internalNodes>
          <leafValues>
            2.8560909628868103e-01 -7.3178380727767944e-01</leafValues></_>
        <_>
          <internalNodes>
            0 -1 42 -1.5358612872660160e-03</internalNodes>
          <leafValues>
            -8.8978499174118042e-01 2.4430039525032043e-01</leafValues></_>
        <_>
          <internalNodes>
            0 -1 5 -1.6716694226488471e-03</internalNodes>
          <leafValues>
            -8.7217861413955688e-01 1.9853444397449493e-01</leafValues></_>
        <_>
          <internalNodes>
            0 -1 26 8.9295310317538679e-05</internalNodes>
          <leafValues>
            -8.7173879146575928e-01 1.9368150830268860e-01</leafValues></_>
        <_>
          <internalNodes>
            0 -1 59 2.0979156251996756e-03</internalNodes>
          <leafValues>
            -7.7519786357879639e-01 2.2922579944133759e-01</leafValues></_>
        <_>
          <internalNodes>
            0 -1 33 -5.2738850936293602e-03</internalNodes>
          <leafValues>
            -7.7690935134887695e-01 2.3651544749736786e-01</leafValues></_></weakClassifiers></_></stages>
  <features>
    <_>
      <rects>
        <_>
          0 0 1 2 -1.</_>
        <_>
          0 1 1 1 2.</_></rects>
      <tilted>0</tilted></_>
    <_>
      <rects>
        <_>
          0 0 1 3 -1.</_>
        <_>
          0 1 1 1 3.</_></rects>
      <tilted>0</tilted></_>
    <_>
      <rects>
        <_>
          0 0 2 22 -1.</_>
        <_>
          1 0 1 22 2.</_></rects>
      <tilted>0</tilted></_>
    <_>
      <rects>
        <_>
          0 0 11 20 -1.</_>
        <_>
          0 10 11 10 2.</_></rects>
      <tilted>0</tilted></_>
    <_>
      <rects>
        <_>
          0 1 2 2 -1.</_>
        <_>
          0 1 1 1 2.</_>
        <_>
          1 2 1 1 2.</_></rects>
      <tilted>0</tilted></_>
    <_>
      <rects>
        <_>
          0 1 1 4 -1.</_>
        <_>
          0 3 1 2 2.</_></rects>
      <tilted>0</tilted></_>
    <_>
      <rects>
        <_>
          0 1 2 13 -1.</_>
        <_>
          1 1 1 13 2.</_></rects>
      <tilted>0</tilted></_>
    <_>
      <rects>
        <_>
          0 3 2 20 -1.</_>
        <_>
          1 3 1 20 2.</_></rects>
      <tilted>0</tilted></_>
    <_>
      <rects>
        <_>
          0 4 1 20 -1.</_>
        <_>
          0 14 1 10 2.</_></rects>
      <tilted>0</tilted></_>
    <_>
      <rects>
        <_>
          0 4 6 20 -1.</_>
        <_>
          0 4 3 10 2.</_>
        <_>
          3 14 3 10 2.</_></rects>
      <tilted>0</tilted></_>
    <_>
      <rects>
        <_>
          0 7 2 16 -1.</_>
        <_>
          1 7 1 16 2.</_></rects>
      <tilted>0</tilted></_>
    <_>
      <rects>
        <_>
          0 7 4 14 -1.</_>
        <_>
          2 7 2 14 2.</_></rects>
      <tilted>0</tilted></_>
    <_>
      <rects>
        <_>
          0 8 2 10 -1.</_>
        <_>
          1 8 1 10 2.</_></rects>
      <tilted>0</tilted></_>
    <_>
      <rects>
        <_>
          0 9 4 10 -1.</_>
        <_>
          2 9 2 10 2.</_></rects>
      <tilted>0</tilted></_>
    <_>
      <rects>
        <_>
          0 10 2 10 -1.</_>
        <_>
          1 10 1 10 2.</_></rects>
      <tilted>0</tilted></_>
    <_>
      <rects>
        <_>
          0 12 2 8 -1.</_>
        <_>
          1 12 1 8 2.</_></rects>
      <tilted>0</tilted></_>
    <_>
      <rects>
        <_>
          0 12 4 12 -1.</_>
        <_>
          2 12 2 12 2.</_></rects>
      <tilted>0</tilted></_>
    <_>
      <rects>
        <_>
          0 15 2 2 -1.</_>
        <_>
          1 15 1 2 2.</_></rects>
      <tilted>0</tilted></_>
    <_>
      <rects>
        <_>
          0 16 1 8 -1.</_>
        <_>
          0 20 1 4 2.</_></rects>
      <tilted>0</tilted></_>
    <_>
      <rects>
        <_>
          0 17 4 2 -1.</_>
        <_>
          2 17 2 2 2.</_></rects>
      <tilted>0</tilted></_>
    <_>
      <rects>
        <_>
          0 22 2 2 -1.</_>
        <_>
          0 22 1 1 2.</_>
        <_>
          1 23 1 1 2.</_></rects>
      <tilted>0</tilted></_>
    <_>
      <rects>
        <_>
          1 0 2 1 -1.</_>
        <_>
          2 0 1 1 2.</_></rects>
      <tilted>0</tilted></_>
    <_>
      <rects>
        <_>
          1 0 2 2 -1.</_>
        <_>
          1 0 1 1 2.</_>
        <_>
          2 1 1 1 2.</_></rects>
      <tilted>0</tilted></_>
    <_>
      <rects>
        <_>
          1 0 9 20 -1.</_>
        <_>
          1 10 9 10 2.</_></rects>
      <tilted>0</tilted></_>
    <_>
      <rects>
        <_>
          1 0 11 24 -1.</_>
        <_>
          1 8 11 8 3.</_></rects>
      <tilted>0</tilted></_>
    <_>
      <rects>
        <_>
          1 1 3 17 -1.</_>
        <_>
          2 1 1 17 3.</_></rects>
      <tilted>0</tilted></_>
    <_>
      <rects>
        <_>
          1 22 1 2 -1.</_>
        <_>
          1 23 1 1 2.</_></rects>
      <tilted>0</tilted></_>
    <_>
      <rects>
        <_>
          1 22 9 2 -1.</_>
        <_>
          1 23 9 1 2.</_></rects>
      <tilted>0</tilted></_>
    <_>
      <rects>
        <_>
          1 22 10 2 -1.</_>
        <_>
          1 23 10 1 2.</_></rects>
      <tilted>0</tilted></_>
    <_>
      <rects>
        <_>
          2 0 6 2 -1.</_>
        <_>
          2 1 6 1 2.</_></rects>
      <tilted>0</tilted></_>
    <_>
      <rects>
        <_>
          2 0 8 18 -1.</_>
        <_>
          2 9 8 9 2.</_></rects>
      <tilted>0</tilted></_>
    <_>
      <rects>
        <_>
          2 0 9 20 -1.</_>
        <_>
          2 10 9 10 2.</_></rects>
      <tilted>0</tilted></_>
    <_>
      <rects>
        <_>
          2 0 9 24 -1.</_>
        <_>
          2 12 9 12 2.</_></rects>
      <tilted>0</tilted></_>
    <_>
      <rects>
        <_>
          2 2 3 10 -1.</_>
        <_>
          3 2 1 10 3.</_></rects>
      <tilted>0</tilted></_>
    <_>
      <rects>
        <_>
          2 3 7 16 -1.</_>
        <_>
          2 11 7 8 2.</_></rects>
      <tilted>0</tilted></_>
    <_>
      <rects>
        <_>
          2 3 8 14 -1.</_>
        <_>
          2 10 8 7 2.</_></rects>
      <tilted>0</tilted></_>
    <_>
      <rects>
        <_>
          2 6 9 8 -1.</_>
        <_>
          5 6 3 8 3.</_></rects>
      <tilted>0</tilted></_>
    <_>
      <rects>
        <_>
          2 20 8 4 -1.</_>
        <_>
          2 22 8 2 2.</_></rects>
      <tilted>0</tilted></_>
    <_>
      <rects>
        <_>
          2 22 10 2 -1.</_>
        <_>
          2 23 10 1 2.</_></rects>
      <tilted>0</tilted></_>
    <_>
      <rects>
        <_>
          3 0 8 2 -1.</_>
        <_>
          3 1 8 1 2.</_></rects>
      <tilted>0</tilted></_>
    <_>
      <rects>
        <_>
          3 22 6 2 -1.</_>
        <_>
          3 23 6 1 2.</_></rects>
      <tilted>0</tilted></_>
    <_>
      <rects>
        <_>
          3 22 7 2 -1.</_>
        <_>
          3 23 7 1 2.</_></rects>
      <tilted>0</tilted></_>
    <_>
      <rects>
        <_>
          4 15 4 4 -1.</_>
        <_>
          4 15 2 2 2.</_>
        <_>
          6 17 2 2 2.</_></rects>
      <tilted>0</tilted></_>
    <_>
      <rects>
        <_>
          4 22 5 2 -1.</_>
        <_>
          4 23 5 1 2.</_></rects>
      <tilted>0</tilted></_>
    <_>
      <rects>
        <_>
          5 0 4 22 -1.</_>
        <_>
          5 11 4 11 2.</_></rects>
      <tilted>0</tilted></_>
    <_>
      <rects>
        <_>
          5 0 5 2 -1.</_>
        <_>
          5 1 5 1 2.</_></rects>
      <tilted>0</tilted></_>
    <_>
      <rects>
        <_>
          5 14 2 6 -1.</_>
        <_>
          5 16 2 2 3.</_></rects>
      <tilted>0</tilted></_>
    <_>
      <rects>
        <_>
          5 14 5 6 -1.</_>
        <_>
          5 16 5 2 3.</_></rects>
      <tilted>0</tilted></_>
    <_>
      <rects>
        <_>
          6 16 4 6 -1.</_>
        <_>
          6 18 4 2 3.</_></rects>
      <tilted>0</tilted></_>
    <_>
      <rects>
        <_>
          7 3 4 18 -1.</_>
        <_>
          7 9 4 6 3.</_></rects>
      <tilted>0</tilted></_>
    <_>
      <rects>
        <_>
          7 15 3 2 -1.</_>
        <_>
          7 16 3 1 2.</_></rects>
      <tilted>0</tilted></_>
    <_>
      <rects>
        <_>
          9 2 3 20 -1.</_>
        <_>
          10 2 1 20 3.</_></rects>
      <tilted>0</tilted></_>
    <_>
      <rects>
        <_>
          9 4 3 20 -1.</_>
        <_>
          10 4 1 20 3.</_></rects>
      <tilted>0</tilted></_>
    <_>
      <rects>
        <_>
          9 7 3 11 -1.</_>
        <_>
          10 7 1 11 3.</_></rects>
      <tilted>0</tilted></_>
    <_>
      <rects>
        <_>
          10 0 2 1 -1.</_>
        <_>
          11 0 1 1 2.</_></rects>
      <tilted>0</tilted></_>
    <_>
      <rects>
        <_>
          10 0 1 2 -1.</_>
        <_>
          10 1 1 1 2.</_></rects>
      <tilted>0</tilted></_>
    <_>
      <rects>
        <_>
          10 11 2 11 -1.</_>
        <_>
          11 11 1 11 2.</_></rects>
      <tilted>0</tilted></_>
    <_>
      <rects>
        <_>
          10 12 2 10 -1.</_>
        <_>
          11 12 1 10 2.</_></rects>
      <tilted>0</tilted></_>
    <_>
      <rects>
        <_>
          10 13 2 11 -1.</_>
        <_>
          11 13 1 11 2.</_></rects>
      <tilted>0</tilted></_>
    <_>
      <rects>
        <_>
          10 22 2 2 -1.</_>
        <_>
          11 22 1 2 2.</_></rects>
      <tilted>0</tilted></_>
    <_>
      <rects>
        <_>
          10 23 2 1 -1.</_>
        <_>
          11 23 1 1 2.</_></rects>
      <tilted>0</tilted></_></features></cascade>
</opencv_storage>
