<?xml version="1.0"?>
<opencv_storage>
<cascade>
  <stageType>BOOST</stageType>
  <featureType>HAAR</featureType>
  <height>24</height>
  <width>12</width>
  <stageParams>
    <boostType>GAB</boostType>
    <minHitRate>9.9900001287460327e-01</minHitRate>
    <maxFalseAlarm>5.0000000000000000e-01</maxFalseAlarm>
    <weightTrimRate>9.4999999999999996e-01</weightTrimRate>
    <maxDepth>1</maxDepth>
    <maxWeakCount>100</maxWeakCount></stageParams>
  <featureParams>
    <maxCatCount>0</maxCatCount>
    <featSize>1</featSize>
    <mode>BASIC</mode></featureParams>
  <stageNum>6</stageNum>
  <stages>
    <!-- stage 0 -->
    <_>
      <maxWeakCount>1</maxWeakCount>
      <stageThreshold>1.</stageThreshold>
      <weakClassifiers>
        <_>
          <internalNodes>
            0 -1 2 -1.4674848318099976e-01</internalNodes>
          <leafValues>
            1. -1.</leafValues></_></weakClassifiers></_>
    <!-- stage 1 -->
    <_>
      <maxWeakCount>2</maxWeakCount>
      <stageThreshold>-3.0675479769706726e-01</stageThreshold>
      <weakClassifiers>
        <_>
          <internalNodes>
            0 -1 10 5.0044409930706024e-02</internalNodes>
          <leafValues>
            -9.6195650100708008e-01 6.5853661298751831e-01</leafValues></_>
        <_>
          <internalNodes>
            0 -1 3 -2.4732112884521484e-01</internalNodes>
          <leafValues>
            6.5520173311233521e-01 -9.5102876424789429e-01</leafValues></_></weakClassifiers></_>
    <!-- stage 2 -->
    <_>
      <maxWeakCount>2</maxWeakCount>
      <stageThreshold>-3.2495447993278503e-01</stageThreshold>
      <weakClassifiers>
        <_>
          <internalNodes>
            0 -1 4 -1.9792918115854263e-02</internalNodes>
          <leafValues>
            7.8102189302444458e-01 -9.2660552263259888e-01</leafValues></_>
        <_>
          <internalNodes>
            0 -1 7 1.6132950782775879e-02</internalNodes>
          <leafValues>
            -9.7835952043533325e-01 6.0165101289749146e-01</leafValues></_></weakClassifiers></_>
    <!-- stage 3 -->
    <_>
      <maxWeakCount>2</maxWeakCount>
      <stageThreshold>-5.5535870790481567e-01</stageThreshold>
      <weakClassifiers>
        <_>
          <internalNodes>
            0 -1 0 -3.7890923023223877e-01</internalNodes>
          <leafValues>
            6.4848482608795166e-01 -9.6190476417541504e-01</leafValues></_>
        <_>
          <internalNodes>
            0 -1 8 -1.3098187744617462e-01</internalNodes>
          <leafValues>
            4.0654605627059937e-01 -9.8192542791366577e-01</leafValues></_></weakClassifiers></_>
    <!-- stage 4 -->
    <_>
      <maxWeakCount>2</maxWeakCount>
      <stageThreshold>-8.1177562475204468e-01</stageThreshold>
      <weakClassifiers>
        <_>
          <internalNodes>
            0 -1 5 -2.5972224771976471e-02</internalNodes>
          <leafValues>
            1.5151515603065491e-01 -9.4917786121368408e-01</leafValues></_>
        <_>
          <internalNodes>
            0 -1 1 1.2016826076433063e-03</internalNodes>
          <leafValues>
            -9.6329075098037720e-01 2.5626546144485474e-01</leafValues></_></weakClassifiers></_>
    <!-- stage 5 -->
    <_>
      <maxWeakCount>2</maxWeakCount>
      <stageThreshold>-5.8129286766052246e-01</stageThreshold>
      <weakClassifiers>
        <_>
          <internalNodes>
            0 -1 9 -3.4409451484680176e-01</internalNodes>
          <leafValues>
            3.1543624401092529e-01 -8.6151796579360962e-01</leafValues></_>
        <_>
          <internalNodes>
            0 -1 6 -2.4180661886930466e-02</internalNodes>
          <leafValues>
            2.8022512793540955e-01 -1.</leafValues></_></weakClassifiers></_></stages>
  <features>
    <_>
      <rects>
        <_>
          0 0 12 20 -1.</_>
        <_>
          0 10 12 10 2.</_></rects>
      <tilted>0</tilted></_>
    <_>
      <rects>
        <_>
          0 1 3 1 -1.</_>
        <_>
          1 1 1 1 3.</_></rects>
      <tilted>0</tilted></_>
    <_>
      <rects>
        <_>
          0 4 4 15 -1.</_>
        <_>
          2 4 2 15 2.</_></rects>
      <tilted>0</tilted></_>
    <_>
      <rects>
        <_>
          0 18 12 5 -1.</_>
        <_>
          4 18 4 5 3.</_></rects>
      <tilted>0</tilted></_>
    <_>
      <rects>
        <_>
          2 1 7 2 -1.</_>
        <_>
          2 2 7 1 2.</_></rects>
      <tilted>0</tilted></_>
    <_>
      <rects>
        <_>
          2 5 2 16 -1.</_>
        <_>
          2 5 1 8 2.</_>
        <_>
          3 13 1 8 2.</_></rects>
      <tilted>0</tilted></_>
    <_>
      <rects>
        <_>
          2 22 6 2 -1.</_>
        <_>
          5 22 3 2 2.</_></rects>
      <tilted>0</tilted></_>
    <_>
      <rects>
        <_>
          2 22 8 2 -1.</_>
        <_>
          2 23 8 1 2.</_></rects>
      <tilted>0</tilted></_>
    <_>
      <rects>
        <_>
          5 0 5 16 -1.</_>
        <_>
          5 8 5 8 2.</_></rects>
      <tilted>0</tilted></_>
    <_>
      <rects>
        <_>
          5 0 5 24 -1.</_>
        <_>
          5 12 5 12 2.</_></rects>
      <tilted>0</tilted></_>
    <_>
      <rects>
        <_>
          10 4 2 18 -1.</_>
        <_>
          11 4 1 18 2.</_></rects>
      <tilted>0</tilted></_></features></cascade>
</opencv_storage>
