<?xml version="1.0"?>
<opencv_storage>
<cascade>
  <stageType>BOOST</stageType>
  <featureType>HAAR</featureType>
  <height>24</height>
  <width>12</width>
  <stageParams>
    <boostType>GAB</boostType>
    <minHitRate>9.9900001287460327e-01</minHitRate>
    <maxFalseAlarm>5.0000000000000000e-01</maxFalseAlarm>
    <weightTrimRate>9.4999999999999996e-01</weightTrimRate>
    <maxDepth>1</maxDepth>
    <maxWeakCount>100</maxWeakCount></stageParams>
  <featureParams>
    <maxCatCount>0</maxCatCount>
    <featSize>1</featSize>
    <mode>BASIC</mode></featureParams>
  <stageNum>11</stageNum>
  <stages>
    <!-- stage 0 -->
    <_>
      <maxWeakCount>2</maxWeakCount>
      <stageThreshold>-1.2894901633262634e-01</stageThreshold>
      <weakClassifiers>
        <_>
          <internalNodes>
            0 -1 10 -1.7599008977413177e-01</internalNodes>
          <leafValues>
            9.4923859834671021e-01 -9.8404783010482788e-01</leafValues></_>
        <_>
          <internalNodes>
            0 -1 12 -6.1236120760440826e-02</internalNodes>
          <leafValues>
            8.5509884357452393e-01 -9.7172051668167114e-01</leafValues></_></weakClassifiers></_>
    <!-- stage 1 -->
    <_>
      <maxWeakCount>3</maxWeakCount>
      <stageThreshold>-1.3424965143203735e+00</stageThreshold>
      <weakClassifiers>
        <_>
          <internalNodes>
            0 -1 40 -3.2929804176092148e-02</internalNodes>
          <leafValues>
            7.8846156597137451e-01 -9.7177422046661377e-01</leafValues></_>
        <_>
          <internalNodes>
            0 -1 64 5.0533130764961243e-02</internalNodes>
          <leafValues>
            -8.8575953245162964e-01 5.8023220300674438e-01</leafValues></_>
        <_>
          <internalNodes>
            0 -1 36 -2.9682945460081100e-02</internalNodes>
          <leafValues>
            5.4556208848953247e-01 -9.5095455646514893e-01</leafValues></_></weakClassifiers></_>
    <!-- stage 2 -->
    <_>
      <maxWeakCount>5</maxWeakCount>
      <stageThreshold>-1.6375833749771118e+00</stageThreshold>
      <weakClassifiers>
        <_>
          <internalNodes>
            0 -1 39 -2.8540238738059998e-02</internalNodes>
          <leafValues>
            3.2405567169189453e-01 -9.2936217784881592e-01</leafValues></_>
        <_>
          <internalNodes>
            0 -1 15 -2.7252817153930664e-01</internalNodes>
          <leafValues>
            4.2094066739082336e-01 -7.4838101863861084e-01</leafValues></_>
        <_>
          <internalNodes>
            0 -1 7 -4.2723052203655243e-02</internalNodes>
          <leafValues>
            4.2853531241416931e-01 -8.2575219869613647e-01</leafValues></_>
        <_>
          <internalNodes>
            0 -1 61 -1.7924111336469650e-02</internalNodes>
          <leafValues>
            4.6426162123680115e-01 -6.3707834482192993e-01</leafValues></_>
        <_>
          <internalNodes>
            0 -1 57 -3.6996737122535706e-02</internalNodes>
          <leafValues>
            4.0165039896965027e-01 -8.1908512115478516e-01</leafValues></_></weakClassifiers></_>
    <!-- stage 3 -->
    <_>
      <maxWeakCount>5</maxWeakCount>
      <stageThreshold>-1.8067399263381958e+00</stageThreshold>
      <weakClassifiers>
        <_>
          <internalNodes>
            0 -1 31 2.3276571184396744e-02</internalNodes>
          <leafValues>
            -8.4903693199157715e-01 6.4718164503574371e-02</leafValues></_>
        <_>
          <internalNodes>
            0 -1 13 -2.3160077631473541e-01</internalNodes>
          <leafValues>
            2.6841264963150024e-01 -8.2853430509567261e-01</leafValues></_>
        <_>
          <internalNodes>
            0 -1 26 -2.8482459485530853e-02</internalNodes>
          <leafValues>
            2.4770513176918030e-01 -8.9939069747924805e-01</leafValues></_>
        <_>
          <internalNodes>
            0 -1 68 7.8265387564897537e-03</internalNodes>
          <leafValues>
            -6.7788034677505493e-01 4.2348343133926392e-01</leafValues></_>
        <_>
          <internalNodes>
            0 -1 45 -3.6531407386064529e-02</internalNodes>
          <leafValues>
            3.4806349873542786e-01 -8.0035716295242310e-01</leafValues></_></weakClassifiers></_>
    <!-- stage 4 -->
    <_>
      <maxWeakCount>6</maxWeakCount>
      <stageThreshold>-1.9280743598937988e+00</stageThreshold>
      <weakClassifiers>
        <_>
          <internalNodes>
            0 -1 16 -2.7671298384666443e-01</internalNodes>
          <leafValues>
            -1.2539184652268887e-02 -9.0351873636245728e-01</leafValues></_>
        <_>
          <internalNodes>
            0 -1 63 5.0546258687973022e-02</internalNodes>
          <leafValues>
            -6.3819003105163574e-01 4.2066454887390137e-01</leafValues></_>
        <_>
          <internalNodes>
            0 -1 29 2.6021499070338905e-04</internalNodes>
          <leafValues>
            -6.5526694059371948e-01 3.3440402150154114e-01</leafValues></_>
        <_>
          <internalNodes>
            0 -1 11 -7.0684865117073059e-02</internalNodes>
          <leafValues>
            3.6870476603507996e-01 -6.5681093931198120e-01</leafValues></_>
        <_>
          <internalNodes>
            0 -1 37 9.8021633923053741e-02</internalNodes>
          <leafValues>
            -3.6851531267166138e-01 6.6538453102111816e-01</leafValues></_>
        <_>
          <internalNodes>
            0 -1 9 -1.1874891060870141e-04</internalNodes>
          <leafValues>
            3.1864225864410400e-01 -7.2095912694931030e-01</leafValues></_></weakClassifiers></_>
    <!-- stage 5 -->
    <_>
      <maxWeakCount>7</maxWeakCount>
      <stageThreshold>-2.0718095302581787e+00</stageThreshold>
      <weakClassifiers>
        <_>
          <internalNodes>
            0 -1 54 1.0687404870986938e-01</internalNodes>
          <leafValues>
            -7.7757269144058228e-01 3.6480686068534851e-01</leafValues></_>
        <_>
          <internalNodes>
            0 -1 19 -6.0711964964866638e-02</internalNodes>
          <leafValues>
            1.2294635921716690e-01 -8.5322010517120361e-01</leafValues></_>
        <_>
          <internalNodes>
            0 -1 55 -9.0105757117271423e-03</internalNodes>
          <leafValues>
            4.6161749958992004e-01 -4.3731817603111267e-01</leafValues></_>
        <_>
          <internalNodes>
            0 -1 4 -2.7129400521516800e-02</internalNodes>
          <leafValues>
            2.4459159374237061e-01 -8.0623412132263184e-01</leafValues></_>
        <_>
          <internalNodes>
            0 -1 23 4.2968668276444077e-04</internalNodes>
          <leafValues>
            -6.4699411392211914e-01 2.6259633898735046e-01</leafValues></_>
        <_>
          <internalNodes>
            0 -1 1 -4.3017015559598804e-04</internalNodes>
          <leafValues>
            1.8792665004730225e-01 -8.6684298515319824e-01</leafValues></_>
        <_>
          <internalNodes>
            0 -1 42 -1.0136622004210949e-03</internalNodes>
          <leafValues>
            -6.8319481611251831e-01 2.1077741682529449e-01</leafValues></_></weakClassifiers></_>
    <!-- stage 6 -->
    <_>
      <maxWeakCount>8</maxWeakCount>
      <stageThreshold>-2.2556867599487305e+00</stageThreshold>
      <weakClassifiers>
        <_>
          <internalNodes>
            0 -1 28 -6.3356809318065643e-02</internalNodes>
          <leafValues>
            1.8750000000000000e-01 -7.9807692766189575e-01</leafValues></_>
        <_>
          <internalNodes>
            0 -1 24 -2.5494848378002644e-03</internalNodes>
          <leafValues>
            -8.6314630508422852e-01 8.0011971294879913e-02</leafValues></_>
        <_>
          <internalNodes>
            0 -1 14 -1.0642737150192261e-01</internalNodes>
          <leafValues>
            3.7092882394790649e-01 -5.5042749643325806e-01</leafValues></_>
        <_>
          <internalNodes>
            0 -1 22 -9.4932198524475098e-02</internalNodes>
          <leafValues>
            3.9250251650810242e-01 -5.2840650081634521e-01</leafValues></_>
        <_>
          <internalNodes>
            0 -1 46 -9.3142790719866753e-03</internalNodes>
          <leafValues>
            3.9716225862503052e-01 -5.2982378005981445e-01</leafValues></_>
        <_>
          <internalNodes>
            0 -1 60 -7.1580149233341217e-03</internalNodes>
          <leafValues>
            4.0673688054084778e-01 -5.3992015123367310e-01</leafValues></_>
        <_>
          <internalNodes>
            0 -1 18 3.1565077602863312e-02</internalNodes>
          <leafValues>
            1.8207475543022156e-01 -9.3360197544097900e-01</leafValues></_>
        <_>
          <internalNodes>
            0 -1 59 -3.0432224273681641e-02</internalNodes>
          <leafValues>
            3.2658642530441284e-01 -4.9247491359710693e-01</leafValues></_></weakClassifiers></_>
    <!-- stage 7 -->
    <_>
      <maxWeakCount>9</maxWeakCount>
      <stageThreshold>-1.9189549684524536e+00</stageThreshold>
      <weakClassifiers>
        <_>
          <internalNodes>
            0 -1 65 4.1768006980419159e-02</internalNodes>
          <leafValues>
            -7.8768783807754517e-01 7.4183978140354156e-02</leafValues></_>
        <_>
          <internalNodes>
            0 -1 21 -5.2011720836162567e-02</internalNodes>
          <leafValues>
            1.1183162778615952e-01 -7.9718577861785889e-01</leafValues></_>
        <_>
          <internalNodes>
            0 -1 41 1.1060945689678192e-03</internalNodes>
          <leafValues>
            1.3857361674308777e-01 -8.2065361738204956e-01</leafValues></_>
        <_>
          <internalNodes>
            0 -1 25 -8.0916695296764374e-03</internalNodes>
          <leafValues>
            -8.1329679489135742e-01 1.9137759506702423e-01</leafValues></_>
        <_>
          <internalNodes>
            0 -1 17 -9.8649207502603531e-03</internalNodes>
          <leafValues>
            2.6210480928421021e-01 -5.7758474349975586e-01</leafValues></_>
        <_>
          <internalNodes>
            0 -1 67 2.3557350039482117e-02</internalNodes>
          <leafValues>
            -5.0410580635070801e-01 3.3772620558738708e-01</leafValues></_>
        <_>
          <internalNodes>
            0 -1 44 -1.0002916678786278e-02</internalNodes>
          <leafValues>
            2.5503447651863098e-01 -8.1055265665054321e-01</leafValues></_>
        <_>
          <internalNodes>
            0 -1 50 8.3237077342346311e-04</internalNodes>
          <leafValues>
            2.1006624400615692e-01 -6.8657314777374268e-01</leafValues></_>
        <_>
          <internalNodes>
            0 -1 35 -1.3167150318622589e-02</internalNodes>
          <leafValues>
            -7.8445684909820557e-01 1.7845484614372253e-01</leafValues></_></weakClassifiers></_>
    <!-- stage 8 -->
    <_>
      <maxWeakCount>10</maxWeakCount>
      <stageThreshold>-2.0180120468139648e+00</stageThreshold>
      <weakClassifiers>
        <_>
          <internalNodes>
            0 -1 66 2.2121012210845947e-02</internalNodes>
          <leafValues>
            -8.1147974729537964e-01 -1.1776447296142578e-01</leafValues></_>
        <_>
          <internalNodes>
            0 -1 56 1.1213024146854877e-02</internalNodes>
          <leafValues>
            -5.2326178550720215e-01 3.0366253852844238e-01</leafValues></_>
        <_>
          <internalNodes>
            0 -1 6 1.4461268670856953e-02</internalNodes>
          <leafValues>
            1.5078784525394440e-01 -7.7204114198684692e-01</leafValues></_>
        <_>
          <internalNodes>
            0 -1 6 -2.6071801781654358e-02</internalNodes>
          <leafValues>
            -7.5299793481826782e-01 2.0400573313236237e-01</leafValues></_>
        <_>
          <internalNodes>
            0 -1 51 -5.7696830481290817e-04</internalNodes>
          <leafValues>
            -6.3047343492507935e-01 1.9988514482975006e-01</leafValues></_>
        <_>
          <internalNodes>
            0 -1 49 8.2505948375910521e-04</internalNodes>
          <leafValues>
            1.4622579514980316e-01 -8.5860556364059448e-01</leafValues></_>
        <_>
          <internalNodes>
            0 -1 48 1.5288625145331025e-03</internalNodes>
          <leafValues>
            1.3428163528442383e-01 -8.7073403596878052e-01</leafValues></_>
        <_>
          <internalNodes>
            0 -1 33 4.1398167610168457e-02</internalNodes>
          <leafValues>
            -3.0648437142372131e-01 4.8965850472450256e-01</leafValues></_>
        <_>
          <internalNodes>
            0 -1 23 1.3835194986313581e-03</internalNodes>
          <leafValues>
            -4.8889333009719849e-01 3.0289787054061890e-01</leafValues></_>
        <_>
          <internalNodes>
            0 -1 3 -3.2054997980594635e-02</internalNodes>
          <leafValues>
            2.3392458260059357e-01 -5.6428986787796021e-01</leafValues></_></weakClassifiers></_>
    <!-- stage 9 -->
    <_>
      <maxWeakCount>11</maxWeakCount>
      <stageThreshold>-1.9538408517837524e+00</stageThreshold>
      <weakClassifiers>
        <_>
          <internalNodes>
            0 -1 38 -1.1053405702114105e-01</internalNodes>
          <leafValues>
            3.1606218218803406e-01 -7.5260531902313232e-01</leafValues></_>
        <_>
          <internalNodes>
            0 -1 62 -4.5093434891896322e-05</internalNodes>
          <leafValues>
            2.0673200488090515e-01 -5.8684474229812622e-01</leafValues></_>
        <_>
          <internalNodes>
            0 -1 47 -4.3424759060144424e-02</internalNodes>
          <leafValues>
            3.4375840425491333e-01 -4.9647304415702820e-01</leafValues></_>
        <_>
          <internalNodes>
            0 -1 43 -5.4369932040572166e-03</internalNodes>
          <leafValues>
            1.7338930070400238e-01 -7.3492610454559326e-01</leafValues></_>
        <_>
          <internalNodes>
            0 -1 20 -3.2571312040090561e-02</internalNodes>
          <leafValues>
            1.5845376253128052e-01 -8.7288832664489746e-01</leafValues></_>
        <_>
          <internalNodes>
            0 -1 34 2.0232577808201313e-03</internalNodes>
          <leafValues>
            -2.7138969302177429e-01 4.5377230644226074e-01</leafValues></_>
        <_>
          <internalNodes>
            0 -1 52 1.4060083776712418e-03</internalNodes>
          <leafValues>
            1.4121487736701965e-01 -9.0513479709625244e-01</leafValues></_>
        <_>
          <internalNodes>
            0 -1 52 -5.5284716654568911e-04</internalNodes>
          <leafValues>
            -5.9884917736053467e-01 1.9054090976715088e-01</leafValues></_>
        <_>
          <internalNodes>
            0 -1 70 2.6667471975088120e-03</internalNodes>
          <leafValues>
            -4.5969972014427185e-01 2.5746431946754456e-01</leafValues></_>
        <_>
          <internalNodes>
            0 -1 27 2.2599741816520691e-02</internalNodes>
          <leafValues>
            -2.1852700412273407e-01 7.8089368343353271e-01</leafValues></_>
        <_>
          <internalNodes>
            0 -1 8 -1.8730475567281246e-03</internalNodes>
          <leafValues>
            -6.2999266386032104e-01 2.4032594263553619e-01</leafValues></_></weakClassifiers></_>
    <!-- stage 10 -->
    <_>
      <maxWeakCount>11</maxWeakCount>
      <stageThreshold>-1.8956649303436279e+00</stageThreshold>
      <weakClassifiers>
        <_>
          <internalNodes>
            0 -1 53 1.1384947597980499e-01</internalNodes>
          <leafValues>
            -7.5549453496932983e-01 2.3148147761821747e-01</leafValues></_>
        <_>
          <internalNodes>
            0 -1 58 -7.7249474998097867e-05</internalNodes>
          <leafValues>
            1.3215674459934235e-01 -5.4413467645645142e-01</leafValues></_>
        <_>
          <internalNodes>
            0 -1 5 1.5777794178575277e-03</internalNodes>
          <leafValues>
            1.5996281802654266e-01 -6.6115981340408325e-01</leafValues></_>
        <_>
          <internalNodes>
            0 -1 2 -1.8787134438753128e-02</internalNodes>
          <leafValues>
            -9.3280035257339478e-01 1.6276605427265167e-01</leafValues></_>
        <_>
          <internalNodes>
            0 -1 32 -1.6641128063201904e-01</internalNodes>
          <leafValues>
            3.3475488424301147e-01 -3.7949645519256592e-01</leafValues></_>
        <_>
          <internalNodes>
            0 -1 71 4.7140998503891751e-05</internalNodes>
          <leafValues>
            -5.0614911317825317e-01 2.5398439168930054e-01</leafValues></_>
        <_>
          <internalNodes>
            0 -1 30 -3.3384216949343681e-03</internalNodes>
          <leafValues>
            3.7490162253379822e-01 -3.3746704459190369e-01</leafValues></_>
        <_>
          <internalNodes>
            0 -1 0 4.6416022814810276e-04</internalNodes>
          <leafValues>
            1.4186210930347443e-01 -8.8187843561172485e-01</leafValues></_>
        <_>
          <internalNodes>
            0 -1 1 -1.1475402861833572e-03</internalNodes>
          <leafValues>
            1.4338847994804382e-01 -6.2273913621902466e-01</leafValues></_>
        <_>
          <internalNodes>
            0 -1 42 -1.0142965475097299e-03</internalNodes>
          <leafValues>
            -6.1060577630996704e-01 1.7411667108535767e-01</leafValues></_>
        <_>
          <internalNodes>
            0 -1 69 6.5252510830760002e-04</internalNodes>
          <leafValues>
            -4.9723255634307861e-01 2.2016234695911407e-01</leafValues></_></weakClassifiers></_></stages>
  <features>
    <_>
      <rects>
        <_>
          0 0 2 1 -1.</_>
        <_>
          1 0 1 1 2.</_></rects>
      <tilted>0</tilted></_>
    <_>
      <rects>
        <_>
          0 0 1 2 -1.</_>
        <_>
          0 1 1 1 2.</_></rects>
      <tilted>0</tilted></_>
    <_>
      <rects>
        <_>
          0 0 1 6 -1.</_>
        <_>
          0 3 1 3 2.</_></rects>
      <tilted>0</tilted></_>
    <_>
      <rects>
        <_>
          0 0 4 4 -1.</_>
        <_>
          2 0 2 4 2.</_></rects>
      <tilted>0</tilted></_>
    <_>
      <rects>
        <_>
          0 0 4 5 -1.</_>
        <_>
          2 0 2 5 2.</_></rects>
      <tilted>0</tilted></_>
    <_>
      <rects>
        <_>
          0 0 8 1 -1.</_>
        <_>
          4 0 4 1 2.</_></rects>
      <tilted>0</tilted></_>
    <_>
      <rects>
        <_>
          0 0 12 1 -1.</_>
        <_>
          6 0 6 1 2.</_></rects>
      <tilted>0</tilted></_>
    <_>
      <rects>
        <_>
          0 0 10 2 -1.</_>
        <_>
          0 1 10 1 2.</_></rects>
      <tilted>0</tilted></_>
    <_>
      <rects>
        <_>
          0 1 1 3 -1.</_>
        <_>
          0 2 1 1 3.</_></rects>
      <tilted>0</tilted></_>
    <_>
      <rects>
        <_>
          0 1 2 2 -1.</_>
        <_>
          0 1 1 1 2.</_>
        <_>
          1 2 1 1 2.</_></rects>
      <tilted>0</tilted></_>
    <_>
      <rects>
        <_>
          0 1 4 23 -1.</_>
        <_>
          2 1 2 23 2.</_></rects>
      <tilted>0</tilted></_>
    <_>
      <rects>
        <_>
          0 2 2 15 -1.</_>
        <_>
          1 2 1 15 2.</_></rects>
      <tilted>0</tilted></_>
    <_>
      <rects>
        <_>
          0 2 2 21 -1.</_>
        <_>
          1 2 1 21 2.</_></rects>
      <tilted>0</tilted></_>
    <_>
      <rects>
        <_>
          0 2 4 21 -1.</_>
        <_>
          2 2 2 21 2.</_></rects>
      <tilted>0</tilted></_>
    <_>
      <rects>
        <_>
          0 3 2 20 -1.</_>
        <_>
          1 3 1 20 2.</_></rects>
      <tilted>0</tilted></_>
    <_>
      <rects>
        <_>
          0 3 4 18 -1.</_>
        <_>
          2 3 2 18 2.</_></rects>
      <tilted>0</tilted></_>
    <_>
      <rects>
        <_>
          0 3 4 20 -1.</_>
        <_>
          2 3 2 20 2.</_></rects>
      <tilted>0</tilted></_>
    <_>
      <rects>
        <_>
          0 4 2 2 -1.</_>
        <_>
          1 4 1 2 2.</_></rects>
      <tilted>0</tilted></_>
    <_>
      <rects>
        <_>
          0 10 1 14 -1.</_>
        <_>
          0 17 1 7 2.</_></rects>
      <tilted>0</tilted></_>
    <_>
      <rects>
        <_>
          0 15 4 7 -1.</_>
        <_>
          2 15 2 7 2.</_></rects>
      <tilted>0</tilted></_>
    <_>
      <rects>
        <_>
          0 17 6 6 -1.</_>
        <_>
          3 17 3 6 2.</_></rects>
      <tilted>0</tilted></_>
    <_>
      <rects>
        <_>
          0 18 4 6 -1.</_>
        <_>
          2 18 2 6 2.</_></rects>
      <tilted>0</tilted></_>
    <_>
      <rects>
        <_>
          0 20 12 3 -1.</_>
        <_>
          4 20 4 3 3.</_></rects>
      <tilted>0</tilted></_>
    <_>
      <rects>
        <_>
          0 22 2 2 -1.</_>
        <_>
          0 22 1 1 2.</_>
        <_>
          1 23 1 1 2.</_></rects>
      <tilted>0</tilted></_>
    <_>
      <rects>
        <_>
          1 0 2 1 -1.</_>
        <_>
          2 0 1 1 2.</_></rects>
      <tilted>0</tilted></_>
    <_>
      <rects>
        <_>
          1 0 6 1 -1.</_>
        <_>
          3 0 2 1 3.</_></rects>
      <tilted>0</tilted></_>
    <_>
      <rects>
        <_>
          1 0 5 4 -1.</_>
        <_>
          1 2 5 2 2.</_></rects>
      <tilted>0</tilted></_>
    <_>
      <rects>
        <_>
          1 4 8 2 -1.</_>
        <_>
          1 5 8 1 2.</_></rects>
      <tilted>0</tilted></_>
    <_>
      <rects>
        <_>
          1 5 2 9 -1.</_>
        <_>
          2 5 1 9 2.</_></rects>
      <tilted>0</tilted></_>
    <_>
      <rects>
        <_>
          1 22 1 2 -1.</_>
        <_>
          1 23 1 1 2.</_></rects>
      <tilted>0</tilted></_>
    <_>
      <rects>
        <_>
          1 22 6 2 -1.</_>
        <_>
          1 22 3 1 2.</_>
        <_>
          4 23 3 1 2.</_></rects>
      <tilted>0</tilted></_>
    <_>
      <rects>
        <_>
          1 22 10 2 -1.</_>
        <_>
          1 23 10 1 2.</_></rects>
      <tilted>0</tilted></_>
    <_>
      <rects>
        <_>
          2 0 10 4 -1.</_>
        <_>
          2 2 10 2 2.</_></rects>
      <tilted>0</tilted></_>
    <_>
      <rects>
        <_>
          2 4 9 6 -1.</_>
        <_>
          2 6 9 2 3.</_></rects>
      <tilted>0</tilted></_>
    <_>
      <rects>
        <_>
          2 10 2 4 -1.</_>
        <_>
          3 10 1 4 2.</_></rects>
      <tilted>0</tilted></_>
    <_>
      <rects>
        <_>
          3 0 8 1 -1.</_>
        <_>
          7 0 4 1 2.</_></rects>
      <tilted>0</tilted></_>
    <_>
      <rects>
        <_>
          3 0 9 2 -1.</_>
        <_>
          3 1 9 1 2.</_></rects>
      <tilted>0</tilted></_>
    <_>
      <rects>
        <_>
          3 1 8 14 -1.</_>
        <_>
          3 8 8 7 2.</_></rects>
      <tilted>0</tilted></_>
    <_>
      <rects>
        <_>
          3 3 7 9 -1.</_>
        <_>
          3 6 7 3 3.</_></rects>
      <tilted>0</tilted></_>
    <_>
      <rects>
        <_>
          4 0 4 2 -1.</_>
        <_>
          4 1 4 1 2.</_></rects>
      <tilted>0</tilted></_>
    <_>
      <rects>
        <_>
          4 0 6 2 -1.</_>
        <_>
          4 1 6 1 2.</_></rects>
      <tilted>0</tilted></_>
    <_>
      <rects>
        <_>
          4 2 3 1 -1.</_>
        <_>
          5 2 1 1 3.</_></rects>
      <tilted>0</tilted></_>
    <_>
      <rects>
        <_>
          4 2 3 2 -1.</_>
        <_>
          5 2 1 2 3.</_></rects>
      <tilted>0</tilted></_>
    <_>
      <rects>
        <_>
          5 0 1 2 -1.</_>
        <_>
          5 1 1 1 2.</_></rects>
      <tilted>0</tilted></_>
    <_>
      <rects>
        <_>
          5 0 2 2 -1.</_>
        <_>
          5 1 2 1 2.</_></rects>
      <tilted>0</tilted></_>
    <_>
      <rects>
        <_>
          5 0 7 2 -1.</_>
        <_>
          5 1 7 1 2.</_></rects>
      <tilted>0</tilted></_>
    <_>
      <rects>
        <_>
          6 0 2 3 -1.</_>
        <_>
          6 1 2 1 3.</_></rects>
      <tilted>0</tilted></_>
    <_>
      <rects>
        <_>
          6 1 6 12 -1.</_>
        <_>
          8 1 2 12 3.</_></rects>
      <tilted>0</tilted></_>
    <_>
      <rects>
        <_>
          6 2 1 2 -1.</_>
        <_>
          6 3 1 1 2.</_></rects>
      <tilted>0</tilted></_>
    <_>
      <rects>
        <_>
          6 2 2 2 -1.</_>
        <_>
          6 2 1 1 2.</_>
        <_>
          7 3 1 1 2.</_></rects>
      <tilted>0</tilted></_>
    <_>
      <rects>
        <_>
          6 3 4 1 -1.</_>
        <_>
          8 3 2 1 2.</_></rects>
      <tilted>0</tilted></_>
    <_>
      <rects>
        <_>
          7 2 1 2 -1.</_>
        <_>
          7 3 1 1 2.</_></rects>
      <tilted>0</tilted></_>
    <_>
      <rects>
        <_>
          7 3 3 1 -1.</_>
        <_>
          8 3 1 1 3.</_></rects>
      <tilted>0</tilted></_>
    <_>
      <rects>
        <_>
          7 3 4 20 -1.</_>
        <_>
          7 3 2 10 2.</_>
        <_>
          9 13 2 10 2.</_></rects>
      <tilted>0</tilted></_>
    <_>
      <rects>
        <_>
          7 13 4 10 -1.</_>
        <_>
          9 13 2 10 2.</_></rects>
      <tilted>0</tilted></_>
    <_>
      <rects>
        <_>
          7 21 5 3 -1.</_>
        <_>
          7 22 5 1 3.</_></rects>
      <tilted>0</tilted></_>
    <_>
      <rects>
        <_>
          7 22 5 2 -1.</_>
        <_>
          7 23 5 1 2.</_></rects>
      <tilted>0</tilted></_>
    <_>
      <rects>
        <_>
          8 0 4 9 -1.</_>
        <_>
          8 3 4 3 3.</_></rects>
      <tilted>0</tilted></_>
    <_>
      <rects>
        <_>
          8 3 2 1 -1.</_>
        <_>
          9 3 1 1 2.</_></rects>
      <tilted>0</tilted></_>
    <_>
      <rects>
        <_>
          9 0 2 4 -1.</_>
        <_>
          9 2 2 2 2.</_></rects>
      <tilted>0</tilted></_>
    <_>
      <rects>
        <_>
          9 2 3 5 -1.</_>
        <_>
          10 2 1 5 3.</_></rects>
      <tilted>0</tilted></_>
    <_>
      <rects>
        <_>
          9 3 3 8 -1.</_>
        <_>
          10 3 1 8 3.</_></rects>
      <tilted>0</tilted></_>
    <_>
      <rects>
        <_>
          9 4 2 1 -1.</_>
        <_>
          10 4 1 1 2.</_></rects>
      <tilted>0</tilted></_>
    <_>
      <rects>
        <_>
          10 1 2 14 -1.</_>
        <_>
          11 1 1 14 2.</_></rects>
      <tilted>0</tilted></_>
    <_>
      <rects>
        <_>
          10 1 2 21 -1.</_>
        <_>
          11 1 1 21 2.</_></rects>
      <tilted>0</tilted></_>
    <_>
      <rects>
        <_>
          10 4 1 14 -1.</_>
        <_>
          10 11 1 7 2.</_></rects>
      <tilted>0</tilted></_>
    <_>
      <rects>
        <_>
          10 8 2 4 -1.</_>
        <_>
          11 8 1 4 2.</_></rects>
      <tilted>0</tilted></_>
    <_>
      <rects>
        <_>
          10 8 2 14 -1.</_>
        <_>
          11 8 1 14 2.</_></rects>
      <tilted>0</tilted></_>
    <_>
      <rects>
        <_>
          10 14 2 10 -1.</_>
        <_>
          11 14 1 10 2.</_></rects>
      <tilted>0</tilted></_>
    <_>
      <rects>
        <_>
          10 17 2 1 -1.</_>
        <_>
          11 17 1 1 2.</_></rects>
      <tilted>0</tilted></_>
    <_>
      <rects>
        <_>
          10 21 2 3 -1.</_>
        <_>
          11 21 1 3 2.</_></rects>
      <tilted>0</tilted></_>
    <_>
      <rects>
        <_>
          11 22 1 2 -1.</_>
        <_>
          11 23 1 1 2.</_></rects>
      <tilted>0</tilted></_></features></cascade>
</opencv_storage>
