<?xml version="1.0"?>
<opencv_storage>
<cascade>
  <stageType>BOOST</stageType>
  <featureType>HAAR</featureType>
  <height>24</height>
  <width>12</width>
  <stageParams>
    <boostType>GAB</boostType>
    <minHitRate>9.9900001287460327e-01</minHitRate>
    <maxFalseAlarm>5.0000000000000000e-01</maxFalseAlarm>
    <weightTrimRate>9.4999999999999996e-01</weightTrimRate>
    <maxDepth>1</maxDepth>
    <maxWeakCount>100</maxWeakCount></stageParams>
  <featureParams>
    <maxCatCount>0</maxCatCount>
    <featSize>1</featSize>
    <mode>BASIC</mode></featureParams>
  <stageNum>9</stageNum>
  <stages>
    <!-- stage 0 -->
    <_>
      <maxWeakCount>1</maxWeakCount>
      <stageThreshold>9.9430197477340698e-01</stageThreshold>
      <weakClassifiers>
        <_>
          <internalNodes>
            0 -1 1 -5.5328243970870972e-01</internalNodes>
          <leafValues>
            9.9430197477340698e-01 -1.</leafValues></_></weakClassifiers></_>
    <!-- stage 1 -->
    <_>
      <maxWeakCount>3</maxWeakCount>
      <stageThreshold>-1.2734810113906860e+00</stageThreshold>
      <weakClassifiers>
        <_>
          <internalNodes>
            0 -1 3 -7.8727126121520996e-02</internalNodes>
          <leafValues>
            6.0199004411697388e-01 -9.5845699310302734e-01</leafValues></_>
        <_>
          <internalNodes>
            0 -1 11 -2.7732020616531372e-01</internalNodes>
          <leafValues>
            6.4394992589950562e-01 -9.5241677761077881e-01</leafValues></_>
        <_>
          <internalNodes>
            0 -1 21 -8.0092929303646088e-02</internalNodes>
          <leafValues>
            6.3739275932312012e-01 -9.1622912883758545e-01</leafValues></_></weakClassifiers></_>
    <!-- stage 2 -->
    <_>
      <maxWeakCount>3</maxWeakCount>
      <stageThreshold>-1.4764156341552734e+00</stageThreshold>
      <weakClassifiers>
        <_>
          <internalNodes>
            0 -1 16 2.4719756096601486e-02</internalNodes>
          <leafValues>
            -9.1291725635528564e-01 5.5913978815078735e-01</leafValues></_>
        <_>
          <internalNodes>
            0 -1 19 -6.6968739032745361e-02</internalNodes>
          <leafValues>
            6.1822766065597534e-01 -8.9992731809616089e-01</leafValues></_>
        <_>
          <internalNodes>
            0 -1 5 -1.1359722167253494e-01</internalNodes>
          <leafValues>
            3.3642891049385071e-01 -9.6907377243041992e-01</leafValues></_></weakClassifiers></_>
    <!-- stage 3 -->
    <_>
      <maxWeakCount>3</maxWeakCount>
      <stageThreshold>-1.5519163608551025e+00</stageThreshold>
      <weakClassifiers>
        <_>
          <internalNodes>
            0 -1 18 -1.0792814195156097e-01</internalNodes>
          <leafValues>
            3.8034188747406006e-01 -9.5787829160690308e-01</leafValues></_>
        <_>
          <internalNodes>
            0 -1 8 1.4640300534665585e-02</internalNodes>
          <leafValues>
            -9.4119924306869507e-01 4.2228415608406067e-01</leafValues></_>
        <_>
          <internalNodes>
            0 -1 17 -7.4009075760841370e-02</internalNodes>
          <leafValues>
            3.4716117382049561e-01 -9.4032347202301025e-01</leafValues></_></weakClassifiers></_>
    <!-- stage 4 -->
    <_>
      <maxWeakCount>3</maxWeakCount>
      <stageThreshold>-1.4562273025512695e+00</stageThreshold>
      <weakClassifiers>
        <_>
          <internalNodes>
            0 -1 1 -7.9847037792205811e-01</internalNodes>
          <leafValues>
            3.1651374697685242e-01 -9.0410959720611572e-01</leafValues></_>
        <_>
          <internalNodes>
            0 -1 7 -5.2061215043067932e-02</internalNodes>
          <leafValues>
            3.5180291533470154e-01 -9.1560339927673340e-01</leafValues></_>
        <_>
          <internalNodes>
            0 -1 24 5.4402470588684082e-02</internalNodes>
          <leafValues>
            -9.0392059087753296e-01 5.3996193408966064e-01</leafValues></_></weakClassifiers></_>
    <!-- stage 5 -->
    <_>
      <maxWeakCount>3</maxWeakCount>
      <stageThreshold>-1.4461576938629150e+00</stageThreshold>
      <weakClassifiers>
        <_>
          <internalNodes>
            0 -1 13 -2.7847194671630859e-01</internalNodes>
          <leafValues>
            5.2820515632629395e-01 -9.2352938652038574e-01</leafValues></_>
        <_>
          <internalNodes>
            0 -1 6 -4.8536501824855804e-02</internalNodes>
          <leafValues>
            3.1648910045623779e-01 -8.7691640853881836e-01</leafValues></_>
        <_>
          <internalNodes>
            0 -1 2 -6.0118532180786133e-01</internalNodes>
          <leafValues>
            3.5428810119628906e-01 -8.9962595701217651e-01</leafValues></_></weakClassifiers></_>
    <!-- stage 6 -->
    <_>
      <maxWeakCount>5</maxWeakCount>
      <stageThreshold>-1.7468250989913940e+00</stageThreshold>
      <weakClassifiers>
        <_>
          <internalNodes>
            0 -1 14 4.2640533298254013e-02</internalNodes>
          <leafValues>
            -8.0645161867141724e-01 4.2662116885185242e-01</leafValues></_>
        <_>
          <internalNodes>
            0 -1 12 -3.2358020544052124e-01</internalNodes>
          <leafValues>
            2.9069563746452332e-01 -8.7364196777343750e-01</leafValues></_>
        <_>
          <internalNodes>
            0 -1 20 -9.2596048489212990e-03</internalNodes>
          <leafValues>
            3.8548299670219421e-01 -7.8230506181716919e-01</leafValues></_>
        <_>
          <internalNodes>
            0 -1 22 3.3536832779645920e-03</internalNodes>
          <leafValues>
            4.1713604331016541e-01 -7.9255294799804688e-01</leafValues></_>
        <_>
          <internalNodes>
            0 -1 0 -2.8497463790699840e-04</internalNodes>
          <leafValues>
            3.4033849835395813e-01 -9.6552240848541260e-01</leafValues></_></weakClassifiers></_>
    <!-- stage 7 -->
    <_>
      <maxWeakCount>2</maxWeakCount>
      <stageThreshold>-9.7426456212997437e-01</stageThreshold>
      <weakClassifiers>
        <_>
          <internalNodes>
            0 -1 6 -4.8519559204578400e-02</internalNodes>
          <leafValues>
            -6.8413391709327698e-02 -9.4355595111846924e-01</leafValues></_>
        <_>
          <internalNodes>
            0 -1 9 -2.3906975984573364e-01</internalNodes>
          <leafValues>
            2.3206809163093567e-01 -9.0585118532180786e-01</leafValues></_></weakClassifiers></_>
    <!-- stage 8 -->
    <_>
      <maxWeakCount>5</maxWeakCount>
      <stageThreshold>-1.9034690856933594e+00</stageThreshold>
      <weakClassifiers>
        <_>
          <internalNodes>
            0 -1 15 -7.0598065853118896e-02</internalNodes>
          <leafValues>
            3.4351146221160889e-01 -7.6612901687622070e-01</leafValues></_>
        <_>
          <internalNodes>
            0 -1 23 8.5624307394027710e-03</internalNodes>
          <leafValues>
            -9.5176142454147339e-01 2.4259506165981293e-01</leafValues></_>
        <_>
          <internalNodes>
            0 -1 10 -8.9657977223396301e-02</internalNodes>
          <leafValues>
            3.1828260421752930e-01 -8.7813258171081543e-01</leafValues></_>
        <_>
          <internalNodes>
            0 -1 4 -1.4175511896610260e-02</internalNodes>
          <leafValues>
            3.8946247100830078e-01 -8.5545086860656738e-01</leafValues></_>
        <_>
          <internalNodes>
            0 -1 21 -7.1359410881996155e-02</internalNodes>
          <leafValues>
            3.5364839434623718e-01 -9.1718631982803345e-01</leafValues></_></weakClassifiers></_></stages>
  <features>
    <_>
      <rects>
        <_>
          0 0 1 3 -1.</_>
        <_>
          0 1 1 1 3.</_></rects>
      <tilted>0</tilted></_>
    <_>
      <rects>
        <_>
          0 3 12 20 -1.</_>
        <_>
          4 3 4 20 3.</_></rects>
      <tilted>0</tilted></_>
    <_>
      <rects>
        <_>
          0 4 12 16 -1.</_>
        <_>
          4 4 4 16 3.</_></rects>
      <tilted>0</tilted></_>
    <_>
      <rects>
        <_>
          0 10 6 7 -1.</_>
        <_>
          2 10 2 7 3.</_></rects>
      <tilted>0</tilted></_>
    <_>
      <rects>
        <_>
          0 13 4 1 -1.</_>
        <_>
          2 13 2 1 2.</_></rects>
      <tilted>0</tilted></_>
    <_>
      <rects>
        <_>
          1 5 10 15 -1.</_>
        <_>
          1 10 10 5 3.</_></rects>
      <tilted>0</tilted></_>
    <_>
      <rects>
        <_>
          1 6 4 12 -1.</_>
        <_>
          1 10 4 4 3.</_></rects>
      <tilted>0</tilted></_>
    <_>
      <rects>
        <_>
          1 7 2 16 -1.</_>
        <_>
          2 7 1 16 2.</_></rects>
      <tilted>0</tilted></_>
    <_>
      <rects>
        <_>
          1 22 8 2 -1.</_>
        <_>
          1 23 8 1 2.</_></rects>
      <tilted>0</tilted></_>
    <_>
      <rects>
        <_>
          2 0 7 14 -1.</_>
        <_>
          2 7 7 7 2.</_></rects>
      <tilted>0</tilted></_>
    <_>
      <rects>
        <_>
          2 0 8 6 -1.</_>
        <_>
          2 3 8 3 2.</_></rects>
      <tilted>0</tilted></_>
    <_>
      <rects>
        <_>
          2 0 8 14 -1.</_>
        <_>
          2 7 8 7 2.</_></rects>
      <tilted>0</tilted></_>
    <_>
      <rects>
        <_>
          2 0 9 16 -1.</_>
        <_>
          2 8 9 8 2.</_></rects>
      <tilted>0</tilted></_>
    <_>
      <rects>
        <_>
          2 1 9 14 -1.</_>
        <_>
          2 8 9 7 2.</_></rects>
      <tilted>0</tilted></_>
    <_>
      <rects>
        <_>
          2 3 4 12 -1.</_>
        <_>
          2 3 2 6 2.</_>
        <_>
          4 9 2 6 2.</_></rects>
      <tilted>0</tilted></_>
    <_>
      <rects>
        <_>
          2 3 9 2 -1.</_>
        <_>
          5 3 3 2 3.</_></rects>
      <tilted>0</tilted></_>
    <_>
      <rects>
        <_>
          2 22 10 2 -1.</_>
        <_>
          2 23 10 1 2.</_></rects>
      <tilted>0</tilted></_>
    <_>
      <rects>
        <_>
          3 0 7 6 -1.</_>
        <_>
          3 3 7 3 2.</_></rects>
      <tilted>0</tilted></_>
    <_>
      <rects>
        <_>
          4 0 5 8 -1.</_>
        <_>
          4 4 5 4 2.</_></rects>
      <tilted>0</tilted></_>
    <_>
      <rects>
        <_>
          5 0 4 6 -1.</_>
        <_>
          5 3 4 3 2.</_></rects>
      <tilted>0</tilted></_>
    <_>
      <rects>
        <_>
          5 21 7 3 -1.</_>
        <_>
          5 22 7 1 3.</_></rects>
      <tilted>0</tilted></_>
    <_>
      <rects>
        <_>
          6 8 6 10 -1.</_>
        <_>
          8 8 2 10 3.</_></rects>
      <tilted>0</tilted></_>
    <_>
      <rects>
        <_>
          6 10 4 3 -1.</_>
        <_>
          8 10 2 3 2.</_></rects>
      <tilted>0</tilted></_>
    <_>
      <rects>
        <_>
          6 22 6 2 -1.</_>
        <_>
          6 23 6 1 2.</_></rects>
      <tilted>0</tilted></_>
    <_>
      <rects>
        <_>
          10 5 2 18 -1.</_>
        <_>
          11 5 1 18 2.</_></rects>
      <tilted>0</tilted></_></features></cascade>
</opencv_storage>
