<?xml version="1.0"?>
<opencv_storage>
<cascade>
  <stageType>BOOST</stageType>
  <featureType>HAAR</featureType>
  <height>24</height>
  <width>12</width>
  <stageParams>
    <boostType>GAB</boostType>
    <minHitRate>9.9900001287460327e-01</minHitRate>
    <maxFalseAlarm>5.5000001192092896e-01</maxFalseAlarm>
    <weightTrimRate>9.4999999999999996e-01</weightTrimRate>
    <maxDepth>1</maxDepth>
    <maxWeakCount>100</maxWeakCount></stageParams>
  <featureParams>
    <maxCatCount>0</maxCatCount>
    <featSize>1</featSize>
    <mode>BASIC</mode></featureParams>
  <stageNum>10</stageNum>
  <stages>
    <!-- stage 0 -->
    <_>
      <maxWeakCount>2</maxWeakCount>
      <stageThreshold>-3.2470765709877014e-01</stageThreshold>
      <weakClassifiers>
        <_>
          <internalNodes>
            0 -1 10 -1.1800527572631836e-01</internalNodes>
          <leafValues>
            6.5952378511428833e-01 -9.7103822231292725e-01</leafValues></_>
        <_>
          <internalNodes>
            0 -1 39 4.7015685588121414e-02</internalNodes>
          <leafValues>
            -9.8423147201538086e-01 7.1580642461776733e-01</leafValues></_></weakClassifiers></_>
    <!-- stage 1 -->
    <_>
      <maxWeakCount>3</maxWeakCount>
      <stageThreshold>-1.3159203529357910e+00</stageThreshold>
      <weakClassifiers>
        <_>
          <internalNodes>
            0 -1 29 -6.3265763223171234e-02</internalNodes>
          <leafValues>
            5.7024794816970825e-01 -9.5346289873123169e-01</leafValues></_>
        <_>
          <internalNodes>
            0 -1 25 1.1664768680930138e-02</internalNodes>
          <leafValues>
            -9.6289998292922974e-01 4.5073798298835754e-01</leafValues></_>
        <_>
          <internalNodes>
            0 -1 27 -1.9396272301673889e-01</internalNodes>
          <leafValues>
            6.3559705018997192e-01 -8.1319540739059448e-01</leafValues></_></weakClassifiers></_>
    <!-- stage 2 -->
    <_>
      <maxWeakCount>5</maxWeakCount>
      <stageThreshold>-2.1067163944244385e+00</stageThreshold>
      <weakClassifiers>
        <_>
          <internalNodes>
            0 -1 26 -7.6596990227699280e-02</internalNodes>
          <leafValues>
            2.3891891539096832e-01 -9.0097904205322266e-01</leafValues></_>
        <_>
          <internalNodes>
            0 -1 11 -1.4481103420257568e-01</internalNodes>
          <leafValues>
            3.5782852768898010e-01 -9.5994871854782104e-01</leafValues></_>
        <_>
          <internalNodes>
            0 -1 33 1.3170270249247551e-02</internalNodes>
          <leafValues>
            -9.5077109336853027e-01 3.0760109424591064e-01</leafValues></_>
        <_>
          <internalNodes>
            0 -1 18 -1.6258350014686584e-01</internalNodes>
          <leafValues>
            3.3957028388977051e-01 -8.7357562780380249e-01</leafValues></_>
        <_>
          <internalNodes>
            0 -1 40 1.6228370368480682e-02</internalNodes>
          <leafValues>
            -8.1971198320388794e-01 3.8951990008354187e-01</leafValues></_></weakClassifiers></_>
    <!-- stage 3 -->
    <_>
      <maxWeakCount>5</maxWeakCount>
      <stageThreshold>-1.8748908042907715e+00</stageThreshold>
      <weakClassifiers>
        <_>
          <internalNodes>
            0 -1 7 -1.7249779403209686e-01</internalNodes>
          <leafValues>
            4.7892719507217407e-01 -9.0799033641815186e-01</leafValues></_>
        <_>
          <internalNodes>
            0 -1 20 -5.8146178722381592e-02</internalNodes>
          <leafValues>
            3.4150943160057068e-01 -8.8693875074386597e-01</leafValues></_>
        <_>
          <internalNodes>
            0 -1 12 -2.9840534925460815e-01</internalNodes>
          <leafValues>
            5.1633578538894653e-01 -7.6444393396377563e-01</leafValues></_>
        <_>
          <internalNodes>
            0 -1 14 6.8127521080896258e-04</internalNodes>
          <leafValues>
            -9.1623359918594360e-01 3.9521685242652893e-01</leafValues></_>
        <_>
          <internalNodes>
            0 -1 43 2.2213757620193064e-04</internalNodes>
          <leafValues>
            -9.7430938482284546e-01 3.7226763367652893e-01</leafValues></_></weakClassifiers></_>
    <!-- stage 4 -->
    <_>
      <maxWeakCount>4</maxWeakCount>
      <stageThreshold>-2.3624625205993652e+00</stageThreshold>
      <weakClassifiers>
        <_>
          <internalNodes>
            0 -1 8 -2.6109167933464050e-01</internalNodes>
          <leafValues>
            3.6591479182243347e-01 -8.8924902677536011e-01</leafValues></_>
        <_>
          <internalNodes>
            0 -1 17 -3.9531074464321136e-02</internalNodes>
          <leafValues>
            2.4223057925701141e-01 -8.6420130729675293e-01</leafValues></_>
        <_>
          <internalNodes>
            0 -1 0 -1.1436355998739600e-04</internalNodes>
          <leafValues>
            2.9427945613861084e-01 -9.6913921833038330e-01</leafValues></_>
        <_>
          <internalNodes>
            0 -1 6 -1.6751453280448914e-01</internalNodes>
          <leafValues>
            3.2459548115730286e-01 -9.0329164266586304e-01</leafValues></_></weakClassifiers></_>
    <!-- stage 5 -->
    <_>
      <maxWeakCount>4</maxWeakCount>
      <stageThreshold>-2.4329483509063721e+00</stageThreshold>
      <weakClassifiers>
        <_>
          <internalNodes>
            0 -1 38 9.3213796615600586e-02</internalNodes>
          <leafValues>
            -8.6886113882064819e-01 3.7244200706481934e-01</leafValues></_>
        <_>
          <internalNodes>
            0 -1 21 -3.3868655009428039e-05</internalNodes>
          <leafValues>
            1.8689966201782227e-01 -9.6090644598007202e-01</leafValues></_>
        <_>
          <internalNodes>
            0 -1 3 -4.3429203331470490e-02</internalNodes>
          <leafValues>
            3.2595655322074890e-01 -8.7723940610885620e-01</leafValues></_>
        <_>
          <internalNodes>
            0 -1 42 1.2905123003292829e-04</internalNodes>
          <leafValues>
            -9.8518019914627075e-01 2.7405872941017151e-01</leafValues></_></weakClassifiers></_>
    <!-- stage 6 -->
    <_>
      <maxWeakCount>5</maxWeakCount>
      <stageThreshold>-1.9104548692703247e+00</stageThreshold>
      <weakClassifiers>
        <_>
          <internalNodes>
            0 -1 23 -3.7960156798362732e-02</internalNodes>
          <leafValues>
            7.4396133422851563e-02 -8.8802307844161987e-01</leafValues></_>
        <_>
          <internalNodes>
            0 -1 36 5.9852637350559235e-02</internalNodes>
          <leafValues>
            -7.4584388732910156e-01 3.6072301864624023e-01</leafValues></_>
        <_>
          <internalNodes>
            0 -1 9 -1.5933367609977722e-01</internalNodes>
          <leafValues>
            3.4717530012130737e-01 -8.6531287431716919e-01</leafValues></_>
        <_>
          <internalNodes>
            0 -1 15 -3.5937591746915132e-05</internalNodes>
          <leafValues>
            2.6161527633666992e-01 -8.7519055604934692e-01</leafValues></_>
        <_>
          <internalNodes>
            0 -1 15 -1.6270973719656467e-03</internalNodes>
          <leafValues>
            -8.8537842035293579e-01 3.7643188238143921e-01</leafValues></_></weakClassifiers></_>
    <!-- stage 7 -->
    <_>
      <maxWeakCount>7</maxWeakCount>
      <stageThreshold>-2.3784294128417969e+00</stageThreshold>
      <weakClassifiers>
        <_>
          <internalNodes>
            0 -1 31 -8.3520144224166870e-02</internalNodes>
          <leafValues>
            2.3563218116760254e-01 -8.3175605535507202e-01</leafValues></_>
        <_>
          <internalNodes>
            0 -1 35 4.6189635992050171e-02</internalNodes>
          <leafValues>
            -9.3505948781967163e-01 2.2004611790180206e-01</leafValues></_>
        <_>
          <internalNodes>
            0 -1 22 -2.4910811334848404e-02</internalNodes>
          <leafValues>
            4.1936203837394714e-01 -6.5534615516662598e-01</leafValues></_>
        <_>
          <internalNodes>
            0 -1 2 -1.6195459757000208e-03</internalNodes>
          <leafValues>
            3.2209873199462891e-01 -8.9621597528457642e-01</leafValues></_>
        <_>
          <internalNodes>
            0 -1 30 1.1030849069356918e-02</internalNodes>
          <leafValues>
            -9.2064714431762695e-01 2.8839161992073059e-01</leafValues></_>
        <_>
          <internalNodes>
            0 -1 28 -2.2435960173606873e-01</internalNodes>
          <leafValues>
            4.7971975803375244e-01 -7.2730302810668945e-01</leafValues></_>
        <_>
          <internalNodes>
            0 -1 15 -3.5937591746915132e-05</internalNodes>
          <leafValues>
            3.0415153503417969e-01 -8.4705942869186401e-01</leafValues></_></weakClassifiers></_>
    <!-- stage 8 -->
    <_>
      <maxWeakCount>7</maxWeakCount>
      <stageThreshold>-2.1998419761657715e+00</stageThreshold>
      <weakClassifiers>
        <_>
          <internalNodes>
            0 -1 37 1.0505042970180511e-01</internalNodes>
          <leafValues>
            -8.2692795991897583e-01 4.3607705831527710e-01</leafValues></_>
        <_>
          <internalNodes>
            0 -1 34 -4.9049124121665955e-02</internalNodes>
          <leafValues>
            4.6278953552246094e-01 -6.8965601921081543e-01</leafValues></_>
        <_>
          <internalNodes>
            0 -1 16 -3.2921372621785849e-05</internalNodes>
          <leafValues>
            3.4215417504310608e-01 -7.7242612838745117e-01</leafValues></_>
        <_>
          <internalNodes>
            0 -1 5 -7.3355663334950805e-04</internalNodes>
          <leafValues>
            -8.6250251531600952e-01 3.0868041515350342e-01</leafValues></_>
        <_>
          <internalNodes>
            0 -1 1 1.1470662429928780e-03</internalNodes>
          <leafValues>
            2.8240913152694702e-01 -8.5576170682907104e-01</leafValues></_>
        <_>
          <internalNodes>
            0 -1 13 -1.0912623256444931e-02</internalNodes>
          <leafValues>
            3.0116158723831177e-01 -7.8239148855209351e-01</leafValues></_>
        <_>
          <internalNodes>
            0 -1 19 -3.0182808637619019e-01</internalNodes>
          <leafValues>
            3.3508786559104919e-01 -7.5137156248092651e-01</leafValues></_></weakClassifiers></_>
    <!-- stage 9 -->
    <_>
      <maxWeakCount>6</maxWeakCount>
      <stageThreshold>-2.0589830875396729e+00</stageThreshold>
      <weakClassifiers>
        <_>
          <internalNodes>
            0 -1 41 3.2413979060947895e-03</internalNodes>
          <leafValues>
            -9.3660712242126465e-01 -3.9911505579948425e-01</leafValues></_>
        <_>
          <internalNodes>
            0 -1 24 -4.9374597147107124e-03</internalNodes>
          <leafValues>
            1.1027987301349640e-01 -9.2013919353485107e-01</leafValues></_>
        <_>
          <internalNodes>
            0 -1 4 -9.3638186808675528e-04</internalNodes>
          <leafValues>
            2.5759148597717285e-01 -7.6199001073837280e-01</leafValues></_>
        <_>
          <internalNodes>
            0 -1 33 1.3619731180369854e-02</internalNodes>
          <leafValues>
            -9.0699154138565063e-01 2.7044624090194702e-01</leafValues></_>
        <_>
          <internalNodes>
            0 -1 32 -4.0328949689865112e-02</internalNodes>
          <leafValues>
            2.5922635197639465e-01 -8.3224332332611084e-01</leafValues></_>
        <_>
          <internalNodes>
            0 -1 14 7.7432673424482346e-04</internalNodes>
          <leafValues>
            -8.0782341957092285e-01 2.4898768961429596e-01</leafValues></_></weakClassifiers></_></stages>
  <features>
    <_>
      <rects>
        <_>
          0 0 1 3 -1.</_>
        <_>
          0 1 1 1 3.</_></rects>
      <tilted>0</tilted></_>
    <_>
      <rects>
        <_>
          0 0 1 6 -1.</_>
        <_>
          0 3 1 3 2.</_></rects>
      <tilted>0</tilted></_>
    <_>
      <rects>
        <_>
          0 0 2 4 -1.</_>
        <_>
          0 2 2 2 2.</_></rects>
      <tilted>0</tilted></_>
    <_>
      <rects>
        <_>
          0 0 10 4 -1.</_>
        <_>
          0 2 10 2 2.</_></rects>
      <tilted>0</tilted></_>
    <_>
      <rects>
        <_>
          0 1 2 2 -1.</_>
        <_>
          0 1 1 1 2.</_>
        <_>
          1 2 1 1 2.</_></rects>
      <tilted>0</tilted></_>
    <_>
      <rects>
        <_>
          0 1 1 4 -1.</_>
        <_>
          0 3 1 2 2.</_></rects>
      <tilted>0</tilted></_>
    <_>
      <rects>
        <_>
          0 1 4 23 -1.</_>
        <_>
          2 1 2 23 2.</_></rects>
      <tilted>0</tilted></_>
    <_>
      <rects>
        <_>
          0 3 4 12 -1.</_>
        <_>
          2 3 2 12 2.</_></rects>
      <tilted>0</tilted></_>
    <_>
      <rects>
        <_>
          0 3 4 18 -1.</_>
        <_>
          2 3 2 18 2.</_></rects>
      <tilted>0</tilted></_>
    <_>
      <rects>
        <_>
          0 4 4 20 -1.</_>
        <_>
          2 4 2 20 2.</_></rects>
      <tilted>0</tilted></_>
    <_>
      <rects>
        <_>
          0 7 4 10 -1.</_>
        <_>
          2 7 2 10 2.</_></rects>
      <tilted>0</tilted></_>
    <_>
      <rects>
        <_>
          0 11 6 12 -1.</_>
        <_>
          3 11 3 12 2.</_></rects>
      <tilted>0</tilted></_>
    <_>
      <rects>
        <_>
          0 12 12 11 -1.</_>
        <_>
          4 12 4 11 3.</_></rects>
      <tilted>0</tilted></_>
    <_>
      <rects>
        <_>
          0 21 12 3 -1.</_>
        <_>
          0 22 12 1 3.</_></rects>
      <tilted>0</tilted></_>
    <_>
      <rects>
        <_>
          0 22 2 2 -1.</_>
        <_>
          0 22 1 1 2.</_>
        <_>
          1 23 1 1 2.</_></rects>
      <tilted>0</tilted></_>
    <_>
      <rects>
        <_>
          1 0 3 1 -1.</_>
        <_>
          2 0 1 1 3.</_></rects>
      <tilted>0</tilted></_>
    <_>
      <rects>
        <_>
          1 0 2 2 -1.</_>
        <_>
          1 0 1 1 2.</_>
        <_>
          2 1 1 1 2.</_></rects>
      <tilted>0</tilted></_>
    <_>
      <rects>
        <_>
          1 0 7 4 -1.</_>
        <_>
          1 2 7 2 2.</_></rects>
      <tilted>0</tilted></_>
    <_>
      <rects>
        <_>
          1 0 9 14 -1.</_>
        <_>
          1 7 9 7 2.</_></rects>
      <tilted>0</tilted></_>
    <_>
      <rects>
        <_>
          1 0 10 24 -1.</_>
        <_>
          1 8 10 8 3.</_></rects>
      <tilted>0</tilted></_>
    <_>
      <rects>
        <_>
          1 0 11 4 -1.</_>
        <_>
          1 2 11 2 2.</_></rects>
      <tilted>0</tilted></_>
    <_>
      <rects>
        <_>
          1 1 2 1 -1.</_>
        <_>
          2 1 1 1 2.</_></rects>
      <tilted>0</tilted></_>
    <_>
      <rects>
        <_>
          1 4 3 9 -1.</_>
        <_>
          2 4 1 9 3.</_></rects>
      <tilted>0</tilted></_>
    <_>
      <rects>
        <_>
          1 4 3 11 -1.</_>
        <_>
          2 4 1 11 3.</_></rects>
      <tilted>0</tilted></_>
    <_>
      <rects>
        <_>
          1 19 2 5 -1.</_>
        <_>
          2 19 1 5 2.</_></rects>
      <tilted>0</tilted></_>
    <_>
      <rects>
        <_>
          1 22 8 2 -1.</_>
        <_>
          1 23 8 1 2.</_></rects>
      <tilted>0</tilted></_>
    <_>
      <rects>
        <_>
          2 0 8 4 -1.</_>
        <_>
          2 2 8 2 2.</_></rects>
      <tilted>0</tilted></_>
    <_>
      <rects>
        <_>
          2 0 8 12 -1.</_>
        <_>
          2 6 8 6 2.</_></rects>
      <tilted>0</tilted></_>
    <_>
      <rects>
        <_>
          2 0 9 14 -1.</_>
        <_>
          2 7 9 7 2.</_></rects>
      <tilted>0</tilted></_>
    <_>
      <rects>
        <_>
          2 0 10 4 -1.</_>
        <_>
          2 2 10 2 2.</_></rects>
      <tilted>0</tilted></_>
    <_>
      <rects>
        <_>
          2 22 8 2 -1.</_>
        <_>
          2 23 8 1 2.</_></rects>
      <tilted>0</tilted></_>
    <_>
      <rects>
        <_>
          3 0 6 4 -1.</_>
        <_>
          3 2 6 2 2.</_></rects>
      <tilted>0</tilted></_>
    <_>
      <rects>
        <_>
          3 0 8 4 -1.</_>
        <_>
          3 2 8 2 2.</_></rects>
      <tilted>0</tilted></_>
    <_>
      <rects>
        <_>
          3 22 9 2 -1.</_>
        <_>
          3 23 9 1 2.</_></rects>
      <tilted>0</tilted></_>
    <_>
      <rects>
        <_>
          4 0 5 4 -1.</_>
        <_>
          4 2 5 2 2.</_></rects>
      <tilted>0</tilted></_>
    <_>
      <rects>
        <_>
          10 1 2 20 -1.</_>
        <_>
          11 1 1 20 2.</_></rects>
      <tilted>0</tilted></_>
    <_>
      <rects>
        <_>
          10 3 2 16 -1.</_>
        <_>
          11 3 1 16 2.</_></rects>
      <tilted>0</tilted></_>
    <_>
      <rects>
        <_>
          10 3 2 18 -1.</_>
        <_>
          11 3 1 18 2.</_></rects>
      <tilted>0</tilted></_>
    <_>
      <rects>
        <_>
          10 3 2 20 -1.</_>
        <_>
          11 3 1 20 2.</_></rects>
      <tilted>0</tilted></_>
    <_>
      <rects>
        <_>
          10 4 2 19 -1.</_>
        <_>
          11 4 1 19 2.</_></rects>
      <tilted>0</tilted></_>
    <_>
      <rects>
        <_>
          10 8 2 6 -1.</_>
        <_>
          11 8 1 6 2.</_></rects>
      <tilted>0</tilted></_>
    <_>
      <rects>
        <_>
          10 12 2 1 -1.</_>
        <_>
          11 12 1 1 2.</_></rects>
      <tilted>0</tilted></_>
    <_>
      <rects>
        <_>
          10 22 2 1 -1.</_>
        <_>
          11 22 1 1 2.</_></rects>
      <tilted>0</tilted></_>
    <_>
      <rects>
        <_>
          11 22 1 2 -1.</_>
        <_>
          11 23 1 1 2.</_></rects>
      <tilted>0</tilted></_></features></cascade>
</opencv_storage>
