<?xml version="1.0"?>
<opencv_storage>
<cascade>
  <stageType>BOOST</stageType>
  <featureType>HAAR</featureType>
  <height>24</height>
  <width>12</width>
  <stageParams>
    <boostType>GAB</boostType>
    <minHitRate>9.9900001287460327e-01</minHitRate>
    <maxFalseAlarm>5.5000001192092896e-01</maxFalseAlarm>
    <weightTrimRate>9.4999999999999996e-01</weightTrimRate>
    <maxDepth>1</maxDepth>
    <maxWeakCount>100</maxWeakCount></stageParams>
  <featureParams>
    <maxCatCount>0</maxCatCount>
    <featSize>1</featSize>
    <mode>BASIC</mode></featureParams>
  <stageNum>12</stageNum>
  <stages>
    <!-- stage 0 -->
    <_>
      <maxWeakCount>3</maxWeakCount>
      <stageThreshold>-1.2629640102386475e+00</stageThreshold>
      <weakClassifiers>
        <_>
          <internalNodes>
            0 -1 14 -1.0638646036386490e-01</internalNodes>
          <leafValues>
            8.4116691350936890e-01 -9.7854506969451904e-01</leafValues></_>
        <_>
          <internalNodes>
            0 -1 44 3.8610808551311493e-02</internalNodes>
          <leafValues>
            -9.2673373222351074e-01 7.3678922653198242e-01</leafValues></_>
        <_>
          <internalNodes>
            0 -1 16 -9.4447754323482513e-02</internalNodes>
          <leafValues>
            6.4231485128402710e-01 -9.9404680728912354e-01</leafValues></_></weakClassifiers></_>
    <!-- stage 1 -->
    <_>
      <maxWeakCount>4</maxWeakCount>
      <stageThreshold>-1.9969627857208252e+00</stageThreshold>
      <weakClassifiers>
        <_>
          <internalNodes>
            0 -1 8 -1.5238931775093079e-01</internalNodes>
          <leafValues>
            4.9428570270538330e-01 -9.4689655303955078e-01</leafValues></_>
        <_>
          <internalNodes>
            0 -1 33 1.6696780920028687e-02</internalNodes>
          <leafValues>
            -9.4817024469375610e-01 4.5959973335266113e-01</leafValues></_>
        <_>
          <internalNodes>
            0 -1 28 -4.2327955365180969e-01</internalNodes>
          <leafValues>
            6.4063018560409546e-01 -7.3580366373062134e-01</leafValues></_>
        <_>
          <internalNodes>
            0 -1 2 -1.1252306401729584e-02</internalNodes>
          <leafValues>
            6.3390761613845825e-01 -7.3768162727355957e-01</leafValues></_></weakClassifiers></_>
    <!-- stage 2 -->
    <_>
      <maxWeakCount>5</maxWeakCount>
      <stageThreshold>-3.0170731544494629e+00</stageThreshold>
      <weakClassifiers>
        <_>
          <internalNodes>
            0 -1 13 -1.6218629479408264e-01</internalNodes>
          <leafValues>
            3.4870317578315735e-01 -9.0915346145629883e-01</leafValues></_>
        <_>
          <internalNodes>
            0 -1 41 5.6850854307413101e-02</internalNodes>
          <leafValues>
            -9.2301172018051147e-01 3.6106374859809875e-01</leafValues></_>
        <_>
          <internalNodes>
            0 -1 37 -8.6982175707817078e-03</internalNodes>
          <leafValues>
            3.1453052163124084e-01 -8.9233934879302979e-01</leafValues></_>
        <_>
          <internalNodes>
            0 -1 9 -3.4724738448858261e-02</internalNodes>
          <leafValues>
            5.8212572336196899e-01 -7.3609817028045654e-01</leafValues></_>
        <_>
          <internalNodes>
            0 -1 4 -3.0148798227310181e-01</internalNodes>
          <leafValues>
            4.4352966547012329e-01 -9.5086801052093506e-01</leafValues></_></weakClassifiers></_>
    <!-- stage 3 -->
    <_>
      <maxWeakCount>4</maxWeakCount>
      <stageThreshold>-2.1461305618286133e+00</stageThreshold>
      <weakClassifiers>
        <_>
          <internalNodes>
            0 -1 11 -1.1048069596290588e-01</internalNodes>
          <leafValues>
            2.6620689034461975e-01 -9.0191304683685303e-01</leafValues></_>
        <_>
          <internalNodes>
            0 -1 46 2.0554656162858009e-02</internalNodes>
          <leafValues>
            -8.6051708459854126e-01 4.9167174100875854e-01</leafValues></_>
        <_>
          <internalNodes>
            0 -1 26 1.8335066735744476e-02</internalNodes>
          <leafValues>
            -8.5689926147460938e-01 4.0186101198196411e-01</leafValues></_>
        <_>
          <internalNodes>
            0 -1 10 -3.9096526801586151e-02</internalNodes>
          <leafValues>
            5.4283678531646729e-01 -7.8556150197982788e-01</leafValues></_></weakClassifiers></_>
    <!-- stage 4 -->
    <_>
      <maxWeakCount>3</maxWeakCount>
      <stageThreshold>-1.4545482397079468e+00</stageThreshold>
      <weakClassifiers>
        <_>
          <internalNodes>
            0 -1 28 -4.6134960651397705e-01</internalNodes>
          <leafValues>
            1.8620689213275909e-01 -8.8173913955688477e-01</leafValues></_>
        <_>
          <internalNodes>
            0 -1 1 -7.8093305230140686e-02</internalNodes>
          <leafValues>
            3.6213937401771545e-01 -8.7173032760620117e-01</leafValues></_>
        <_>
          <internalNodes>
            0 -1 0 -3.9329135324805975e-04</internalNodes>
          <leafValues>
            2.9892128705978394e-01 -9.9018990993499756e-01</leafValues></_></weakClassifiers></_>
    <!-- stage 5 -->
    <_>
      <maxWeakCount>5</maxWeakCount>
      <stageThreshold>-2.0396091938018799e+00</stageThreshold>
      <weakClassifiers>
        <_>
          <internalNodes>
            0 -1 28 -4.6409922838211060e-01</internalNodes>
          <leafValues>
            1.3978494703769684e-01 -8.7675070762634277e-01</leafValues></_>
        <_>
          <internalNodes>
            0 -1 6 -9.1025382280349731e-02</internalNodes>
          <leafValues>
            3.3237850666046143e-01 -8.5639482736587524e-01</leafValues></_>
        <_>
          <internalNodes>
            0 -1 39 8.4949070587754250e-03</internalNodes>
          <leafValues>
            -9.3141186237335205e-01 3.3814045786857605e-01</leafValues></_>
        <_>
          <internalNodes>
            0 -1 43 2.7413645759224892e-02</internalNodes>
          <leafValues>
            -7.4455285072326660e-01 4.1847351193428040e-01</leafValues></_>
        <_>
          <internalNodes>
            0 -1 19 6.2897219322621822e-04</internalNodes>
          <leafValues>
            -9.7469943761825562e-01 3.5296535491943359e-01</leafValues></_></weakClassifiers></_>
    <!-- stage 6 -->
    <_>
      <maxWeakCount>5</maxWeakCount>
      <stageThreshold>-1.9214240312576294e+00</stageThreshold>
      <weakClassifiers>
        <_>
          <internalNodes>
            0 -1 27 -3.7267756462097168e-01</internalNodes>
          <leafValues>
            -5.1599587313830853e-03 -9.1030025482177734e-01</leafValues></_>
        <_>
          <internalNodes>
            0 -1 7 -1.4968357980251312e-01</internalNodes>
          <leafValues>
            3.3196839690208435e-01 -8.4303408861160278e-01</leafValues></_>
        <_>
          <internalNodes>
            0 -1 31 -2.2376013919711113e-02</internalNodes>
          <leafValues>
            2.9489728808403015e-01 -8.9531803131103516e-01</leafValues></_>
        <_>
          <internalNodes>
            0 -1 32 -8.9827850461006165e-03</internalNodes>
          <leafValues>
            3.0762207508087158e-01 -9.1048657894134521e-01</leafValues></_>
        <_>
          <internalNodes>
            0 -1 23 -3.1037347071105614e-05</internalNodes>
          <leafValues>
            4.6271249651908875e-01 -7.3070698976516724e-01</leafValues></_></weakClassifiers></_>
    <!-- stage 7 -->
    <_>
      <maxWeakCount>5</maxWeakCount>
      <stageThreshold>-1.7326551675796509e+00</stageThreshold>
      <weakClassifiers>
        <_>
          <internalNodes>
            0 -1 27 -3.6125859618186951e-01</internalNodes>
          <leafValues>
            8.7912090122699738e-02 -9.2193311452865601e-01</leafValues></_>
        <_>
          <internalNodes>
            0 -1 42 -1.3124655932188034e-02</internalNodes>
          <leafValues>
            3.3550220727920532e-01 -7.5213909149169922e-01</leafValues></_>
        <_>
          <internalNodes>
            0 -1 40 -1.0428052395582199e-02</internalNodes>
          <leafValues>
            4.1652745008468628e-01 -7.5258946418762207e-01</leafValues></_>
        <_>
          <internalNodes>
            0 -1 12 -7.6016873121261597e-02</internalNodes>
          <leafValues>
            4.1226306557655334e-01 -7.9065901041030884e-01</leafValues></_>
        <_>
          <internalNodes>
            0 -1 47 8.1804944784380496e-05</internalNodes>
          <leafValues>
            -9.7918039560317993e-01 3.1554862856864929e-01</leafValues></_></weakClassifiers></_>
    <!-- stage 8 -->
    <_>
      <maxWeakCount>6</maxWeakCount>
      <stageThreshold>-1.7705066204071045e+00</stageThreshold>
      <weakClassifiers>
        <_>
          <internalNodes>
            0 -1 29 -5.6259000301361084e-01</internalNodes>
          <leafValues>
            1.8740630149841309e-01 -8.6089330911636353e-01</leafValues></_>
        <_>
          <internalNodes>
            0 -1 45 7.8921383246779442e-03</internalNodes>
          <leafValues>
            -8.2555389404296875e-01 2.9992169141769409e-01</leafValues></_>
        <_>
          <internalNodes>
            0 -1 25 -2.1623443812131882e-02</internalNodes>
          <leafValues>
            2.8354990482330322e-01 -8.5149860382080078e-01</leafValues></_>
        <_>
          <internalNodes>
            0 -1 21 -3.2209092751145363e-05</internalNodes>
          <leafValues>
            3.0276414752006531e-01 -8.4942644834518433e-01</leafValues></_>
        <_>
          <internalNodes>
            0 -1 21 -1.0740028228610754e-03</internalNodes>
          <leafValues>
            -9.1056901216506958e-01 4.2479985952377319e-01</leafValues></_>
        <_>
          <internalNodes>
            0 -1 24 -1.1840020306408405e-02</internalNodes>
          <leafValues>
            3.2694447040557861e-01 -6.8626528978347778e-01</leafValues></_></weakClassifiers></_>
    <!-- stage 9 -->
    <_>
      <maxWeakCount>4</maxWeakCount>
      <stageThreshold>-1.4545236825942993e+00</stageThreshold>
      <weakClassifiers>
        <_>
          <internalNodes>
            0 -1 34 -2.0894247293472290e-01</internalNodes>
          <leafValues>
            2.2556390613317490e-02 -9.0708130598068237e-01</leafValues></_>
        <_>
          <internalNodes>
            0 -1 3 -2.3529504239559174e-01</internalNodes>
          <leafValues>
            6.5371297299861908e-02 -9.2657834291458130e-01</leafValues></_>
        <_>
          <internalNodes>
            0 -1 30 6.6535230726003647e-03</internalNodes>
          <leafValues>
            -9.0796452760696411e-01 2.3656366765499115e-01</leafValues></_>
        <_>
          <internalNodes>
            0 -1 5 -3.5572320484789088e-05</internalNodes>
          <leafValues>
            3.0271175503730774e-01 -8.4937733411788940e-01</leafValues></_></weakClassifiers></_>
    <!-- stage 10 -->
    <_>
      <maxWeakCount>6</maxWeakCount>
      <stageThreshold>-1.8837738037109375e+00</stageThreshold>
      <weakClassifiers>
        <_>
          <internalNodes>
            0 -1 17 -2.3830133676528931e-01</internalNodes>
          <leafValues>
            -2.2623434662818909e-01 -9.3312525749206543e-01</leafValues></_>
        <_>
          <internalNodes>
            0 -1 36 -8.7972886860370636e-02</internalNodes>
          <leafValues>
            1.2291023880243301e-01 -8.6231559514999390e-01</leafValues></_>
        <_>
          <internalNodes>
            0 -1 22 -6.7646455136127770e-05</internalNodes>
          <leafValues>
            2.7449095249176025e-01 -7.6678425073623657e-01</leafValues></_>
        <_>
          <internalNodes>
            0 -1 22 -1.3965764082968235e-03</internalNodes>
          <leafValues>
            -8.8419687747955322e-01 2.6567700505256653e-01</leafValues></_>
        <_>
          <internalNodes>
            0 -1 42 -6.7821117118000984e-03</internalNodes>
          <leafValues>
            3.0487978458404541e-01 -7.1894985437393188e-01</leafValues></_>
        <_>
          <internalNodes>
            0 -1 20 -2.3524323478341103e-03</internalNodes>
          <leafValues>
            2.6505613327026367e-01 -9.3338072299957275e-01</leafValues></_></weakClassifiers></_>
    <!-- stage 11 -->
    <_>
      <maxWeakCount>5</maxWeakCount>
      <stageThreshold>-1.8734141588211060e+00</stageThreshold>
      <weakClassifiers>
        <_>
          <internalNodes>
            0 -1 35 -4.3617457151412964e-02</internalNodes>
          <leafValues>
            6.2831860780715942e-01 -7.5340843200683594e-01</leafValues></_>
        <_>
          <internalNodes>
            0 -1 18 -1.2943375110626221e-01</internalNodes>
          <leafValues>
            2.1622106432914734e-01 -7.7747601270675659e-01</leafValues></_>
        <_>
          <internalNodes>
            0 -1 15 3.5609884653240442e-03</internalNodes>
          <leafValues>
            2.5750908255577087e-01 -9.5673751831054688e-01</leafValues></_>
        <_>
          <internalNodes>
            0 -1 38 -6.7958878353238106e-03</internalNodes>
          <leafValues>
            2.5722259283065796e-01 -8.1831389665603638e-01</leafValues></_>
        <_>
          <internalNodes>
            0 -1 19 7.7250390313565731e-04</internalNodes>
          <leafValues>
            -9.3627601861953735e-01 2.1827509999275208e-01</leafValues></_></weakClassifiers></_></stages>
  <features>
    <_>
      <rects>
        <_>
          0 0 1 2 -1.</_>
        <_>
          0 1 1 1 2.</_></rects>
      <tilted>0</tilted></_>
    <_>
      <rects>
        <_>
          0 0 4 16 -1.</_>
        <_>
          2 0 2 16 2.</_></rects>
      <tilted>0</tilted></_>
    <_>
      <rects>
        <_>
          0 0 11 2 -1.</_>
        <_>
          0 1 11 1 2.</_></rects>
      <tilted>0</tilted></_>
    <_>
      <rects>
        <_>
          0 0 11 18 -1.</_>
        <_>
          0 9 11 9 2.</_></rects>
      <tilted>0</tilted></_>
    <_>
      <rects>
        <_>
          0 0 12 22 -1.</_>
        <_>
          0 11 12 11 2.</_></rects>
      <tilted>0</tilted></_>
    <_>
      <rects>
        <_>
          0 1 2 2 -1.</_>
        <_>
          0 1 1 1 2.</_>
        <_>
          1 2 1 1 2.</_></rects>
      <tilted>0</tilted></_>
    <_>
      <rects>
        <_>
          0 1 4 16 -1.</_>
        <_>
          2 1 2 16 2.</_></rects>
      <tilted>0</tilted></_>
    <_>
      <rects>
        <_>
          0 1 4 21 -1.</_>
        <_>
          2 1 2 21 2.</_></rects>
      <tilted>0</tilted></_>
    <_>
      <rects>
        <_>
          0 6 4 17 -1.</_>
        <_>
          2 6 2 17 2.</_></rects>
      <tilted>0</tilted></_>
    <_>
      <rects>
        <_>
          0 7 2 15 -1.</_>
        <_>
          1 7 1 15 2.</_></rects>
      <tilted>0</tilted></_>
    <_>
      <rects>
        <_>
          0 7 2 17 -1.</_>
        <_>
          1 7 1 17 2.</_></rects>
      <tilted>0</tilted></_>
    <_>
      <rects>
        <_>
          0 9 4 9 -1.</_>
        <_>
          2 9 2 9 2.</_></rects>
      <tilted>0</tilted></_>
    <_>
      <rects>
        <_>
          0 9 4 10 -1.</_>
        <_>
          2 9 2 10 2.</_></rects>
      <tilted>0</tilted></_>
    <_>
      <rects>
        <_>
          0 9 4 14 -1.</_>
        <_>
          2 9 2 14 2.</_></rects>
      <tilted>0</tilted></_>
    <_>
      <rects>
        <_>
          0 11 4 13 -1.</_>
        <_>
          2 11 2 13 2.</_></rects>
      <tilted>0</tilted></_>
    <_>
      <rects>
        <_>
          0 14 1 10 -1.</_>
        <_>
          0 19 1 5 2.</_></rects>
      <tilted>0</tilted></_>
    <_>
      <rects>
        <_>
          0 14 6 10 -1.</_>
        <_>
          3 14 3 10 2.</_></rects>
      <tilted>0</tilted></_>
    <_>
      <rects>
        <_>
          0 17 12 7 -1.</_>
        <_>
          4 17 4 7 3.</_></rects>
      <tilted>0</tilted></_>
    <_>
      <rects>
        <_>
          0 20 12 4 -1.</_>
        <_>
          4 20 4 4 3.</_></rects>
      <tilted>0</tilted></_>
    <_>
      <rects>
        <_>
          0 22 2 2 -1.</_>
        <_>
          0 22 1 1 2.</_>
        <_>
          1 23 1 1 2.</_></rects>
      <tilted>0</tilted></_>
    <_>
      <rects>
        <_>
          0 23 4 1 -1.</_>
        <_>
          2 23 2 1 2.</_></rects>
      <tilted>0</tilted></_>
    <_>
      <rects>
        <_>
          1 0 2 1 -1.</_>
        <_>
          2 0 1 1 2.</_></rects>
      <tilted>0</tilted></_>
    <_>
      <rects>
        <_>
          1 0 3 1 -1.</_>
        <_>
          2 0 1 1 3.</_></rects>
      <tilted>0</tilted></_>
    <_>
      <rects>
        <_>
          1 0 2 2 -1.</_>
        <_>
          1 0 1 1 2.</_>
        <_>
          2 1 1 1 2.</_></rects>
      <tilted>0</tilted></_>
    <_>
      <rects>
        <_>
          1 12 3 5 -1.</_>
        <_>
          2 12 1 5 3.</_></rects>
      <tilted>0</tilted></_>
    <_>
      <rects>
        <_>
          1 18 11 6 -1.</_>
        <_>
          1 20 11 2 3.</_></rects>
      <tilted>0</tilted></_>
    <_>
      <rects>
        <_>
          1 22 11 2 -1.</_>
        <_>
          1 23 11 1 2.</_></rects>
      <tilted>0</tilted></_>
    <_>
      <rects>
        <_>
          2 0 6 22 -1.</_>
        <_>
          2 11 6 11 2.</_></rects>
      <tilted>0</tilted></_>
    <_>
      <rects>
        <_>
          2 0 7 22 -1.</_>
        <_>
          2 11 7 11 2.</_></rects>
      <tilted>0</tilted></_>
    <_>
      <rects>
        <_>
          2 0 8 24 -1.</_>
        <_>
          2 12 8 12 2.</_></rects>
      <tilted>0</tilted></_>
    <_>
      <rects>
        <_>
          2 22 5 2 -1.</_>
        <_>
          2 23 5 1 2.</_></rects>
      <tilted>0</tilted></_>
    <_>
      <rects>
        <_>
          3 18 9 3 -1.</_>
        <_>
          6 18 3 3 3.</_></rects>
      <tilted>0</tilted></_>
    <_>
      <rects>
        <_>
          3 21 7 3 -1.</_>
        <_>
          3 22 7 1 3.</_></rects>
      <tilted>0</tilted></_>
    <_>
      <rects>
        <_>
          3 22 9 2 -1.</_>
        <_>
          3 23 9 1 2.</_></rects>
      <tilted>0</tilted></_>
    <_>
      <rects>
        <_>
          5 0 3 24 -1.</_>
        <_>
          5 12 3 12 2.</_></rects>
      <tilted>0</tilted></_>
    <_>
      <rects>
        <_>
          5 3 6 2 -1.</_>
        <_>
          7 3 2 2 3.</_></rects>
      <tilted>0</tilted></_>
    <_>
      <rects>
        <_>
          5 6 4 16 -1.</_>
        <_>
          5 14 4 8 2.</_></rects>
      <tilted>0</tilted></_>
    <_>
      <rects>
        <_>
          5 21 6 3 -1.</_>
        <_>
          5 22 6 1 3.</_></rects>
      <tilted>0</tilted></_>
    <_>
      <rects>
        <_>
          6 21 6 3 -1.</_>
        <_>
          6 22 6 1 3.</_></rects>
      <tilted>0</tilted></_>
    <_>
      <rects>
        <_>
          6 22 5 2 -1.</_>
        <_>
          6 23 5 1 2.</_></rects>
      <tilted>0</tilted></_>
    <_>
      <rects>
        <_>
          8 0 4 4 -1.</_>
        <_>
          8 2 4 2 2.</_></rects>
      <tilted>0</tilted></_>
    <_>
      <rects>
        <_>
          8 12 4 12 -1.</_>
        <_>
          10 12 2 12 2.</_></rects>
      <tilted>0</tilted></_>
    <_>
      <rects>
        <_>
          9 9 3 4 -1.</_>
        <_>
          10 9 1 4 3.</_></rects>
      <tilted>0</tilted></_>
    <_>
      <rects>
        <_>
          10 3 2 17 -1.</_>
        <_>
          11 3 1 17 2.</_></rects>
      <tilted>0</tilted></_>
    <_>
      <rects>
        <_>
          10 8 2 16 -1.</_>
        <_>
          11 8 1 16 2.</_></rects>
      <tilted>0</tilted></_>
    <_>
      <rects>
        <_>
          10 11 2 3 -1.</_>
        <_>
          11 11 1 3 2.</_></rects>
      <tilted>0</tilted></_>
    <_>
      <rects>
        <_>
          10 11 2 7 -1.</_>
        <_>
          11 11 1 7 2.</_></rects>
      <tilted>0</tilted></_>
    <_>
      <rects>
        <_>
          10 23 2 1 -1.</_>
        <_>
          11 23 1 1 2.</_></rects>
      <tilted>0</tilted></_></features></cascade>
</opencv_storage>
