<?xml version="1.0"?>
<opencv_storage>
<cascade>
  <stageType>BOOST</stageType>
  <featureType>HAAR</featureType>
  <height>24</height>
  <width>12</width>
  <stageParams>
    <boostType>GAB</boostType>
    <minHitRate>9.9900001287460327e-01</minHitRate>
    <maxFalseAlarm>5.0000000000000000e-01</maxFalseAlarm>
    <weightTrimRate>9.4999999999999996e-01</weightTrimRate>
    <maxDepth>1</maxDepth>
    <maxWeakCount>100</maxWeakCount></stageParams>
  <featureParams>
    <maxCatCount>0</maxCatCount>
    <featSize>1</featSize>
    <mode>BASIC</mode></featureParams>
  <stageNum>8</stageNum>
  <stages>
    <!-- stage 0 -->
    <_>
      <maxWeakCount>3</maxWeakCount>
      <stageThreshold>-1.1640361547470093e+00</stageThreshold>
      <weakClassifiers>
        <_>
          <internalNodes>
            0 -1 2 -1.0059864819049835e-01</internalNodes>
          <leafValues>
            8.0184334516525269e-01 -9.9084436893463135e-01</leafValues></_>
        <_>
          <internalNodes>
            0 -1 17 -4.9302347004413605e-02</internalNodes>
          <leafValues>
            7.9974132776260376e-01 -9.7675818204879761e-01</leafValues></_>
        <_>
          <internalNodes>
            0 -1 21 3.1070683151483536e-02</internalNodes>
          <leafValues>
            -9.7293305397033691e-01 8.1539672613143921e-01</leafValues></_></weakClassifiers></_>
    <!-- stage 1 -->
    <_>
      <maxWeakCount>3</maxWeakCount>
      <stageThreshold>-1.4273607730865479e+00</stageThreshold>
      <weakClassifiers>
        <_>
          <internalNodes>
            0 -1 12 2.1268602460622787e-02</internalNodes>
          <leafValues>
            -9.7036278247833252e-01 6.7494356632232666e-01</leafValues></_>
        <_>
          <internalNodes>
            0 -1 0 -7.0283889770507813e-01</internalNodes>
          <leafValues>
            6.2489157915115356e-01 -9.5222932100296021e-01</leafValues></_>
        <_>
          <internalNodes>
            0 -1 7 -1.9267925620079041e-01</internalNodes>
          <leafValues>
            4.9523130059242249e-01 -9.8073399066925049e-01</leafValues></_></weakClassifiers></_>
    <!-- stage 2 -->
    <_>
      <maxWeakCount>2</maxWeakCount>
      <stageThreshold>-5.1003366708755493e-01</stageThreshold>
      <weakClassifiers>
        <_>
          <internalNodes>
            0 -1 5 -3.9955414831638336e-02</internalNodes>
          <leafValues>
            4.7177419066429138e-01 -9.6323531866073608e-01</leafValues></_>
        <_>
          <internalNodes>
            0 -1 10 2.1676370874047279e-02</internalNodes>
          <leafValues>
            -9.8180782794952393e-01 4.8669818043708801e-01</leafValues></_></weakClassifiers></_>
    <!-- stage 3 -->
    <_>
      <maxWeakCount>2</maxWeakCount>
      <stageThreshold>-5.0462424755096436e-01</stageThreshold>
      <weakClassifiers>
        <_>
          <internalNodes>
            0 -1 20 7.4960663914680481e-02</internalNodes>
          <leafValues>
            -9.3504452705383301e-01 3.7678208947181702e-01</leafValues></_>
        <_>
          <internalNodes>
            0 -1 1 -2.2662732005119324e-01</internalNodes>
          <leafValues>
            4.3042030930519104e-01 -1.</leafValues></_></weakClassifiers></_>
    <!-- stage 4 -->
    <_>
      <maxWeakCount>2</maxWeakCount>
      <stageThreshold>-4.5967069268226624e-01</stageThreshold>
      <weakClassifiers>
        <_>
          <internalNodes>
            0 -1 14 -7.2662487626075745e-02</internalNodes>
          <leafValues>
            7.3214286565780640e-01 -9.8770493268966675e-01</leafValues></_>
        <_>
          <internalNodes>
            0 -1 19 -3.2039936631917953e-02</internalNodes>
          <leafValues>
            5.2803421020507813e-01 -9.5801424980163574e-01</leafValues></_></weakClassifiers></_>
    <!-- stage 5 -->
    <_>
      <maxWeakCount>3</maxWeakCount>
      <stageThreshold>-1.6930645704269409e+00</stageThreshold>
      <weakClassifiers>
        <_>
          <internalNodes>
            0 -1 6 2.5772756338119507e-01</internalNodes>
          <leafValues>
            -9.6481585502624512e-01 2.6678141951560974e-01</leafValues></_>
        <_>
          <internalNodes>
            0 -1 15 -1.1089184321463108e-02</internalNodes>
          <leafValues>
            1.9983662664890289e-01 -9.8014336824417114e-01</leafValues></_>
        <_>
          <internalNodes>
            0 -1 18 -1.1461143195629120e-01</internalNodes>
          <leafValues>
            3.9878141880035400e-01 -9.2808538675308228e-01</leafValues></_></weakClassifiers></_>
    <!-- stage 6 -->
    <_>
      <maxWeakCount>3</maxWeakCount>
      <stageThreshold>-1.4296354055404663e+00</stageThreshold>
      <weakClassifiers>
        <_>
          <internalNodes>
            0 -1 4 2.0686332136392593e-02</internalNodes>
          <leafValues>
            -9.1920250654220581e-01 3.0769231915473938e-01</leafValues></_>
        <_>
          <internalNodes>
            0 -1 11 -1.4939531683921814e-01</internalNodes>
          <leafValues>
            3.0558818578720093e-01 -9.5722031593322754e-01</leafValues></_>
        <_>
          <internalNodes>
            0 -1 3 -2.5898158550262451e-01</internalNodes>
          <leafValues>
            4.8634356260299683e-01 -7.8010737895965576e-01</leafValues></_></weakClassifiers></_>
    <!-- stage 7 -->
    <_>
      <maxWeakCount>4</maxWeakCount>
      <stageThreshold>-1.2383025884628296e+00</stageThreshold>
      <weakClassifiers>
        <_>
          <internalNodes>
            0 -1 9 -4.3829102069139481e-02</internalNodes>
          <leafValues>
            6.3333332538604736e-02 -9.1000002622604370e-01</leafValues></_>
        <_>
          <internalNodes>
            0 -1 13 -6.6870659589767456e-02</internalNodes>
          <leafValues>
            3.3936136960983276e-01 -8.8389372825622559e-01</leafValues></_>
        <_>
          <internalNodes>
            0 -1 8 1.8670678138732910e-01</internalNodes>
          <leafValues>
            -8.9335358142852783e-01 3.1899991631507874e-01</leafValues></_>
        <_>
          <internalNodes>
            0 -1 16 -9.7818970680236816e-03</internalNodes>
          <leafValues>
            2.7927714586257935e-01 -9.8666393756866455e-01</leafValues></_></weakClassifiers></_></stages>
  <features>
    <_>
      <rects>
        <_>
          0 2 12 20 -1.</_>
        <_>
          4 2 4 20 3.</_></rects>
      <tilted>0</tilted></_>
    <_>
      <rects>
        <_>
          0 4 4 19 -1.</_>
        <_>
          2 4 2 19 2.</_></rects>
      <tilted>0</tilted></_>
    <_>
      <rects>
        <_>
          0 8 4 6 -1.</_>
        <_>
          2 8 2 6 2.</_></rects>
      <tilted>0</tilted></_>
    <_>
      <rects>
        <_>
          1 1 11 15 -1.</_>
        <_>
          1 6 11 5 3.</_></rects>
      <tilted>0</tilted></_>
    <_>
      <rects>
        <_>
          1 2 6 4 -1.</_>
        <_>
          1 2 3 2 2.</_>
        <_>
          4 4 3 2 2.</_></rects>
      <tilted>0</tilted></_>
    <_>
      <rects>
        <_>
          1 3 3 11 -1.</_>
        <_>
          2 3 1 11 3.</_></rects>
      <tilted>0</tilted></_>
    <_>
      <rects>
        <_>
          1 4 10 20 -1.</_>
        <_>
          1 14 10 10 2.</_></rects>
      <tilted>0</tilted></_>
    <_>
      <rects>
        <_>
          2 0 9 8 -1.</_>
        <_>
          2 4 9 4 2.</_></rects>
      <tilted>0</tilted></_>
    <_>
      <rects>
        <_>
          2 6 9 18 -1.</_>
        <_>
          2 15 9 9 2.</_></rects>
      <tilted>0</tilted></_>
    <_>
      <rects>
        <_>
          2 21 9 2 -1.</_>
        <_>
          5 21 3 2 3.</_></rects>
      <tilted>0</tilted></_>
    <_>
      <rects>
        <_>
          2 22 10 2 -1.</_>
        <_>
          2 23 10 1 2.</_></rects>
      <tilted>0</tilted></_>
    <_>
      <rects>
        <_>
          3 8 9 15 -1.</_>
        <_>
          6 8 3 15 3.</_></rects>
      <tilted>0</tilted></_>
    <_>
      <rects>
        <_>
          3 22 7 2 -1.</_>
        <_>
          3 23 7 1 2.</_></rects>
      <tilted>0</tilted></_>
    <_>
      <rects>
        <_>
          4 0 4 6 -1.</_>
        <_>
          4 2 4 2 3.</_></rects>
      <tilted>0</tilted></_>
    <_>
      <rects>
        <_>
          4 0 5 4 -1.</_>
        <_>
          4 2 5 2 2.</_></rects>
      <tilted>0</tilted></_>
    <_>
      <rects>
        <_>
          4 21 6 3 -1.</_>
        <_>
          4 22 6 1 3.</_></rects>
      <tilted>0</tilted></_>
    <_>
      <rects>
        <_>
          4 21 7 3 -1.</_>
        <_>
          4 22 7 1 3.</_></rects>
      <tilted>0</tilted></_>
    <_>
      <rects>
        <_>
          5 0 3 4 -1.</_>
        <_>
          5 2 3 2 2.</_></rects>
      <tilted>0</tilted></_>
    <_>
      <rects>
        <_>
          6 0 5 10 -1.</_>
        <_>
          6 5 5 5 2.</_></rects>
      <tilted>0</tilted></_>
    <_>
      <rects>
        <_>
          9 5 3 8 -1.</_>
        <_>
          10 5 1 8 3.</_></rects>
      <tilted>0</tilted></_>
    <_>
      <rects>
        <_>
          10 3 2 13 -1.</_>
        <_>
          11 3 1 13 2.</_></rects>
      <tilted>0</tilted></_>
    <_>
      <rects>
        <_>
          10 6 2 8 -1.</_>
        <_>
          11 6 1 8 2.</_></rects>
      <tilted>0</tilted></_></features></cascade>
</opencv_storage>
