<?xml version="1.0"?>
<opencv_storage>
<cascade>
  <stageType>BOOST</stageType>
  <featureType>HAAR</featureType>
  <height>24</height>
  <width>12</width>
  <stageParams>
    <boostType>GAB</boostType>
    <minHitRate>9.9900001287460327e-01</minHitRate>
    <maxFalseAlarm>5.0000000000000000e-01</maxFalseAlarm>
    <weightTrimRate>9.4999999999999996e-01</weightTrimRate>
    <maxDepth>1</maxDepth>
    <maxWeakCount>100</maxWeakCount></stageParams>
  <featureParams>
    <maxCatCount>0</maxCatCount>
    <featSize>1</featSize>
    <mode>BASIC</mode></featureParams>
  <stageNum>13</stageNum>
  <stages>
    <!-- stage 0 -->
    <_>
      <maxWeakCount>2</maxWeakCount>
      <stageThreshold>-1.1096815019845963e-01</stageThreshold>
      <weakClassifiers>
        <_>
          <internalNodes>
            0 -1 12 -1.7599008977413177e-01</internalNodes>
          <leafValues>
            9.5918369293212891e-01 -9.8009949922561646e-01</leafValues></_>
        <_>
          <internalNodes>
            0 -1 14 -5.2272863686084747e-02</internalNodes>
          <leafValues>
            8.6913132667541504e-01 -9.7377163171768188e-01</leafValues></_></weakClassifiers></_>
    <!-- stage 1 -->
    <_>
      <maxWeakCount>4</maxWeakCount>
      <stageThreshold>-1.8556963205337524e+00</stageThreshold>
      <weakClassifiers>
        <_>
          <internalNodes>
            0 -1 46 -2.8261307626962662e-02</internalNodes>
          <leafValues>
            7.7777779102325439e-01 -9.7959184646606445e-01</leafValues></_>
        <_>
          <internalNodes>
            0 -1 80 5.0512775778770447e-02</internalNodes>
          <leafValues>
            -8.6680388450622559e-01 5.9042882919311523e-01</leafValues></_>
        <_>
          <internalNodes>
            0 -1 44 -1.8281199038028717e-02</internalNodes>
          <leafValues>
            7.2966349124908447e-01 -8.1405866146087646e-01</leafValues></_>
        <_>
          <internalNodes>
            0 -1 16 -1.0943717509508133e-01</internalNodes>
          <leafValues>
            8.0475801229476929e-01 -6.2785524129867554e-01</leafValues></_></weakClassifiers></_>
    <!-- stage 2 -->
    <_>
      <maxWeakCount>3</maxWeakCount>
      <stageThreshold>-1.2518444061279297e+00</stageThreshold>
      <weakClassifiers>
        <_>
          <internalNodes>
            0 -1 35 -4.7919355332851410e-02</internalNodes>
          <leafValues>
            6.0784316062927246e-01 -9.0954774618148804e-01</leafValues></_>
        <_>
          <internalNodes>
            0 -1 74 -3.5037811845541000e-02</internalNodes>
          <leafValues>
            3.2102361321449280e-01 -9.0728020668029785e-01</leafValues></_>
        <_>
          <internalNodes>
            0 -1 62 1.1181030422449112e-02</internalNodes>
          <leafValues>
            -6.6332024335861206e-01 5.8350676298141479e-01</leafValues></_></weakClassifiers></_>
    <!-- stage 3 -->
    <_>
      <maxWeakCount>3</maxWeakCount>
      <stageThreshold>-1.4869575500488281e+00</stageThreshold>
      <weakClassifiers>
        <_>
          <internalNodes>
            0 -1 33 -3.1199485063552856e-02</internalNodes>
          <leafValues>
            1.3815788924694061e-01 -9.2241376638412476e-01</leafValues></_>
        <_>
          <internalNodes>
            0 -1 72 6.6657200455665588e-02</internalNodes>
          <leafValues>
            -7.3778277635574341e-01 4.9162605404853821e-01</leafValues></_>
        <_>
          <internalNodes>
            0 -1 57 -2.3672230541706085e-02</internalNodes>
          <leafValues>
            5.0384026765823364e-01 -8.8733267784118652e-01</leafValues></_></weakClassifiers></_>
    <!-- stage 4 -->
    <_>
      <maxWeakCount>5</maxWeakCount>
      <stageThreshold>-1.6223546266555786e+00</stageThreshold>
      <weakClassifiers>
        <_>
          <internalNodes>
            0 -1 20 -2.3222348093986511e-01</internalNodes>
          <leafValues>
            1.2701252102851868e-01 -8.8202637434005737e-01</leafValues></_>
        <_>
          <internalNodes>
            0 -1 8 -2.5499556213617325e-02</internalNodes>
          <leafValues>
            1.7578816413879395e-01 -9.0310186147689819e-01</leafValues></_>
        <_>
          <internalNodes>
            0 -1 77 -1.6758872196078300e-02</internalNodes>
          <leafValues>
            4.9027734994888306e-01 -6.4264267683029175e-01</leafValues></_>
        <_>
          <internalNodes>
            0 -1 24 4.2208001104881987e-05</internalNodes>
          <leafValues>
            -7.1946406364440918e-01 3.4877058863639832e-01</leafValues></_>
        <_>
          <internalNodes>
            0 -1 18 -2.5357246398925781e-02</internalNodes>
          <leafValues>
            5.2489495277404785e-01 -5.5239325761795044e-01</leafValues></_></weakClassifiers></_>
    <!-- stage 5 -->
    <_>
      <maxWeakCount>9</maxWeakCount>
      <stageThreshold>-2.5368046760559082e+00</stageThreshold>
      <weakClassifiers>
        <_>
          <internalNodes>
            0 -1 40 1.6377584636211395e-01</internalNodes>
          <leafValues>
            -7.5872266292572021e-01 2.6860842108726501e-01</leafValues></_>
        <_>
          <internalNodes>
            0 -1 55 -1.3275304809212685e-02</internalNodes>
          <leafValues>
            2.6168349385261536e-01 -7.9759973287582397e-01</leafValues></_>
        <_>
          <internalNodes>
            0 -1 21 -1.0336823761463165e-01</internalNodes>
          <leafValues>
            2.6579752564430237e-01 -8.5690951347351074e-01</leafValues></_>
        <_>
          <internalNodes>
            0 -1 81 5.3316712379455566e-02</internalNodes>
          <leafValues>
            -5.3158527612686157e-01 4.9210381507873535e-01</leafValues></_>
        <_>
          <internalNodes>
            0 -1 26 -2.0312538370490074e-02</internalNodes>
          <leafValues>
            3.3391061425209045e-01 -8.5912102460861206e-01</leafValues></_>
        <_>
          <internalNodes>
            0 -1 1 -4.0106405504047871e-04</internalNodes>
          <leafValues>
            1.6564862430095673e-01 -8.8040119409561157e-01</leafValues></_>
        <_>
          <internalNodes>
            0 -1 85 -4.8196456191362813e-05</internalNodes>
          <leafValues>
            3.0215972661972046e-01 -5.8436572551727295e-01</leafValues></_>
        <_>
          <internalNodes>
            0 -1 17 -9.2134196311235428e-03</internalNodes>
          <leafValues>
            3.0330154299736023e-01 -6.3795077800750732e-01</leafValues></_>
        <_>
          <internalNodes>
            0 -1 63 -9.7412355244159698e-03</internalNodes>
          <leafValues>
            1.8951736390590668e-01 -9.2841988801956177e-01</leafValues></_></weakClassifiers></_>
    <!-- stage 6 -->
    <_>
      <maxWeakCount>6</maxWeakCount>
      <stageThreshold>-2.2057216167449951e+00</stageThreshold>
      <weakClassifiers>
        <_>
          <internalNodes>
            0 -1 27 -9.0553969144821167e-02</internalNodes>
          <leafValues>
            3.6802974343299866e-01 -7.5043326616287231e-01</leafValues></_>
        <_>
          <internalNodes>
            0 -1 23 -5.2704222500324249e-02</internalNodes>
          <leafValues>
            1.8428222835063934e-01 -7.6389622688293457e-01</leafValues></_>
        <_>
          <internalNodes>
            0 -1 30 2.6021499070338905e-04</internalNodes>
          <leafValues>
            -6.7640197277069092e-01 2.6015013456344604e-01</leafValues></_>
        <_>
          <internalNodes>
            0 -1 5 -2.7999751269817352e-02</internalNodes>
          <leafValues>
            2.4637481570243835e-01 -8.0818557739257813e-01</leafValues></_>
        <_>
          <internalNodes>
            0 -1 25 -2.5465250946581364e-03</internalNodes>
          <leafValues>
            -8.2915586233139038e-01 2.6410916447639465e-01</leafValues></_>
        <_>
          <internalNodes>
            0 -1 76 -2.0269520580768585e-02</internalNodes>
          <leafValues>
            4.2154476046562195e-01 -5.2547419071197510e-01</leafValues></_></weakClassifiers></_>
    <!-- stage 7 -->
    <_>
      <maxWeakCount>8</maxWeakCount>
      <stageThreshold>-1.5599602460861206e+00</stageThreshold>
      <weakClassifiers>
        <_>
          <internalNodes>
            0 -1 68 1.0133671760559082e-01</internalNodes>
          <leafValues>
            -7.1760797500610352e-01 4.9484536051750183e-01</leafValues></_>
        <_>
          <internalNodes>
            0 -1 43 -9.8909512162208557e-03</internalNodes>
          <leafValues>
            9.4992056488990784e-02 -8.4284365177154541e-01</leafValues></_>
        <_>
          <internalNodes>
            0 -1 79 5.1980368793010712e-02</internalNodes>
          <leafValues>
            -5.1951259374618530e-01 3.9545470476150513e-01</leafValues></_>
        <_>
          <internalNodes>
            0 -1 10 -7.6141650788486004e-04</internalNodes>
          <leafValues>
            2.9440724849700928e-01 -5.8267557621002197e-01</leafValues></_>
        <_>
          <internalNodes>
            0 -1 48 -1.0127954883500934e-03</internalNodes>
          <leafValues>
            -7.0016497373580933e-01 2.3265592753887177e-01</leafValues></_>
        <_>
          <internalNodes>
            0 -1 31 4.5414194464683533e-03</internalNodes>
          <leafValues>
            -4.3280315399169922e-01 3.7534904479980469e-01</leafValues></_>
        <_>
          <internalNodes>
            0 -1 19 -5.3625434637069702e-02</internalNodes>
          <leafValues>
            2.8089052438735962e-01 -6.2377613782882690e-01</leafValues></_>
        <_>
          <internalNodes>
            0 -1 58 -3.0023150146007538e-02</internalNodes>
          <leafValues>
            2.2323709726333618e-01 -6.7359948158264160e-01</leafValues></_></weakClassifiers></_>
    <!-- stage 8 -->
    <_>
      <maxWeakCount>7</maxWeakCount>
      <stageThreshold>-1.6396762132644653e+00</stageThreshold>
      <weakClassifiers>
        <_>
          <internalNodes>
            0 -1 69 1.0967844724655151e-01</internalNodes>
          <leafValues>
            -7.1444571018218994e-01 3.5514017939567566e-01</leafValues></_>
        <_>
          <internalNodes>
            0 -1 47 1.0927561670541763e-03</internalNodes>
          <leafValues>
            1.2046053260564804e-01 -8.6600810289382935e-01</leafValues></_>
        <_>
          <internalNodes>
            0 -1 6 -2.3798531293869019e-01</internalNodes>
          <leafValues>
            2.2572544217109680e-01 -7.1039932966232300e-01</leafValues></_>
        <_>
          <internalNodes>
            0 -1 51 -8.7722241878509521e-03</internalNodes>
          <leafValues>
            2.1381011605262756e-01 -8.4142243862152100e-01</leafValues></_>
        <_>
          <internalNodes>
            0 -1 52 -5.9629161842167377e-03</internalNodes>
          <leafValues>
            -7.9145103693008423e-01 2.3727513849735260e-01</leafValues></_>
        <_>
          <internalNodes>
            0 -1 7 2.6955455541610718e-02</internalNodes>
          <leafValues>
            1.4597523212432861e-01 -9.7597926855087280e-01</leafValues></_>
        <_>
          <internalNodes>
            0 -1 11 -3.9702188223600388e-02</internalNodes>
          <leafValues>
            -8.3930999040603638e-01 1.4671780169010162e-01</leafValues></_></weakClassifiers></_>
    <!-- stage 9 -->
    <_>
      <maxWeakCount>8</maxWeakCount>
      <stageThreshold>-1.6239060163497925e+00</stageThreshold>
      <weakClassifiers>
        <_>
          <internalNodes>
            0 -1 61 3.6338727921247482e-02</internalNodes>
          <leafValues>
            -8.2869380712509155e-01 -6.5108515322208405e-02</leafValues></_>
        <_>
          <internalNodes>
            0 -1 60 -3.9825186133384705e-02</internalNodes>
          <leafValues>
            1.7871458828449249e-01 -6.2011349201202393e-01</leafValues></_>
        <_>
          <internalNodes>
            0 -1 78 -8.3700411778409034e-05</internalNodes>
          <leafValues>
            3.9365148544311523e-01 -5.0317406654357910e-01</leafValues></_>
        <_>
          <internalNodes>
            0 -1 73 -3.5131327807903290e-02</internalNodes>
          <leafValues>
            2.8050026297569275e-01 -5.3156584501266479e-01</leafValues></_>
        <_>
          <internalNodes>
            0 -1 9 -1.5204481314867735e-03</internalNodes>
          <leafValues>
            -6.6630041599273682e-01 2.9255616664886475e-01</leafValues></_>
        <_>
          <internalNodes>
            0 -1 0 5.3204747382551432e-04</internalNodes>
          <leafValues>
            1.2219544500112534e-01 -9.2797368764877319e-01</leafValues></_>
        <_>
          <internalNodes>
            0 -1 22 -2.4365989491343498e-02</internalNodes>
          <leafValues>
            1.1711601912975311e-01 -9.3639534711837769e-01</leafValues></_>
        <_>
          <internalNodes>
            0 -1 38 5.2400588989257813e-02</internalNodes>
          <leafValues>
            -3.2426398992538452e-01 5.3047835826873779e-01</leafValues></_></weakClassifiers></_>
    <!-- stage 10 -->
    <_>
      <maxWeakCount>9</maxWeakCount>
      <stageThreshold>-1.7799006700515747e+00</stageThreshold>
      <weakClassifiers>
        <_>
          <internalNodes>
            0 -1 70 9.1177122667431831e-03</internalNodes>
          <leafValues>
            -8.1005585193634033e-01 -7.0422537624835968e-02</leafValues></_>
        <_>
          <internalNodes>
            0 -1 24 1.4096136437729001e-03</internalNodes>
          <leafValues>
            -6.2080037593841553e-01 1.2173429876565933e-01</leafValues></_>
        <_>
          <internalNodes>
            0 -1 65 7.2496902430430055e-04</internalNodes>
          <leafValues>
            1.4159883558750153e-01 -8.3817315101623535e-01</leafValues></_>
        <_>
          <internalNodes>
            0 -1 59 -6.7058124113827944e-04</internalNodes>
          <leafValues>
            -6.5613085031509399e-01 2.3380617797374725e-01</leafValues></_>
        <_>
          <internalNodes>
            0 -1 83 5.6284060701727867e-03</internalNodes>
          <leafValues>
            -5.8909362554550171e-01 2.3815765976905823e-01</leafValues></_>
        <_>
          <internalNodes>
            0 -1 39 7.5255513191223145e-02</internalNodes>
          <leafValues>
            -2.4538579583168030e-01 6.7660290002822876e-01</leafValues></_>
        <_>
          <internalNodes>
            0 -1 45 -1.9628012552857399e-02</internalNodes>
          <leafValues>
            2.3757891356945038e-01 -7.2235381603240967e-01</leafValues></_>
        <_>
          <internalNodes>
            0 -1 66 -1.2248340062797070e-03</internalNodes>
          <leafValues>
            -6.6782546043395996e-01 2.5653579831123352e-01</leafValues></_>
        <_>
          <internalNodes>
            0 -1 49 1.6743093729019165e-03</internalNodes>
          <leafValues>
            1.7056199908256531e-01 -7.4195516109466553e-01</leafValues></_></weakClassifiers></_>
    <!-- stage 11 -->
    <_>
      <maxWeakCount>13</maxWeakCount>
      <stageThreshold>-1.6862175464630127e+00</stageThreshold>
      <weakClassifiers>
        <_>
          <internalNodes>
            0 -1 37 -1.5638750791549683e-01</internalNodes>
          <leafValues>
            6.1194032430648804e-01 -6.8703109025955200e-01</leafValues></_>
        <_>
          <internalNodes>
            0 -1 82 -8.4255542606115341e-03</internalNodes>
          <leafValues>
            3.9565351605415344e-01 -4.5908087491989136e-01</leafValues></_>
        <_>
          <internalNodes>
            0 -1 1 -4.2779080104082823e-04</internalNodes>
          <leafValues>
            1.4779694378376007e-01 -8.1270480155944824e-01</leafValues></_>
        <_>
          <internalNodes>
            0 -1 4 -5.1272756536491215e-05</internalNodes>
          <leafValues>
            2.5396007299423218e-01 -6.9013386964797974e-01</leafValues></_>
        <_>
          <internalNodes>
            0 -1 53 -5.9324293397367001e-04</internalNodes>
          <leafValues>
            -6.6302371025085449e-01 1.3920362293720245e-01</leafValues></_>
        <_>
          <internalNodes>
            0 -1 13 -2.6128187775611877e-02</internalNodes>
          <leafValues>
            2.3272533714771271e-01 -5.7783102989196777e-01</leafValues></_>
        <_>
          <internalNodes>
            0 -1 50 1.7544496804475784e-02</internalNodes>
          <leafValues>
            -2.7166679501533508e-01 4.6000361442565918e-01</leafValues></_>
        <_>
          <internalNodes>
            0 -1 71 -4.3350431951694191e-05</internalNodes>
          <leafValues>
            3.4925964474678040e-01 -4.2788696289062500e-01</leafValues></_>
        <_>
          <internalNodes>
            0 -1 84 4.5047746971249580e-04</internalNodes>
          <leafValues>
            -5.6466150283813477e-01 2.7755457162857056e-01</leafValues></_>
        <_>
          <internalNodes>
            0 -1 56 -1.7028668895363808e-02</internalNodes>
          <leafValues>
            3.2907715439796448e-01 -4.9426579475402832e-01</leafValues></_>
        <_>
          <internalNodes>
            0 -1 42 1.1851318413391709e-03</internalNodes>
          <leafValues>
            1.7133276164531708e-01 -7.4153888225555420e-01</leafValues></_>
        <_>
          <internalNodes>
            0 -1 54 6.4859935082495213e-03</internalNodes>
          <leafValues>
            -3.7361022830009460e-01 3.7932366132736206e-01</leafValues></_>
        <_>
          <internalNodes>
            0 -1 64 -4.2587779462337494e-02</internalNodes>
          <leafValues>
            1.6691689193248749e-01 -8.3485966920852661e-01</leafValues></_></weakClassifiers></_>
    <!-- stage 12 -->
    <_>
      <maxWeakCount>12</maxWeakCount>
      <stageThreshold>-1.7815114259719849e+00</stageThreshold>
      <weakClassifiers>
        <_>
          <internalNodes>
            0 -1 36 -2.0951130986213684e-01</internalNodes>
          <leafValues>
            4.2708334326744080e-01 -7.0907080173492432e-01</leafValues></_>
        <_>
          <internalNodes>
            0 -1 29 -1.8008258193731308e-02</internalNodes>
          <leafValues>
            3.5426878929138184e-01 -4.3514522910118103e-01</leafValues></_>
        <_>
          <internalNodes>
            0 -1 59 1.0364954359829426e-03</internalNodes>
          <leafValues>
            1.9842763245105743e-01 -7.7394372224807739e-01</leafValues></_>
        <_>
          <internalNodes>
            0 -1 3 -9.8063726909458637e-04</internalNodes>
          <leafValues>
            2.8085985779762268e-01 -5.0664085149765015e-01</leafValues></_>
        <_>
          <internalNodes>
            0 -1 34 4.8142753541469574e-02</internalNodes>
          <leafValues>
            -2.6500552892684937e-01 5.9184533357620239e-01</leafValues></_>
        <_>
          <internalNodes>
            0 -1 67 1.3816602295264602e-03</internalNodes>
          <leafValues>
            2.0118576288223267e-01 -8.5151124000549316e-01</leafValues></_>
        <_>
          <internalNodes>
            0 -1 75 -3.8465266115963459e-03</internalNodes>
          <leafValues>
            4.0849545598030090e-01 -4.3605324625968933e-01</leafValues></_>
        <_>
          <internalNodes>
            0 -1 32 -2.0386932417750359e-02</internalNodes>
          <leafValues>
            4.2344561219215393e-01 -2.9806265234947205e-01</leafValues></_>
        <_>
          <internalNodes>
            0 -1 28 5.8729201555252075e-03</internalNodes>
          <leafValues>
            -2.0387764275074005e-01 6.7812383174896240e-01</leafValues></_>
        <_>
          <internalNodes>
            0 -1 41 5.0857161113526672e-05</internalNodes>
          <leafValues>
            -3.0322450399398804e-01 4.5702233910560608e-01</leafValues></_>
        <_>
          <internalNodes>
            0 -1 2 -1.7971942201256752e-02</internalNodes>
          <leafValues>
            -8.9248353242874146e-01 1.4208519458770752e-01</leafValues></_>
        <_>
          <internalNodes>
            0 -1 15 -3.7987977266311646e-01</internalNodes>
          <leafValues>
            -8.4604418277740479e-01 1.1236222088336945e-01</leafValues></_></weakClassifiers></_></stages>
  <features>
    <_>
      <rects>
        <_>
          0 0 2 1 -1.</_>
        <_>
          1 0 1 1 2.</_></rects>
      <tilted>0</tilted></_>
    <_>
      <rects>
        <_>
          0 0 1 2 -1.</_>
        <_>
          0 1 1 1 2.</_></rects>
      <tilted>0</tilted></_>
    <_>
      <rects>
        <_>
          0 0 1 6 -1.</_>
        <_>
          0 3 1 3 2.</_></rects>
      <tilted>0</tilted></_>
    <_>
      <rects>
        <_>
          0 0 4 1 -1.</_>
        <_>
          2 0 2 1 2.</_></rects>
      <tilted>0</tilted></_>
    <_>
      <rects>
        <_>
          0 0 4 2 -1.</_>
        <_>
          0 0 2 1 2.</_>
        <_>
          2 1 2 1 2.</_></rects>
      <tilted>0</tilted></_>
    <_>
      <rects>
        <_>
          0 0 4 5 -1.</_>
        <_>
          2 0 2 5 2.</_></rects>
      <tilted>0</tilted></_>
    <_>
      <rects>
        <_>
          0 0 4 23 -1.</_>
        <_>
          2 0 2 23 2.</_></rects>
      <tilted>0</tilted></_>
    <_>
      <rects>
        <_>
          0 0 12 1 -1.</_>
        <_>
          6 0 6 1 2.</_></rects>
      <tilted>0</tilted></_>
    <_>
      <rects>
        <_>
          0 0 7 2 -1.</_>
        <_>
          0 1 7 1 2.</_></rects>
      <tilted>0</tilted></_>
    <_>
      <rects>
        <_>
          0 1 1 2 -1.</_>
        <_>
          0 2 1 1 2.</_></rects>
      <tilted>0</tilted></_>
    <_>
      <rects>
        <_>
          0 1 2 2 -1.</_>
        <_>
          0 1 1 1 2.</_>
        <_>
          1 2 1 1 2.</_></rects>
      <tilted>0</tilted></_>
    <_>
      <rects>
        <_>
          0 1 1 21 -1.</_>
        <_>
          0 8 1 7 3.</_></rects>
      <tilted>0</tilted></_>
    <_>
      <rects>
        <_>
          0 1 4 23 -1.</_>
        <_>
          2 1 2 23 2.</_></rects>
      <tilted>0</tilted></_>
    <_>
      <rects>
        <_>
          0 2 2 6 -1.</_>
        <_>
          1 2 1 6 2.</_></rects>
      <tilted>0</tilted></_>
    <_>
      <rects>
        <_>
          0 2 2 20 -1.</_>
        <_>
          1 2 1 20 2.</_></rects>
      <tilted>0</tilted></_>
    <_>
      <rects>
        <_>
          0 2 12 9 -1.</_>
        <_>
          4 2 4 9 3.</_></rects>
      <tilted>0</tilted></_>
    <_>
      <rects>
        <_>
          0 3 2 20 -1.</_>
        <_>
          1 3 1 20 2.</_></rects>
      <tilted>0</tilted></_>
    <_>
      <rects>
        <_>
          0 4 2 2 -1.</_>
        <_>
          1 4 1 2 2.</_></rects>
      <tilted>0</tilted></_>
    <_>
      <rects>
        <_>
          0 4 2 4 -1.</_>
        <_>
          1 4 1 4 2.</_></rects>
      <tilted>0</tilted></_>
    <_>
      <rects>
        <_>
          0 5 2 14 -1.</_>
        <_>
          1 5 1 14 2.</_></rects>
      <tilted>0</tilted></_>
    <_>
      <rects>
        <_>
          0 6 4 17 -1.</_>
        <_>
          2 6 2 17 2.</_></rects>
      <tilted>0</tilted></_>
    <_>
      <rects>
        <_>
          0 11 4 12 -1.</_>
        <_>
          2 11 2 12 2.</_></rects>
      <tilted>0</tilted></_>
    <_>
      <rects>
        <_>
          0 17 4 5 -1.</_>
        <_>
          2 17 2 5 2.</_></rects>
      <tilted>0</tilted></_>
    <_>
      <rects>
        <_>
          0 18 4 6 -1.</_>
        <_>
          2 18 2 6 2.</_></rects>
      <tilted>0</tilted></_>
    <_>
      <rects>
        <_>
          0 22 2 2 -1.</_>
        <_>
          0 22 1 1 2.</_>
        <_>
          1 23 1 1 2.</_></rects>
      <tilted>0</tilted></_>
    <_>
      <rects>
        <_>
          1 0 2 1 -1.</_>
        <_>
          2 0 1 1 2.</_></rects>
      <tilted>0</tilted></_>
    <_>
      <rects>
        <_>
          1 0 4 4 -1.</_>
        <_>
          1 2 4 2 2.</_></rects>
      <tilted>0</tilted></_>
    <_>
      <rects>
        <_>
          1 3 2 14 -1.</_>
        <_>
          2 3 1 14 2.</_></rects>
      <tilted>0</tilted></_>
    <_>
      <rects>
        <_>
          1 18 3 3 -1.</_>
        <_>
          2 18 1 3 3.</_></rects>
      <tilted>0</tilted></_>
    <_>
      <rects>
        <_>
          1 21 9 3 -1.</_>
        <_>
          1 22 9 1 3.</_></rects>
      <tilted>0</tilted></_>
    <_>
      <rects>
        <_>
          1 22 1 2 -1.</_>
        <_>
          1 23 1 1 2.</_></rects>
      <tilted>0</tilted></_>
    <_>
      <rects>
        <_>
          1 22 3 2 -1.</_>
        <_>
          1 23 3 1 2.</_></rects>
      <tilted>0</tilted></_>
    <_>
      <rects>
        <_>
          1 23 9 1 -1.</_>
        <_>
          4 23 3 1 3.</_></rects>
      <tilted>0</tilted></_>
    <_>
      <rects>
        <_>
          2 0 3 4 -1.</_>
        <_>
          2 2 3 2 2.</_></rects>
      <tilted>0</tilted></_>
    <_>
      <rects>
        <_>
          2 4 8 6 -1.</_>
        <_>
          2 6 8 2 3.</_></rects>
      <tilted>0</tilted></_>
    <_>
      <rects>
        <_>
          3 0 7 2 -1.</_>
        <_>
          3 1 7 1 2.</_></rects>
      <tilted>0</tilted></_>
    <_>
      <rects>
        <_>
          3 1 8 12 -1.</_>
        <_>
          3 5 8 4 3.</_></rects>
      <tilted>0</tilted></_>
    <_>
      <rects>
        <_>
          3 2 8 9 -1.</_>
        <_>
          3 5 8 3 3.</_></rects>
      <tilted>0</tilted></_>
    <_>
      <rects>
        <_>
          3 3 2 21 -1.</_>
        <_>
          3 10 2 7 3.</_></rects>
      <tilted>0</tilted></_>
    <_>
      <rects>
        <_>
          3 3 7 9 -1.</_>
        <_>
          3 6 7 3 3.</_></rects>
      <tilted>0</tilted></_>
    <_>
      <rects>
        <_>
          3 3 9 12 -1.</_>
        <_>
          3 9 9 6 2.</_></rects>
      <tilted>0</tilted></_>
    <_>
      <rects>
        <_>
          3 18 2 6 -1.</_>
        <_>
          4 18 1 6 2.</_></rects>
      <tilted>0</tilted></_>
    <_>
      <rects>
        <_>
          4 0 2 1 -1.</_>
        <_>
          5 0 1 1 2.</_></rects>
      <tilted>0</tilted></_>
    <_>
      <rects>
        <_>
          4 0 2 2 -1.</_>
        <_>
          4 1 2 1 2.</_></rects>
      <tilted>0</tilted></_>
    <_>
      <rects>
        <_>
          4 0 3 2 -1.</_>
        <_>
          4 1 3 1 2.</_></rects>
      <tilted>0</tilted></_>
    <_>
      <rects>
        <_>
          4 0 3 6 -1.</_>
        <_>
          4 3 3 3 2.</_></rects>
      <tilted>0</tilted></_>
    <_>
      <rects>
        <_>
          4 0 6 2 -1.</_>
        <_>
          4 1 6 1 2.</_></rects>
      <tilted>0</tilted></_>
    <_>
      <rects>
        <_>
          4 2 3 1 -1.</_>
        <_>
          5 2 1 1 3.</_></rects>
      <tilted>0</tilted></_>
    <_>
      <rects>
        <_>
          4 2 3 2 -1.</_>
        <_>
          5 2 1 2 3.</_></rects>
      <tilted>0</tilted></_>
    <_>
      <rects>
        <_>
          4 2 4 2 -1.</_>
        <_>
          4 2 2 1 2.</_>
        <_>
          6 3 2 1 2.</_></rects>
      <tilted>0</tilted></_>
    <_>
      <rects>
        <_>
          4 3 7 6 -1.</_>
        <_>
          4 5 7 2 3.</_></rects>
      <tilted>0</tilted></_>
    <_>
      <rects>
        <_>
          5 0 2 2 -1.</_>
        <_>
          5 1 2 1 2.</_></rects>
      <tilted>0</tilted></_>
    <_>
      <rects>
        <_>
          5 0 6 1 -1.</_>
        <_>
          8 0 3 1 2.</_></rects>
      <tilted>0</tilted></_>
    <_>
      <rects>
        <_>
          5 3 3 1 -1.</_>
        <_>
          6 3 1 1 3.</_></rects>
      <tilted>0</tilted></_>
    <_>
      <rects>
        <_>
          5 23 6 1 -1.</_>
        <_>
          8 23 3 1 2.</_></rects>
      <tilted>0</tilted></_>
    <_>
      <rects>
        <_>
          6 0 2 2 -1.</_>
        <_>
          6 1 2 1 2.</_></rects>
      <tilted>0</tilted></_>
    <_>
      <rects>
        <_>
          6 0 3 3 -1.</_>
        <_>
          6 1 3 1 3.</_></rects>
      <tilted>0</tilted></_>
    <_>
      <rects>
        <_>
          6 0 5 2 -1.</_>
        <_>
          6 1 5 1 2.</_></rects>
      <tilted>0</tilted></_>
    <_>
      <rects>
        <_>
          6 0 6 2 -1.</_>
        <_>
          6 1 6 1 2.</_></rects>
      <tilted>0</tilted></_>
    <_>
      <rects>
        <_>
          6 2 3 1 -1.</_>
        <_>
          7 2 1 1 3.</_></rects>
      <tilted>0</tilted></_>
    <_>
      <rects>
        <_>
          6 2 6 12 -1.</_>
        <_>
          8 2 2 12 3.</_></rects>
      <tilted>0</tilted></_>
    <_>
      <rects>
        <_>
          6 21 6 3 -1.</_>
        <_>
          9 21 3 3 2.</_></rects>
      <tilted>0</tilted></_>
    <_>
      <rects>
        <_>
          6 22 6 2 -1.</_>
        <_>
          6 23 6 1 2.</_></rects>
      <tilted>0</tilted></_>
    <_>
      <rects>
        <_>
          7 0 4 2 -1.</_>
        <_>
          7 1 4 1 2.</_></rects>
      <tilted>0</tilted></_>
    <_>
      <rects>
        <_>
          7 0 5 9 -1.</_>
        <_>
          7 3 5 3 3.</_></rects>
      <tilted>0</tilted></_>
    <_>
      <rects>
        <_>
          7 2 2 2 -1.</_>
        <_>
          7 2 1 1 2.</_>
        <_>
          8 3 1 1 2.</_></rects>
      <tilted>0</tilted></_>
    <_>
      <rects>
        <_>
          7 2 2 2 -1.</_>
        <_>
          7 3 2 1 2.</_></rects>
      <tilted>0</tilted></_>
    <_>
      <rects>
        <_>
          7 3 3 1 -1.</_>
        <_>
          8 3 1 1 3.</_></rects>
      <tilted>0</tilted></_>
    <_>
      <rects>
        <_>
          7 3 4 20 -1.</_>
        <_>
          7 3 2 10 2.</_>
        <_>
          9 13 2 10 2.</_></rects>
      <tilted>0</tilted></_>
    <_>
      <rects>
        <_>
          7 14 4 9 -1.</_>
        <_>
          9 14 2 9 2.</_></rects>
      <tilted>0</tilted></_>
    <_>
      <rects>
        <_>
          7 22 4 2 -1.</_>
        <_>
          7 23 4 1 2.</_></rects>
      <tilted>0</tilted></_>
    <_>
      <rects>
        <_>
          8 4 2 1 -1.</_>
        <_>
          9 4 1 1 2.</_></rects>
      <tilted>0</tilted></_>
    <_>
      <rects>
        <_>
          8 12 4 12 -1.</_>
        <_>
          10 12 2 12 2.</_></rects>
      <tilted>0</tilted></_>
    <_>
      <rects>
        <_>
          9 0 3 4 -1.</_>
        <_>
          9 2 3 2 2.</_></rects>
      <tilted>0</tilted></_>
    <_>
      <rects>
        <_>
          9 0 3 9 -1.</_>
        <_>
          9 3 3 3 3.</_></rects>
      <tilted>0</tilted></_>
    <_>
      <rects>
        <_>
          9 1 3 3 -1.</_>
        <_>
          10 1 1 3 3.</_></rects>
      <tilted>0</tilted></_>
    <_>
      <rects>
        <_>
          9 2 3 10 -1.</_>
        <_>
          10 2 1 10 3.</_></rects>
      <tilted>0</tilted></_>
    <_>
      <rects>
        <_>
          9 3 3 8 -1.</_>
        <_>
          10 3 1 8 3.</_></rects>
      <tilted>0</tilted></_>
    <_>
      <rects>
        <_>
          9 4 2 2 -1.</_>
        <_>
          10 4 1 2 2.</_></rects>
      <tilted>0</tilted></_>
    <_>
      <rects>
        <_>
          10 0 2 23 -1.</_>
        <_>
          11 0 1 23 2.</_></rects>
      <tilted>0</tilted></_>
    <_>
      <rects>
        <_>
          10 1 2 21 -1.</_>
        <_>
          11 1 1 21 2.</_></rects>
      <tilted>0</tilted></_>
    <_>
      <rects>
        <_>
          10 1 2 23 -1.</_>
        <_>
          11 1 1 23 2.</_></rects>
      <tilted>0</tilted></_>
    <_>
      <rects>
        <_>
          10 8 2 12 -1.</_>
        <_>
          10 8 1 6 2.</_>
        <_>
          11 14 1 6 2.</_></rects>
      <tilted>0</tilted></_>
    <_>
      <rects>
        <_>
          10 14 2 10 -1.</_>
        <_>
          11 14 1 10 2.</_></rects>
      <tilted>0</tilted></_>
    <_>
      <rects>
        <_>
          10 23 2 1 -1.</_>
        <_>
          11 23 1 1 2.</_></rects>
      <tilted>0</tilted></_>
    <_>
      <rects>
        <_>
          11 21 1 3 -1.</_>
        <_>
          11 22 1 1 3.</_></rects>
      <tilted>0</tilted></_></features></cascade>
</opencv_storage>
