<?xml version="1.0"?>
<opencv_storage>
<cascade>
  <stageType>BOOST</stageType>
  <featureType>HAAR</featureType>
  <height>24</height>
  <width>12</width>
  <stageParams>
    <boostType>GAB</boostType>
    <minHitRate>9.9900001287460327e-01</minHitRate>
    <maxFalseAlarm>5.0000000000000000e-01</maxFalseAlarm>
    <weightTrimRate>9.4999999999999996e-01</weightTrimRate>
    <maxDepth>1</maxDepth>
    <maxWeakCount>100</maxWeakCount></stageParams>
  <featureParams>
    <maxCatCount>0</maxCatCount>
    <featSize>1</featSize>
    <mode>BASIC</mode></featureParams>
  <stageNum>6</stageNum>
  <stages>
    <!-- stage 0 -->
    <_>
      <maxWeakCount>1</maxWeakCount>
      <stageThreshold>9.9275362491607666e-01</stageThreshold>
      <weakClassifiers>
        <_>
          <internalNodes>
            0 -1 0 -8.1776320934295654e-02</internalNodes>
          <leafValues>
            9.9275362491607666e-01 -1.</leafValues></_></weakClassifiers></_>
    <!-- stage 1 -->
    <_>
      <maxWeakCount>3</maxWeakCount>
      <stageThreshold>-1.1783794164657593e+00</stageThreshold>
      <weakClassifiers>
        <_>
          <internalNodes>
            0 -1 9 1.6247192025184631e-01</internalNodes>
          <leafValues>
            -9.8152256011962891e-01 7.6767677068710327e-01</leafValues></_>
        <_>
          <internalNodes>
            0 -1 4 -1.1182487010955811e-01</internalNodes>
          <leafValues>
            8.6416798830032349e-01 -9.5260071754455566e-01</leafValues></_>
        <_>
          <internalNodes>
            0 -1 5 -8.3521090447902679e-02</internalNodes>
          <leafValues>
            7.5574392080307007e-01 -9.1734349727630615e-01</leafValues></_></weakClassifiers></_>
    <!-- stage 2 -->
    <_>
      <maxWeakCount>2</maxWeakCount>
      <stageThreshold>-5.4194068908691406e-01</stageThreshold>
      <weakClassifiers>
        <_>
          <internalNodes>
            0 -1 13 7.2189986705780029e-02</internalNodes>
          <leafValues>
            -9.2885375022888184e-01 7.4468082189559937e-01</leafValues></_>
        <_>
          <internalNodes>
            0 -1 1 -2.4819843471050262e-02</internalNodes>
          <leafValues>
            3.8691309094429016e-01 -9.9428892135620117e-01</leafValues></_></weakClassifiers></_>
    <!-- stage 3 -->
    <_>
      <maxWeakCount>2</maxWeakCount>
      <stageThreshold>-4.6906536817550659e-01</stageThreshold>
      <weakClassifiers>
        <_>
          <internalNodes>
            0 -1 7 8.2228228449821472e-02</internalNodes>
          <leafValues>
            -9.1618496179580688e-01 6.3157892227172852e-01</leafValues></_>
        <_>
          <internalNodes>
            0 -1 14 2.4709827266633511e-03</internalNodes>
          <leafValues>
            -9.5949065685272217e-01 4.4711959362030029e-01</leafValues></_></weakClassifiers></_>
    <!-- stage 4 -->
    <_>
      <maxWeakCount>3</maxWeakCount>
      <stageThreshold>-1.4840903282165527e+00</stageThreshold>
      <weakClassifiers>
        <_>
          <internalNodes>
            0 -1 2 -3.2459494471549988e-01</internalNodes>
          <leafValues>
            4.5904174447059631e-01 -9.4119864702224731e-01</leafValues></_>
        <_>
          <internalNodes>
            0 -1 6 9.4400569796562195e-03</internalNodes>
          <leafValues>
            -9.3116939067840576e-01 2.7589201927185059e-01</leafValues></_>
        <_>
          <internalNodes>
            0 -1 8 -1.4029564335942268e-02</internalNodes>
          <leafValues>
            5.3510063886642456e-01 -8.1878370046615601e-01</leafValues></_></weakClassifiers></_>
    <!-- stage 5 -->
    <_>
      <maxWeakCount>4</maxWeakCount>
      <stageThreshold>-2.0727884769439697e+00</stageThreshold>
      <weakClassifiers>
        <_>
          <internalNodes>
            0 -1 12 1.5597911551594734e-02</internalNodes>
          <leafValues>
            -8.9670330286026001e-01 4.3508771061897278e-01</leafValues></_>
        <_>
          <internalNodes>
            0 -1 3 1.4608539640903473e-01</internalNodes>
          <leafValues>
            -9.1503626108169556e-01 4.0696814656257629e-01</leafValues></_>
        <_>
          <internalNodes>
            0 -1 10 -7.8659757971763611e-02</internalNodes>
          <leafValues>
            5.5822795629501343e-01 -7.9791140556335449e-01</leafValues></_>
        <_>
          <internalNodes>
            0 -1 11 -8.7383138015866280e-03</internalNodes>
          <leafValues>
            5.3686249256134033e-01 -8.8335245847702026e-01</leafValues></_></weakClassifiers></_></stages>
  <features>
    <_>
      <rects>
        <_>
          0 2 2 18 -1.</_>
        <_>
          1 2 1 18 2.</_></rects>
      <tilted>0</tilted></_>
    <_>
      <rects>
        <_>
          0 22 4 2 -1.</_>
        <_>
          2 22 2 2 2.</_></rects>
      <tilted>0</tilted></_>
    <_>
      <rects>
        <_>
          1 0 9 12 -1.</_>
        <_>
          1 4 9 4 3.</_></rects>
      <tilted>0</tilted></_>
    <_>
      <rects>
        <_>
          1 5 8 12 -1.</_>
        <_>
          1 9 8 4 3.</_></rects>
      <tilted>0</tilted></_>
    <_>
      <rects>
        <_>
          2 0 9 4 -1.</_>
        <_>
          2 2 9 2 2.</_></rects>
      <tilted>0</tilted></_>
    <_>
      <rects>
        <_>
          2 11 5 9 -1.</_>
        <_>
          2 14 5 3 3.</_></rects>
      <tilted>0</tilted></_>
    <_>
      <rects>
        <_>
          2 15 1 6 -1.</_>
        <_>
          2 17 1 2 3.</_></rects>
      <tilted>0</tilted></_>
    <_>
      <rects>
        <_>
          2 16 4 6 -1.</_>
        <_>
          2 18 4 2 3.</_></rects>
      <tilted>0</tilted></_>
    <_>
      <rects>
        <_>
          3 1 3 2 -1.</_>
        <_>
          3 2 3 1 2.</_></rects>
      <tilted>0</tilted></_>
    <_>
      <rects>
        <_>
          3 6 9 12 -1.</_>
        <_>
          3 10 9 4 3.</_></rects>
      <tilted>0</tilted></_>
    <_>
      <rects>
        <_>
          4 0 3 10 -1.</_>
        <_>
          4 5 3 5 2.</_></rects>
      <tilted>0</tilted></_>
    <_>
      <rects>
        <_>
          9 18 3 3 -1.</_>
        <_>
          10 18 1 3 3.</_></rects>
      <tilted>0</tilted></_>
    <_>
      <rects>
        <_>
          10 2 2 2 -1.</_>
        <_>
          11 2 1 2 2.</_></rects>
      <tilted>0</tilted></_>
    <_>
      <rects>
        <_>
          10 2 2 22 -1.</_>
        <_>
          11 2 1 22 2.</_></rects>
      <tilted>0</tilted></_>
    <_>
      <rects>
        <_>
          10 22 1 2 -1.</_>
        <_>
          10 23 1 1 2.</_></rects>
      <tilted>0</tilted></_></features></cascade>
</opencv_storage>
