<?xml version="1.0"?>
<opencv_storage>
<cascade>
  <stageType>BOOST</stageType>
  <featureType>HAAR</featureType>
  <height>24</height>
  <width>24</width>
  <stageParams>
    <boostType>GAB</boostType>
    <minHitRate>9.9900001287460327e-01</minHitRate>
    <maxFalseAlarm>5.0000000000000000e-01</maxFalseAlarm>
    <weightTrimRate>9.4999999999999996e-01</weightTrimRate>
    <maxDepth>1</maxDepth>
    <maxWeakCount>100</maxWeakCount></stageParams>
  <featureParams>
    <maxCatCount>0</maxCatCount>
    <featSize>1</featSize>
    <mode>BASIC</mode></featureParams>
  <stageNum>10</stageNum>
  <stages>
    <!-- stage 0 -->
    <_>
      <maxWeakCount>3</maxWeakCount>
      <stageThreshold>-1.0205782651901245e+00</stageThreshold>
      <weakClassifiers>
        <_>
          <internalNodes>
            0 -1 5 -8.2118846476078033e-02</internalNodes>
          <leafValues>
            1. -9.7775030136108398e-01</leafValues></_>
        <_>
          <internalNodes>
            0 -1 7 -4.5550148934125900e-02</internalNodes>
          <leafValues>
            8.8812059164047241e-01 -9.6466869115829468e-01</leafValues></_>
        <_>
          <internalNodes>
            0 -1 4 -2.2416871041059494e-02</internalNodes>
          <leafValues>
            9.2184072732925415e-01 -9.2686212062835693e-01</leafValues></_></weakClassifiers></_>
    <!-- stage 1 -->
    <_>
      <maxWeakCount>3</maxWeakCount>
      <stageThreshold>-1.0459511280059814e+00</stageThreshold>
      <weakClassifiers>
        <_>
          <internalNodes>
            0 -1 29 2.4662585929036140e-02</internalNodes>
          <leafValues>
            -9.5771145820617676e-01 8.6734694242477417e-01</leafValues></_>
        <_>
          <internalNodes>
            0 -1 18 -3.5023307800292969e-01</internalNodes>
          <leafValues>
            7.9062861204147339e-01 -9.2281407117843628e-01</leafValues></_>
        <_>
          <internalNodes>
            0 -1 19 2.1878300234675407e-02</internalNodes>
          <leafValues>
            -8.7886828184127808e-01 8.5524559020996094e-01</leafValues></_></weakClassifiers></_>
    <!-- stage 2 -->
    <_>
      <maxWeakCount>3</maxWeakCount>
      <stageThreshold>-1.2518893480300903e+00</stageThreshold>
      <weakClassifiers>
        <_>
          <internalNodes>
            0 -1 6 -4.4955059885978699e-02</internalNodes>
          <leafValues>
            5.6074768304824829e-01 -9.1603052616119385e-01</leafValues></_>
        <_>
          <internalNodes>
            0 -1 1 -1.2087186798453331e-02</internalNodes>
          <leafValues>
            4.5544680953025818e-01 -9.2567193508148193e-01</leafValues></_>
        <_>
          <internalNodes>
            0 -1 10 -9.0878546237945557e-02</internalNodes>
          <leafValues>
            6.6895812749862671e-01 -7.9130566120147705e-01</leafValues></_></weakClassifiers></_>
    <!-- stage 3 -->
    <_>
      <maxWeakCount>3</maxWeakCount>
      <stageThreshold>-1.3567135334014893e+00</stageThreshold>
      <weakClassifiers>
        <_>
          <internalNodes>
            0 -1 32 1.4169219881296158e-02</internalNodes>
          <leafValues>
            -9.1409397125244141e-01 3.1764706969261169e-01</leafValues></_>
        <_>
          <internalNodes>
            0 -1 17 -8.5383974015712738e-02</internalNodes>
          <leafValues>
            4.0159508585929871e-01 -9.4370841979980469e-01</leafValues></_>
        <_>
          <internalNodes>
            0 -1 21 1.3265131972730160e-02</internalNodes>
          <leafValues>
            -8.4421467781066895e-01 5.7711094617843628e-01</leafValues></_></weakClassifiers></_>
    <!-- stage 4 -->
    <_>
      <maxWeakCount>3</maxWeakCount>
      <stageThreshold>-1.4501231908798218e+00</stageThreshold>
      <weakClassifiers>
        <_>
          <internalNodes>
            0 -1 31 1.2910140678286552e-02</internalNodes>
          <leafValues>
            -9.3548387289047241e-01 7.9381442070007324e-01</leafValues></_>
        <_>
          <internalNodes>
            0 -1 30 7.5771054252982140e-03</internalNodes>
          <leafValues>
            -8.6486458778381348e-01 2.8725457191467285e-01</leafValues></_>
        <_>
          <internalNodes>
            0 -1 0 -5.6200090330094099e-04</internalNodes>
          <leafValues>
            3.5022529959678650e-01 -9.8582804203033447e-01</leafValues></_></weakClassifiers></_>
    <!-- stage 5 -->
    <_>
      <maxWeakCount>3</maxWeakCount>
      <stageThreshold>-1.1821017265319824e+00</stageThreshold>
      <weakClassifiers>
        <_>
          <internalNodes>
            0 -1 33 1.8288578838109970e-02</internalNodes>
          <leafValues>
            -9.3900889158248901e-01 6.5258216857910156e-01</leafValues></_>
        <_>
          <internalNodes>
            0 -1 3 -1.0047227144241333e-01</internalNodes>
          <leafValues>
            5.9494322538375854e-01 -8.1106334924697876e-01</leafValues></_>
        <_>
          <internalNodes>
            0 -1 14 -3.5809695720672607e-01</internalNodes>
          <leafValues>
            5.6797057390213013e-01 -7.8978252410888672e-01</leafValues></_></weakClassifiers></_>
    <!-- stage 6 -->
    <_>
      <maxWeakCount>3</maxWeakCount>
      <stageThreshold>-1.3872195482254028e+00</stageThreshold>
      <weakClassifiers>
        <_>
          <internalNodes>
            0 -1 27 -1.4570876955986023e-02</internalNodes>
          <leafValues>
            2.8727272152900696e-01 -9.3655174970626831e-01</leafValues></_>
        <_>
          <internalNodes>
            0 -1 8 4.6754436334595084e-04</internalNodes>
          <leafValues>
            -9.7696954011917114e-01 2.1188604831695557e-01</leafValues></_>
        <_>
          <internalNodes>
            0 -1 13 -6.2209594249725342e-01</internalNodes>
          <leafValues>
            6.2617808580398560e-01 -6.6255390644073486e-01</leafValues></_></weakClassifiers></_>
    <!-- stage 7 -->
    <_>
      <maxWeakCount>5</maxWeakCount>
      <stageThreshold>-1.7276225090026855e+00</stageThreshold>
      <weakClassifiers>
        <_>
          <internalNodes>
            0 -1 11 -3.3767044544219971e-02</internalNodes>
          <leafValues>
            2.8695651888847351e-01 -8.6493504047393799e-01</leafValues></_>
        <_>
          <internalNodes>
            0 -1 24 -3.8783508352935314e-03</internalNodes>
          <leafValues>
            2.4272480607032776e-01 -8.9049142599105835e-01</leafValues></_>
        <_>
          <internalNodes>
            0 -1 12 2.6481334120035172e-02</internalNodes>
          <leafValues>
            -8.1805700063705444e-01 4.2191526293754578e-01</leafValues></_>
        <_>
          <internalNodes>
            0 -1 22 -2.6511299610137939e-01</internalNodes>
          <leafValues>
            4.8222190141677856e-01 -8.8171046972274780e-01</leafValues></_>
        <_>
          <internalNodes>
            0 -1 2 2.2064406948629767e-05</internalNodes>
          <leafValues>
            -7.6957714557647705e-01 4.1830956935882568e-01</leafValues></_></weakClassifiers></_>
    <!-- stage 8 -->
    <_>
      <maxWeakCount>5</maxWeakCount>
      <stageThreshold>-2.1771631240844727e+00</stageThreshold>
      <weakClassifiers>
        <_>
          <internalNodes>
            0 -1 28 -1.5652038156986237e-02</internalNodes>
          <leafValues>
            4.4129553437232971e-01 -9.4156706333160400e-01</leafValues></_>
        <_>
          <internalNodes>
            0 -1 25 2.2182160988450050e-02</internalNodes>
          <leafValues>
            -8.4728074073791504e-01 2.3740173876285553e-01</leafValues></_>
        <_>
          <internalNodes>
            0 -1 34 9.8652482847683132e-05</internalNodes>
          <leafValues>
            -9.1561055183410645e-01 2.1649599075317383e-01</leafValues></_>
        <_>
          <internalNodes>
            0 -1 16 -3.4857846330851316e-03</internalNodes>
          <leafValues>
            -9.9163830280303955e-01 2.4309700727462769e-01</leafValues></_>
        <_>
          <internalNodes>
            0 -1 15 -1.0469182161614299e-03</internalNodes>
          <leafValues>
            -9.3848156929016113e-01 2.8419822454452515e-01</leafValues></_></weakClassifiers></_>
    <!-- stage 9 -->
    <_>
      <maxWeakCount>4</maxWeakCount>
      <stageThreshold>-1.4501494169235229e+00</stageThreshold>
      <weakClassifiers>
        <_>
          <internalNodes>
            0 -1 26 1.9124668091535568e-02</internalNodes>
          <leafValues>
            -9.4771242141723633e-01 -5.1546391099691391e-02</leafValues></_>
        <_>
          <internalNodes>
            0 -1 9 -1.2400407344102859e-02</internalNodes>
          <leafValues>
            4.3115010857582092e-01 -7.0669347047805786e-01</leafValues></_>
        <_>
          <internalNodes>
            0 -1 23 -7.7440435998141766e-03</internalNodes>
          <leafValues>
            -9.5180612802505493e-01 2.5029125809669495e-01</leafValues></_>
        <_>
          <internalNodes>
            0 -1 20 7.8837247565388680e-03</internalNodes>
          <leafValues>
            2.5989657640457153e-01 -1.</leafValues></_></weakClassifiers></_></stages>
  <features>
    <_>
      <rects>
        <_>
          0 0 1 2 -1.</_>
        <_>
          0 1 1 1 2.</_></rects>
      <tilted>0</tilted></_>
    <_>
      <rects>
        <_>
          0 0 22 2 -1.</_>
        <_>
          0 1 22 1 2.</_></rects>
      <tilted>0</tilted></_>
    <_>
      <rects>
        <_>
          0 1 1 2 -1.</_>
        <_>
          0 2 1 1 2.</_></rects>
      <tilted>0</tilted></_>
    <_>
      <rects>
        <_>
          0 1 4 19 -1.</_>
        <_>
          2 1 2 19 2.</_></rects>
      <tilted>0</tilted></_>
    <_>
      <rects>
        <_>
          0 3 2 21 -1.</_>
        <_>
          1 3 1 21 2.</_></rects>
      <tilted>0</tilted></_>
    <_>
      <rects>
        <_>
          0 5 4 19 -1.</_>
        <_>
          2 5 2 19 2.</_></rects>
      <tilted>0</tilted></_>
    <_>
      <rects>
        <_>
          0 8 4 6 -1.</_>
        <_>
          2 8 2 6 2.</_></rects>
      <tilted>0</tilted></_>
    <_>
      <rects>
        <_>
          0 9 4 14 -1.</_>
        <_>
          2 9 2 14 2.</_></rects>
      <tilted>0</tilted></_>
    <_>
      <rects>
        <_>
          0 22 2 2 -1.</_>
        <_>
          0 22 1 1 2.</_>
        <_>
          1 23 1 1 2.</_></rects>
      <tilted>0</tilted></_>
    <_>
      <rects>
        <_>
          1 4 3 7 -1.</_>
        <_>
          2 4 1 7 3.</_></rects>
      <tilted>0</tilted></_>
    <_>
      <rects>
        <_>
          1 5 23 6 -1.</_>
        <_>
          1 8 23 3 2.</_></rects>
      <tilted>0</tilted></_>
    <_>
      <rects>
        <_>
          1 7 2 14 -1.</_>
        <_>
          2 7 1 14 2.</_></rects>
      <tilted>0</tilted></_>
    <_>
      <rects>
        <_>
          1 22 23 2 -1.</_>
        <_>
          1 23 23 1 2.</_></rects>
      <tilted>0</tilted></_>
    <_>
      <rects>
        <_>
          2 0 21 24 -1.</_>
        <_>
          2 8 21 8 3.</_></rects>
      <tilted>0</tilted></_>
    <_>
      <rects>
        <_>
          3 2 19 16 -1.</_>
        <_>
          3 10 19 8 2.</_></rects>
      <tilted>0</tilted></_>
    <_>
      <rects>
        <_>
          3 5 6 4 -1.</_>
        <_>
          5 5 2 4 3.</_></rects>
      <tilted>0</tilted></_>
    <_>
      <rects>
        <_>
          3 6 12 4 -1.</_>
        <_>
          7 6 4 4 3.</_></rects>
      <tilted>0</tilted></_>
    <_>
      <rects>
        <_>
          4 0 5 14 -1.</_>
        <_>
          4 7 5 7 2.</_></rects>
      <tilted>0</tilted></_>
    <_>
      <rects>
        <_>
          4 0 15 18 -1.</_>
        <_>
          4 9 15 9 2.</_></rects>
      <tilted>0</tilted></_>
    <_>
      <rects>
        <_>
          5 22 17 2 -1.</_>
        <_>
          5 23 17 1 2.</_></rects>
      <tilted>0</tilted></_>
    <_>
      <rects>
        <_>
          6 12 15 10 -1.</_>
        <_>
          11 12 5 10 3.</_></rects>
      <tilted>0</tilted></_>
    <_>
      <rects>
        <_>
          7 22 9 2 -1.</_>
        <_>
          7 23 9 1 2.</_></rects>
      <tilted>0</tilted></_>
    <_>
      <rects>
        <_>
          9 0 12 22 -1.</_>
        <_>
          9 11 12 11 2.</_></rects>
      <tilted>0</tilted></_>
    <_>
      <rects>
        <_>
          9 5 12 12 -1.</_>
        <_>
          13 5 4 12 3.</_></rects>
      <tilted>0</tilted></_>
    <_>
      <rects>
        <_>
          15 0 8 2 -1.</_>
        <_>
          15 1 8 1 2.</_></rects>
      <tilted>0</tilted></_>
    <_>
      <rects>
        <_>
          20 12 4 12 -1.</_>
        <_>
          22 12 2 12 2.</_></rects>
      <tilted>0</tilted></_>
    <_>
      <rects>
        <_>
          20 14 4 9 -1.</_>
        <_>
          22 14 2 9 2.</_></rects>
      <tilted>0</tilted></_>
    <_>
      <rects>
        <_>
          21 0 3 14 -1.</_>
        <_>
          22 0 1 14 3.</_></rects>
      <tilted>0</tilted></_>
    <_>
      <rects>
        <_>
          21 7 3 11 -1.</_>
        <_>
          22 7 1 11 3.</_></rects>
      <tilted>0</tilted></_>
    <_>
      <rects>
        <_>
          22 5 2 19 -1.</_>
        <_>
          23 5 1 19 2.</_></rects>
      <tilted>0</tilted></_>
    <_>
      <rects>
        <_>
          22 9 2 10 -1.</_>
        <_>
          23 9 1 10 2.</_></rects>
      <tilted>0</tilted></_>
    <_>
      <rects>
        <_>
          22 11 2 6 -1.</_>
        <_>
          23 11 1 6 2.</_></rects>
      <tilted>0</tilted></_>
    <_>
      <rects>
        <_>
          22 12 2 6 -1.</_>
        <_>
          23 12 1 6 2.</_></rects>
      <tilted>0</tilted></_>
    <_>
      <rects>
        <_>
          22 12 2 10 -1.</_>
        <_>
          23 12 1 10 2.</_></rects>
      <tilted>0</tilted></_>
    <_>
      <rects>
        <_>
          23 22 1 2 -1.</_>
        <_>
          23 23 1 1 2.</_></rects>
      <tilted>0</tilted></_></features></cascade>
</opencv_storage>
