<?xml version="1.0"?>
<opencv_storage>
<cascade>
  <stageType>BOOST</stageType>
  <featureType>HAAR</featureType>
  <height>24</height>
  <width>12</width>
  <stageParams>
    <boostType>GAB</boostType>
    <minHitRate>9.9900001287460327e-01</minHitRate>
    <maxFalseAlarm>5.0000000000000000e-01</maxFalseAlarm>
    <weightTrimRate>9.4999999999999996e-01</weightTrimRate>
    <maxDepth>1</maxDepth>
    <maxWeakCount>100</maxWeakCount></stageParams>
  <featureParams>
    <maxCatCount>0</maxCatCount>
    <featSize>1</featSize>
    <mode>BASIC</mode></featureParams>
  <stageNum>11</stageNum>
  <stages>
    <!-- stage 0 -->
    <_>
      <maxWeakCount>3</maxWeakCount>
      <stageThreshold>-1.2874095439910889e+00</stageThreshold>
      <weakClassifiers>
        <_>
          <internalNodes>
            0 -1 13 -1.0638646036386490e-01</internalNodes>
          <leafValues>
            8.3362829685211182e-01 -9.7659963369369507e-01</leafValues></_>
        <_>
          <internalNodes>
            0 -1 45 3.4071408212184906e-02</internalNodes>
          <leafValues>
            -9.3326455354690552e-01 7.0167315006256104e-01</leafValues></_>
        <_>
          <internalNodes>
            0 -1 15 -9.4447754323482513e-02</internalNodes>
          <leafValues>
            6.2245464324951172e-01 -9.9345070123672485e-01</leafValues></_></weakClassifiers></_>
    <!-- stage 1 -->
    <_>
      <maxWeakCount>4</maxWeakCount>
      <stageThreshold>-1.9815479516983032e+00</stageThreshold>
      <weakClassifiers>
        <_>
          <internalNodes>
            0 -1 10 -1.5554827451705933e-01</internalNodes>
          <leafValues>
            5.1203852891921997e-01 -9.4097870588302612e-01</leafValues></_>
        <_>
          <internalNodes>
            0 -1 31 1.6696780920028687e-02</internalNodes>
          <leafValues>
            -9.5163273811340332e-01 4.7328779101371765e-01</leafValues></_>
        <_>
          <internalNodes>
            0 -1 28 -4.2332303524017334e-01</internalNodes>
          <leafValues>
            6.4982104301452637e-01 -7.3229551315307617e-01</leafValues></_>
        <_>
          <internalNodes>
            0 -1 5 -1.1252306401729584e-02</internalNodes>
          <leafValues>
            6.4335906505584717e-01 -7.3176157474517822e-01</leafValues></_></weakClassifiers></_>
    <!-- stage 2 -->
    <_>
      <maxWeakCount>6</maxWeakCount>
      <stageThreshold>-2.3837139606475830e+00</stageThreshold>
      <weakClassifiers>
        <_>
          <internalNodes>
            0 -1 12 -7.8093670308589935e-02</internalNodes>
          <leafValues>
            1.8804483115673065e-01 -9.4152981042861938e-01</leafValues></_>
        <_>
          <internalNodes>
            0 -1 40 5.1139183342456818e-02</internalNodes>
          <leafValues>
            -9.3605983257293701e-01 3.1662216782569885e-01</leafValues></_>
        <_>
          <internalNodes>
            0 -1 25 -1.3031865470111370e-02</internalNodes>
          <leafValues>
            3.0132707953453064e-01 -8.9496392011642456e-01</leafValues></_>
        <_>
          <internalNodes>
            0 -1 11 -3.5085409879684448e-02</internalNodes>
          <leafValues>
            5.6056797504425049e-01 -6.9932091236114502e-01</leafValues></_>
        <_>
          <internalNodes>
            0 -1 32 -1.3306364417076111e-01</internalNodes>
          <leafValues>
            4.8605313897132874e-01 -9.2967963218688965e-01</leafValues></_>
        <_>
          <internalNodes>
            0 -1 43 2.7430914342403412e-02</internalNodes>
          <leafValues>
            -6.5778142213821411e-01 6.3919013738632202e-01</leafValues></_></weakClassifiers></_>
    <!-- stage 3 -->
    <_>
      <maxWeakCount>3</maxWeakCount>
      <stageThreshold>-1.5639110803604126e+00</stageThreshold>
      <weakClassifiers>
        <_>
          <internalNodes>
            0 -1 3 -1.8784406781196594e-01</internalNodes>
          <leafValues>
            9.8191216588020325e-02 -9.0102928876876831e-01</leafValues></_>
        <_>
          <internalNodes>
            0 -1 37 9.5469160005450249e-03</internalNodes>
          <leafValues>
            -9.3831080198287964e-01 1.9383782148361206e-01</leafValues></_>
        <_>
          <internalNodes>
            0 -1 0 -3.6577822174876928e-04</internalNodes>
          <leafValues>
            2.7542901039123535e-01 -9.9187868833541870e-01</leafValues></_></weakClassifiers></_>
    <!-- stage 4 -->
    <_>
      <maxWeakCount>5</maxWeakCount>
      <stageThreshold>-1.9133112430572510e+00</stageThreshold>
      <weakClassifiers>
        <_>
          <internalNodes>
            0 -1 28 -4.7412425279617310e-01</internalNodes>
          <leafValues>
            1.5094339847564697e-01 -8.6186188459396362e-01</leafValues></_>
        <_>
          <internalNodes>
            0 -1 2 -9.2696011066436768e-02</internalNodes>
          <leafValues>
            3.1195744872093201e-01 -8.3451426029205322e-01</leafValues></_>
        <_>
          <internalNodes>
            0 -1 26 1.8299326300621033e-02</internalNodes>
          <leafValues>
            -9.2994278669357300e-01 3.6689537763595581e-01</leafValues></_>
        <_>
          <internalNodes>
            0 -1 38 -1.2486109510064125e-02</internalNodes>
          <leafValues>
            4.2100328207015991e-01 -7.2337293624877930e-01</leafValues></_>
        <_>
          <internalNodes>
            0 -1 21 -3.8454896211624146e-01</internalNodes>
          <leafValues>
            4.2357546091079712e-01 -8.0413472652435303e-01</leafValues></_></weakClassifiers></_>
    <!-- stage 5 -->
    <_>
      <maxWeakCount>3</maxWeakCount>
      <stageThreshold>-1.4515959024429321e+00</stageThreshold>
      <weakClassifiers>
        <_>
          <internalNodes>
            0 -1 16 -2.3868361115455627e-01</internalNodes>
          <leafValues>
            -1.3454546034336090e-01 -9.3272727727890015e-01</leafValues></_>
        <_>
          <internalNodes>
            0 -1 42 -8.5519105195999146e-03</internalNodes>
          <leafValues>
            2.9179137945175171e-01 -7.7691227197647095e-01</leafValues></_>
        <_>
          <internalNodes>
            0 -1 17 5.0583324627950788e-04</internalNodes>
          <leafValues>
            -9.9307411909103394e-01 2.5804361701011658e-01</leafValues></_></weakClassifiers></_>
    <!-- stage 6 -->
    <_>
      <maxWeakCount>6</maxWeakCount>
      <stageThreshold>-1.6226726770401001e+00</stageThreshold>
      <weakClassifiers>
        <_>
          <internalNodes>
            0 -1 44 3.6882005631923676e-02</internalNodes>
          <leafValues>
            -9.1094958782196045e-01 -1.7743402719497681e-01</leafValues></_>
        <_>
          <internalNodes>
            0 -1 27 -3.5548883676528931e-01</internalNodes>
          <leafValues>
            2.8398862481117249e-01 -7.6979285478591919e-01</leafValues></_>
        <_>
          <internalNodes>
            0 -1 37 1.0007964447140694e-02</internalNodes>
          <leafValues>
            -8.1330943107604980e-01 3.5127624869346619e-01</leafValues></_>
        <_>
          <internalNodes>
            0 -1 9 -1.9979867339134216e-01</internalNodes>
          <leafValues>
            4.4735503196716309e-01 -7.4315828084945679e-01</leafValues></_>
        <_>
          <internalNodes>
            0 -1 48 1.5015358803793788e-04</internalNodes>
          <leafValues>
            -9.6043825149536133e-01 3.1146526336669922e-01</leafValues></_>
        <_>
          <internalNodes>
            0 -1 7 -3.5572320484789088e-05</internalNodes>
          <leafValues>
            2.4929073452949524e-01 -8.8130962848663330e-01</leafValues></_></weakClassifiers></_>
    <!-- stage 7 -->
    <_>
      <maxWeakCount>6</maxWeakCount>
      <stageThreshold>-1.7055319547653198e+00</stageThreshold>
      <weakClassifiers>
        <_>
          <internalNodes>
            0 -1 46 2.5839284062385559e-02</internalNodes>
          <leafValues>
            -9.2223238945007324e-01 -1.6517055034637451e-01</leafValues></_>
        <_>
          <internalNodes>
            0 -1 23 -1.4646985568106174e-02</internalNodes>
          <leafValues>
            2.5063350796699524e-01 -7.4685901403427124e-01</leafValues></_>
        <_>
          <internalNodes>
            0 -1 35 -6.2051318585872650e-02</internalNodes>
          <leafValues>
            2.5365057587623596e-01 -8.6593985557556152e-01</leafValues></_>
        <_>
          <internalNodes>
            0 -1 22 -6.5233922214247286e-05</internalNodes>
          <leafValues>
            3.2442715764045715e-01 -8.3093351125717163e-01</leafValues></_>
        <_>
          <internalNodes>
            0 -1 33 -2.9457118362188339e-02</internalNodes>
          <leafValues>
            6.4210802316665649e-01 -4.7018748521804810e-01</leafValues></_>
        <_>
          <internalNodes>
            0 -1 30 -3.2686251215636730e-03</internalNodes>
          <leafValues>
            3.3394518494606018e-01 -9.0139263868331909e-01</leafValues></_></weakClassifiers></_>
    <!-- stage 8 -->
    <_>
      <maxWeakCount>4</maxWeakCount>
      <stageThreshold>-1.2176275253295898e+00</stageThreshold>
      <weakClassifiers>
        <_>
          <internalNodes>
            0 -1 34 -4.3500542640686035e-02</internalNodes>
          <leafValues>
            5.9292036294937134e-01 -7.5927132368087769e-01</leafValues></_>
        <_>
          <internalNodes>
            0 -1 29 -5.4240982979536057e-02</internalNodes>
          <leafValues>
            2.2867637872695923e-01 -8.0984568595886230e-01</leafValues></_>
        <_>
          <internalNodes>
            0 -1 6 -2.3602980375289917e-01</internalNodes>
          <leafValues>
            2.5251019001007080e-01 -9.0151089429855347e-01</leafValues></_>
        <_>
          <internalNodes>
            0 -1 1 -1.9435992464423180e-02</internalNodes>
          <leafValues>
            -9.3954277038574219e-01 3.1764057278633118e-01</leafValues></_></weakClassifiers></_>
    <!-- stage 9 -->
    <_>
      <maxWeakCount>5</maxWeakCount>
      <stageThreshold>-2.0517950057983398e+00</stageThreshold>
      <weakClassifiers>
        <_>
          <internalNodes>
            0 -1 41 -2.0411679521203041e-02</internalNodes>
          <leafValues>
            -9.9557518959045410e-02 -8.8063436746597290e-01</leafValues></_>
        <_>
          <internalNodes>
            0 -1 8 5.1882266998291016e-03</internalNodes>
          <leafValues>
            5.0184473395347595e-02 -9.6241635084152222e-01</leafValues></_>
        <_>
          <internalNodes>
            0 -1 20 -1.7553595826029778e-03</internalNodes>
          <leafValues>
            -8.2816618680953979e-01 2.2846427559852600e-01</leafValues></_>
        <_>
          <internalNodes>
            0 -1 4 -7.0952475653029978e-05</internalNodes>
          <leafValues>
            3.2891920208930969e-01 -8.7339276075363159e-01</leafValues></_>
        <_>
          <internalNodes>
            0 -1 14 -4.4076636433601379e-02</internalNodes>
          <leafValues>
            2.8878369927406311e-01 -7.6612758636474609e-01</leafValues></_></weakClassifiers></_>
    <!-- stage 10 -->
    <_>
      <maxWeakCount>7</maxWeakCount>
      <stageThreshold>-1.6314707994461060e+00</stageThreshold>
      <weakClassifiers>
        <_>
          <internalNodes>
            0 -1 39 -2.5160491466522217e-02</internalNodes>
          <leafValues>
            5.0434780120849609e-01 -7.5439739227294922e-01</leafValues></_>
        <_>
          <internalNodes>
            0 -1 47 1.7476793378591537e-02</internalNodes>
          <leafValues>
            -8.4254962205886841e-01 1.5579959750175476e-01</leafValues></_>
        <_>
          <internalNodes>
            0 -1 19 -1.0834565619006753e-03</internalNodes>
          <leafValues>
            -8.7290811538696289e-01 2.3889051377773285e-01</leafValues></_>
        <_>
          <internalNodes>
            0 -1 19 -3.2209092751145363e-05</internalNodes>
          <leafValues>
            3.6394605040550232e-01 -8.2959455251693726e-01</leafValues></_>
        <_>
          <internalNodes>
            0 -1 24 -4.8434319905936718e-03</internalNodes>
          <leafValues>
            2.2573068737983704e-01 -8.9144283533096313e-01</leafValues></_>
        <_>
          <internalNodes>
            0 -1 18 -2.1380777470767498e-03</internalNodes>
          <leafValues>
            1.9084136188030243e-01 -9.5616823434829712e-01</leafValues></_>
        <_>
          <internalNodes>
            0 -1 36 -1.3741724193096161e-01</internalNodes>
          <leafValues>
            2.1190148591995239e-01 -7.9381811618804932e-01</leafValues></_></weakClassifiers></_></stages>
  <features>
    <_>
      <rects>
        <_>
          0 0 1 2 -1.</_>
        <_>
          0 1 1 1 2.</_></rects>
      <tilted>0</tilted></_>
    <_>
      <rects>
        <_>
          0 0 1 18 -1.</_>
        <_>
          0 9 1 9 2.</_></rects>
      <tilted>0</tilted></_>
    <_>
      <rects>
        <_>
          0 0 4 17 -1.</_>
        <_>
          2 0 2 17 2.</_></rects>
      <tilted>0</tilted></_>
    <_>
      <rects>
        <_>
          0 0 4 23 -1.</_>
        <_>
          2 0 2 23 2.</_></rects>
      <tilted>0</tilted></_>
    <_>
      <rects>
        <_>
          0 0 6 1 -1.</_>
        <_>
          3 0 3 1 2.</_></rects>
      <tilted>0</tilted></_>
    <_>
      <rects>
        <_>
          0 0 11 2 -1.</_>
        <_>
          0 1 11 1 2.</_></rects>
      <tilted>0</tilted></_>
    <_>
      <rects>
        <_>
          0 0 11 18 -1.</_>
        <_>
          0 9 11 9 2.</_></rects>
      <tilted>0</tilted></_>
    <_>
      <rects>
        <_>
          0 1 2 2 -1.</_>
        <_>
          0 1 1 1 2.</_>
        <_>
          1 2 1 1 2.</_></rects>
      <tilted>0</tilted></_>
    <_>
      <rects>
        <_>
          0 4 1 20 -1.</_>
        <_>
          0 14 1 10 2.</_></rects>
      <tilted>0</tilted></_>
    <_>
      <rects>
        <_>
          0 4 6 20 -1.</_>
        <_>
          3 4 3 20 2.</_></rects>
      <tilted>0</tilted></_>
    <_>
      <rects>
        <_>
          0 5 4 18 -1.</_>
        <_>
          2 5 2 18 2.</_></rects>
      <tilted>0</tilted></_>
    <_>
      <rects>
        <_>
          0 7 2 15 -1.</_>
        <_>
          1 7 1 15 2.</_></rects>
      <tilted>0</tilted></_>
    <_>
      <rects>
        <_>
          0 11 4 7 -1.</_>
        <_>
          2 11 2 7 2.</_></rects>
      <tilted>0</tilted></_>
    <_>
      <rects>
        <_>
          0 11 4 13 -1.</_>
        <_>
          2 11 2 13 2.</_></rects>
      <tilted>0</tilted></_>
    <_>
      <rects>
        <_>
          0 12 6 5 -1.</_>
        <_>
          2 12 2 5 3.</_></rects>
      <tilted>0</tilted></_>
    <_>
      <rects>
        <_>
          0 14 6 10 -1.</_>
        <_>
          3 14 3 10 2.</_></rects>
      <tilted>0</tilted></_>
    <_>
      <rects>
        <_>
          0 17 12 7 -1.</_>
        <_>
          4 17 4 7 3.</_></rects>
      <tilted>0</tilted></_>
    <_>
      <rects>
        <_>
          0 22 2 2 -1.</_>
        <_>
          0 22 1 1 2.</_>
        <_>
          1 23 1 1 2.</_></rects>
      <tilted>0</tilted></_>
    <_>
      <rects>
        <_>
          0 23 4 1 -1.</_>
        <_>
          2 23 2 1 2.</_></rects>
      <tilted>0</tilted></_>
    <_>
      <rects>
        <_>
          1 0 2 1 -1.</_>
        <_>
          2 0 1 1 2.</_></rects>
      <tilted>0</tilted></_>
    <_>
      <rects>
        <_>
          1 0 4 1 -1.</_>
        <_>
          3 0 2 1 2.</_></rects>
      <tilted>0</tilted></_>
    <_>
      <rects>
        <_>
          1 0 10 22 -1.</_>
        <_>
          1 11 10 11 2.</_></rects>
      <tilted>0</tilted></_>
    <_>
      <rects>
        <_>
          1 1 2 1 -1.</_>
        <_>
          2 1 1 1 2.</_></rects>
      <tilted>0</tilted></_>
    <_>
      <rects>
        <_>
          1 10 3 6 -1.</_>
        <_>
          2 10 1 6 3.</_></rects>
      <tilted>0</tilted></_>
    <_>
      <rects>
        <_>
          1 18 4 6 -1.</_>
        <_>
          1 20 4 2 3.</_></rects>
      <tilted>0</tilted></_>
    <_>
      <rects>
        <_>
          1 21 11 3 -1.</_>
        <_>
          1 22 11 1 3.</_></rects>
      <tilted>0</tilted></_>
    <_>
      <rects>
        <_>
          1 22 11 2 -1.</_>
        <_>
          1 23 11 1 2.</_></rects>
      <tilted>0</tilted></_>
    <_>
      <rects>
        <_>
          2 0 6 22 -1.</_>
        <_>
          2 11 6 11 2.</_></rects>
      <tilted>0</tilted></_>
    <_>
      <rects>
        <_>
          2 0 7 22 -1.</_>
        <_>
          2 11 7 11 2.</_></rects>
      <tilted>0</tilted></_>
    <_>
      <rects>
        <_>
          2 19 9 5 -1.</_>
        <_>
          5 19 3 5 3.</_></rects>
      <tilted>0</tilted></_>
    <_>
      <rects>
        <_>
          3 21 4 3 -1.</_>
        <_>
          3 22 4 1 3.</_></rects>
      <tilted>0</tilted></_>
    <_>
      <rects>
        <_>
          3 22 9 2 -1.</_>
        <_>
          3 23 9 1 2.</_></rects>
      <tilted>0</tilted></_>
    <_>
      <rects>
        <_>
          5 0 4 22 -1.</_>
        <_>
          5 11 4 11 2.</_></rects>
      <tilted>0</tilted></_>
    <_>
      <rects>
        <_>
          5 0 5 4 -1.</_>
        <_>
          5 2 5 2 2.</_></rects>
      <tilted>0</tilted></_>
    <_>
      <rects>
        <_>
          5 3 6 2 -1.</_>
        <_>
          7 3 2 2 3.</_></rects>
      <tilted>0</tilted></_>
    <_>
      <rects>
        <_>
          5 6 3 16 -1.</_>
        <_>
          5 14 3 8 2.</_></rects>
      <tilted>0</tilted></_>
    <_>
      <rects>
        <_>
          6 0 3 24 -1.</_>
        <_>
          6 12 3 12 2.</_></rects>
      <tilted>0</tilted></_>
    <_>
      <rects>
        <_>
          6 22 5 2 -1.</_>
        <_>
          6 23 5 1 2.</_></rects>
      <tilted>0</tilted></_>
    <_>
      <rects>
        <_>
          8 0 4 4 -1.</_>
        <_>
          8 2 4 2 2.</_></rects>
      <tilted>0</tilted></_>
    <_>
      <rects>
        <_>
          8 1 1 6 -1.</_>
        <_>
          8 3 1 2 3.</_></rects>
      <tilted>0</tilted></_>
    <_>
      <rects>
        <_>
          8 13 4 11 -1.</_>
        <_>
          10 13 2 11 2.</_></rects>
      <tilted>0</tilted></_>
    <_>
      <rects>
        <_>
          9 8 3 6 -1.</_>
        <_>
          10 8 1 6 3.</_></rects>
      <tilted>0</tilted></_>
    <_>
      <rects>
        <_>
          9 10 3 3 -1.</_>
        <_>
          10 10 1 3 3.</_></rects>
      <tilted>0</tilted></_>
    <_>
      <rects>
        <_>
          10 5 2 12 -1.</_>
        <_>
          11 5 1 12 2.</_></rects>
      <tilted>0</tilted></_>
    <_>
      <rects>
        <_>
          10 9 2 12 -1.</_>
        <_>
          11 9 1 12 2.</_></rects>
      <tilted>0</tilted></_>
    <_>
      <rects>
        <_>
          10 9 2 14 -1.</_>
        <_>
          11 9 1 14 2.</_></rects>
      <tilted>0</tilted></_>
    <_>
      <rects>
        <_>
          10 10 2 8 -1.</_>
        <_>
          11 10 1 8 2.</_></rects>
      <tilted>0</tilted></_>
    <_>
      <rects>
        <_>
          10 11 2 7 -1.</_>
        <_>
          11 11 1 7 2.</_></rects>
      <tilted>0</tilted></_>
    <_>
      <rects>
        <_>
          10 23 2 1 -1.</_>
        <_>
          11 23 1 1 2.</_></rects>
      <tilted>0</tilted></_></features></cascade>
</opencv_storage>
